svm_type c_svc
kernel_type precomputed
nr_class 2
total_sv 279
rho 21.699843102145429
label 1 -1
nr_sv 99 180
SV
0.5 0:16 
0.5 0:78 
0.5 0:129 
0.22932287348657068 0:181 
0.5 0:228 
0.5 0:287 
0.5 0:342 
0.5 0:394 
0.5 0:451 
0.33610736974969024 0:505 
0.16419598449915934 0:560 
0.5 0:611 
0.5 0:660 
0.5 0:716 
0.5 0:765 
0.5 0:864 
0.5 0:917 
0.27201286915211448 0:982 
0.23642403106745469 0:1041 
0.5 0:1104 
0.5 0:1152 
0.26809287582905583 0:1203 
0.5 0:1252 
0.5 0:1303 
0.5 0:1364 
0.5 0:1417 
0.5 0:1475 
0.5 0:1524 
0.5 0:1580 
0.5 0:1631 
0.5 0:1684 
0.5 0:1747 
0.5 0:1799 
0.5 0:1863 
0.5 0:1925 
0.2564407557421125 0:2044 
0.5 0:2108 
0.5 0:2174 
0.23268786654895041 0:2284 
0.5 0:2330 
0.5 0:2484 
0.5 0:2601 
0.38369959937583181 0:2662 
0.5 0:2722 
0.5 0:2775 
0.5 0:2829 
0.5 0:2878 
0.25135819131192405 0:2925 
0.5 0:2974 
0.5 0:3026 
0.5 0:3138 
0.5 0:3194 
0.5 0:3244 
0.5 0:3309 
0.5 0:3462 
0.5 0:3513 
0.28327288066617301 0:3581 
0.5 0:3683 
0.5 0:3784 
0.5 0:3838 
0.5 0:3891 
0.5 0:3954 
0.5 0:4010 
0.5 0:4062 
0.5 0:4128 
0.5 0:4175 
0.5 0:4226 
0.088025279228316627 0:4271 
0.5 0:4327 
0.43276844523786157 0:4390 
0.5 0:4492 
0.5 0:4544 
0.5 0:4599 
0.5 0:4705 
0.5 0:4765 
0.5 0:4812 
0.5 0:4863 
0.5 0:4926 
0.5 0:4980 
0.5 0:5028 
0.5 0:5073 
0.16476692915655614 0:5136 
0.5 0:5192 
0.5 0:5248 
0.5 0:5333 
0.5 0:5385 
0.5 0:5440 
0.5 0:5489 
0.5 0:5537 
0.5 0:5588 
0.5 0:5637 
0.5 0:5687 
0.5 0:5740 
0.47160858057199428 0:5786 
0.44905050126011903 0:5840 
0.32480600960399708 0:5900 
0.5 0:5956 
0.5 0:6007 
0.5 0:6063 
-0.5 0:31 
-0.14563612577333146 0:43 
-0.5 0:60 
-0.22883876482575169 0:72 
-0.5 0:144 
-0.5 0:178 
-0.5 0:227 
-0.038115119161540999 0:240 
-0.5 0:454 
-0.37069546357617122 0:459 
-0.021246368605023352 0:527 
-0.063278717787667263 0:557 
-0.49104039571557778 0:559 
-0.30969231992518542 0:609 
-0.5 0:610 
-0.021769968208343631 0:632 
-0.5 0:658 
-0.0083848291343547512 0:714 
-0.5 0:771 
-0.18773403450399728 0:793 
-0.015349036702365043 0:803 
-0.17250102755425295 0:816 
-0.015372203223757066 0:838 
-0.010972657355009262 0:865 
-0.14002899484227102 0:882 
-0.002962091062126001 0:938 
-0.068801426648896519 0:976 
-0.041576928933125278 0:996 
-0.38002134549614225 0:1028 
-0.27417968537023757 0:1057 
-0.5 0:1066 
-0.19066105573183323 0:1118 
-0.073701092867276247 0:1134 
-0.5 0:1159 
-0.5 0:1165 
-0.5 0:1171 
-0.5 0:1172 
-0.24000262591538046 0:1179 
-0.020222028426240036 0:1214 
-0.28646628063341184 0:1262 
-0.5 0:1301 
-0.5 0:1302 
-0.094274060931916911 0:1345 
-0.5 0:1348 
-0.5 0:1359 
-0.0029054045634008619 0:1406 
-0.5 0:1420 
-0.5 0:1427 
-0.15826491659151234 0:1429 
-0.5 0:1472 
-0.40581828093979239 0:1502 
-0.067265845679125885 0:1630 
-0.0024423845789971143 0:1693 
-0.4189477788915596 0:1744 
-0.5 0:1746 
-0.0044733073450635543 0:1760 
-0.0128797415604888 0:1769 
-0.5 0:1785 
-0.5 0:1810 
-0.14993110513063693 0:1864 
-0.10056818947591177 0:1916 
-0.070129201920434703 0:1920 
-0.4257324847680708 0:1945 
-0.5 0:1948 
-0.47606887065507553 0:2007 
-0.096093655425840682 0:2096 
-0.1120490615804678 0:2102 
-0.32723256485858943 0:2103 
-0.090821481546807026 0:2164 
-0.054052625071744499 0:2168 
-0.5 0:2209 
-0.18946222959381454 0:2211 
-0.00011962064536526081 0:2234 
-0.5 0:2256 
-0.5 0:2271 
-0.5 0:2384 
-0.083579629572559905 0:2437 
-0.028335958026332011 0:2455 
-0.34267286025812316 0:2479 
-0.2505288529409036 0:2626 
-0.24075503974818729 0:2659 
-0.056073368505670886 0:2705 
-0.110722465325714 0:2726 
-0.2892228080956688 0:2756 
-0.22188122981722624 0:2779 
-0.10615974256860919 0:2971 
-0.22903944238676394 0:3027 
-0.5 0:3083 
-0.023809660720906862 0:3104 
-0.20307089859247585 0:3132 
-0.26105243117331356 0:3154 
-0.086396874510027297 0:3184 
-0.5 0:3198 
-0.5 0:3221 
-0.01953406616174868 0:3264 
-0.5 0:3278 
-0.022944201032946841 0:3297 
-0.25859492556109293 0:3310 
-0.5 0:3311 
-0.32110628515413364 0:3335 
-0.5 0:3351 
-0.025010873212429462 0:3359 
-0.14752778226457497 0:3369 
-0.5 0:3370 
-0.077134051731825304 0:3376 
-0.026633353103685278 0:3436 
-0.5 0:3460 
-0.10574393627758211 0:3476 
-0.015161040043654468 0:3508 
-0.29927443915406321 0:3700 
-0.021613677476559113 0:3738 
-0.11460742981188921 0:3797 
-0.095622430105857414 0:3812 
-0.18826428460523037 0:3839 
-0.028174215670653015 0:3858 
-0.5 0:3981 
-0.058485841128215046 0:4002 
-0.5 0:4020 
-0.069319950513223316 0:4033 
-0.5 0:4067 
-0.27550868973201342 0:4119 
-0.094183634515855527 0:4129 
-0.013542466431723065 0:4150 
-0.5 0:4177 
-0.22673121243616789 0:4185 
-0.10234040320383249 0:4235 
-0.066238026970906236 0:4295 
-0.019267501195562874 0:4331 
-0.049795099412564769 0:4364 
-0.43121545897776981 0:4375 
-0.35209490280143124 0:4382 
-0.5 0:4484 
-0.015124668623024206 0:4485 
-0.5 0:4486 
-0.03634620951267311 0:4491 
-0.5 0:4499 
-0.030686414302989774 0:4567 
-0.49739102778968591 0:4572 
-0.030954595314947868 0:4589 
-0.004867023271226934 0:4714 
-0.5 0:4813 
-0.21550593554187608 0:4815 
-0.5 0:4838 
-0.014347750592802671 0:4881 
-0.5 0:4933 
-0.24418420708951846 0:4967 
-0.5 0:5002 
-0.31951035972841951 0:5014 
-0.0065458563503825286 0:5180 
-0.5 0:5249 
-0.12446830754123051 0:5250 
-0.5 0:5269 
-0.47820645100579512 0:5303 
-0.002012931453175102 0:5344 
-0.078759908665499881 0:5353 
-0.5 0:5457 
-0.026683252927348605 0:5460 
-0.41554851621271427 0:5482 
-0.065499410033037608 0:5513 
-0.29669480673079529 0:5535 
-0.11694373852564045 0:5557 
-0.064177344152249377 0:5573 
-0.5 0:5639 
-0.048517491999456187 0:5674 
-0.032628023616801671 0:5681 
-0.42708177037903844 0:5732 
-0.25185384571965053 0:5784 
-0.14373243377574993 0:5796 
-0.026418510879270683 0:5805 
-0.13292097944280093 0:5908 
-0.5 0:5913 
-0.5 0:5948 
-0.32786087271884395 0:5972 
-0.018624781900067746 0:5979 
-0.0002983619864267688 0:6055 
-0.5 0:6065 
-0.5 0:6068 
-0.019307903165283306 0:6078 
-0.063050494587058734 0:6083 
-0.13013201628883689 0:6089 
