svm_type c_svc
kernel_type rbf
gamma 0.0625
nr_class 2
total_sv 535
rho 1.8261983677749087
label 1 -1
nr_sv 109 426
SV
8 1:1 46:1 64:1 79:1 113:1 131:1 175:1 198:1 
8 1:1 27:1 72:1 79:1 111:1 131:1 162:1 201:1 
8 16:1 30:1 61:1 87:1 110:1 131:1 157:1 202:1 
5.1149519002541233 1:1 42:1 53:1 79:1 112:1 131:1 157:1 186:1 
8 12:1 46:1 53:1 84:1 105:1 131:1 176:1 202:1 
8 25:1 40:1 56:1 79:1 120:1 131:1 165:1 196:1 
6.1587319502337259 12:1 48:1 56:1 100:1 109:1 131:1 164:1 190:1 
8 16:1 43:1 53:1 97:1 123:1 131:1 157:1 204:1 
4.7877759959231181 19:1 40:1 72:1 79:1 123:1 131:1 157:1 204:1 
8 9:1 48:1 72:1 79:1 118:1 131:1 175:1 191:1 
7.5818391723186656 16:1 40:1 53:1 79:1 109:1 131:1 175:1 201:1 
8 8:1 45:1 53:1 79:1 105:1 131:1 157:1 196:1 
7.5939935477868898 7:1 48:1 56:1 79:1 109:1 150:1 178:1 190:1 
7.9994585992082952 7:1 44:1 60:1 79:1 115:1 131:1 157:1 183:1 
8 8:1 38:1 74:1 90:1 105:1 137:1 172:1 183:1 
8 16:1 46:1 68:1 79:1 105:1 131:1 157:1 198:1 
6.2608248004286349 20:1 27:1 68:1 87:1 121:1 131:1 157:1 201:1 
3.4647950009780417 13:1 31:1 58:1 79:1 115:1 131:1 161:1 202:1 
3.7137100011220521 20:1 30:1 56:1 100:1 121:1 131:1 157:1 187:1 
5.0309827323150929 7:1 45:1 74:1 79:1 112:1 131:1 175:1 187:1 
8 19:1 32:1 64:1 85:1 111:1 152:1 176:1 199:1 
6.0706034856309534 16:1 48:1 65:1 79:1 107:1 137:1 173:1 187:1 
4.3756757843958054 9:1 45:1 71:1 100:1 121:1 131:1 161:1 200:1 
8 9:1 46:1 71:1 90:1 109:1 131:1 162:1 202:1 
8 20:1 42:1 71:1 79:1 105:1 131:1 172:1 201:1 
8 1:1 45:1 71:1 85:1 111:1 148:1 163:1 190:1 
8 12:1 42:1 53:1 85:1 111:1 131:1 157:1 207:1 
8 1:1 33:1 53:1 97:1 118:1 131:1 157:1 189:1 
7.3005812328886943 1:1 38:1 68:1 100:1 127:1 131:1 175:1 198:1 
8 1:1 45:1 53:1 100:1 129:1 131:1 160:1 198:1 
5.2951791593439239 16:1 46:1 74:1 79:1 109:1 131:1 160:1 204:1 
8 11:1 48:1 72:1 100:1 109:1 131:1 157:1 189:1 
8 1:1 46:1 53:1 83:1 105:1 131:1 160:1 201:1 
8 1:1 42:1 70:1 79:1 108:1 131:1 157:1 183:1 
5.0401994081628176 16:1 45:1 63:1 79:1 105:1 131:1 157:1 201:1 
8 1:1 45:1 72:1 79:1 126:1 141:1 157:1 189:1 
4.4173578372455573 1:1 45:1 68:1 79:1 121:1 131:1 157:1 202:1 
0.010593510975678743 19:1 46:1 71:1 79:1 123:1 131:1 157:1 198:1 
8 1:1 27:1 63:1 97:1 105:1 131:1 160:1 196:1 
8 20:1 42:1 77:1 82:1 109:1 148:1 173:1 198:1 
0.61547641931550368 1:1 42:1 65:1 79:1 123:1 131:1 173:1 201:1 
1.598624155369365 1:1 42:1 65:1 79:1 110:1 131:1 157:1 187:1 
6.4603554463904862 1:1 27:1 71:1 79:1 110:1 131:1 157:1 198:1 
0.26958694826756957 17:1 43:1 72:1 100:1 115:1 131:1 161:1 201:1 
8 1:1 33:1 72:1 79:1 105:1 131:1 157:1 186:1 
2.9863481265138305 20:1 45:1 63:1 100:1 121:1 131:1 157:1 189:1 
6.7995113964191658 19:1 40:1 72:1 97:1 116:1 131:1 157:1 186:1 
3.6098340219384895 1:1 33:1 71:1 79:1 111:1 131:1 157:1 198:1 
3.8036534485999498 11:1 40:1 60:1 79:1 115:1 131:1 161:1 204:1 
8 5:1 45:1 72:1 90:1 121:1 131:1 167:1 187:1 
5.2142290748414428 16:1 46:1 66:1 100:1 113:1 131:1 167:1 187:1 
4.9656217239104574 20:1 42:1 66:1 100:1 116:1 131:1 161:1 201:1 
4.8241691638023712 16:1 38:1 66:1 100:1 115:1 131:1 170:1 187:1 
7.9549675336930923 22:1 40:1 59:1 97:1 109:1 141:1 175:1 187:1 
8 1:1 42:1 72:1 85:1 105:1 131:1 157:1 198:1 
1.662464191013918 1:1 42:1 65:1 79:1 121:1 131:1 161:1 196:1 
5.726626184638631 17:1 30:1 63:1 83:1 105:1 131:1 157:1 201:1 
8 20:1 45:1 64:1 97:1 111:1 149:1 168:1 204:1 
8 20:1 27:1 72:1 79:1 123:1 131:1 173:1 202:1 
8 20:1 27:1 74:1 83:1 118:1 149:1 157:1 183:1 
2.4262445465856364 22:1 43:1 69:1 79:1 111:1 131:1 161:1 187:1 
5.934937843666364 16:1 45:1 69:1 79:1 105:1 131:1 170:1 186:1 
2.8193777139036276 1:1 45:1 68:1 79:1 123:1 131:1 157:1 189:1 
7.3305628334955637 20:1 33:1 72:1 79:1 112:1 131:1 161:1 198:1 
2.556417753273164 13:1 43:1 66:1 79:1 118:1 131:1 181:1 186:1 
5.7214851065583012 1:1 40:1 72:1 100:1 123:1 131:1 157:1 189:1 
8 16:1 40:1 53:1 79:1 116:1 131:1 157:1 183:1 
8 19:1 33:1 72:1 79:1 116:1 131:1 157:1 201:1 
8 7:1 33:1 66:1 79:1 129:1 137:1 175:1 202:1 
7.7905960770369012 5:1 46:1 63:1 100:1 123:1 131:1 157:1 193:1 
8 22:1 37:1 59:1 84:1 121:1 152:1 175:1 189:1 
8 14:1 46:1 59:1 97:1 124:1 131:1 176:1 202:1 
8 20:1 43:1 68:1 97:1 109:1 149:1 157:1 191:1 
8 9:1 34:1 72:1 94:1 115:1 131:1 161:1 183:1 
4.3504581601701036 22:1 42:1 65:1 79:1 123:1 131:1 170:1 202:1 
2.51855627381536 22:1 42:1 70:1 79:1 127:1 131:1 173:1 202:1 
8 12:1 33:1 72:1 92:1 124:1 155:1 167:1 183:1 
3.9507301980498757 22:1 38:1 68:1 79:1 121:1 131:1 157:1 202:1 
2.077856698922413 14:1 42:1 74:1 79:1 111:1 131:1 157:1 186:1 
8 8:1 31:1 53:1 100:1 105:1 135:1 160:1 183:1 
8 1:1 33:1 68:1 79:1 123:1 131:1 160:1 202:1 
7.5148856877872054 7:1 45:1 72:1 100:1 110:1 131:1 178:1 186:1 
0.63296778564474532 20:1 27:1 68:1 79:1 121:1 131:1 157:1 198:1 
8 9:1 42:1 64:1 100:1 121:1 137:1 157:1 189:1 
4.6132960874280631 7:1 33:1 74:1 79:1 109:1 131:1 170:1 186:1 
8 12:1 45:1 59:1 98:1 105:1 144:1 157:1 187:1 
3.9677196639150636 12:1 31:1 66:1 79:1 115:1 131:1 157:1 196:1 
6.1053584889794035 7:1 43:1 72:1 100:1 122:1 131:1 160:1 190:1 
8 16:1 27:1 56:1 96:1 108:1 137:1 157:1 198:1 
6.4012459142615477 16:1 46:1 61:1 97:1 117:1 149:1 175:1 187:1 
6.0075442308712965 19:1 33:1 74:1 79:1 124:1 131:1 157:1 198:1 
3.2443864455304379 20:1 46:1 56:1 100:1 115:1 131:1 161:1 201:1 
8 22:1 42:1 71:1 79:1 129:1 131:1 157:1 183:1 
8 17:1 46:1 68:1 79:1 126:1 131:1 157:1 183:1 
8 19:1 45:1 71:1 79:1 118:1 131:1 175:1 199:1 
6.3017272885148889 14:1 40:1 57:1 79:1 123:1 131:1 157:1 183:1 
6.5224742329379142 5:1 35:1 69:1 79:1 115:1 131:1 157:1 191:1 
6.7196472761684563 16:1 46:1 61:1 96:1 123:1 131:1 175:1 202:1 
8 12:1 48:1 58:1 79:1 111:1 135:1 160:1 193:1 
7.2104022092306232 12:1 31:1 74:1 87:1 121:1 131:1 161:1 204:1 
5.429000260589194 7:1 46:1 71:1 79:1 121:1 131:1 161:1 183:1 
5.2392925950487079 19:1 46:1 63:1 100:1 129:1 131:1 179:1 186:1 
8 4:1 37:1 70:1 100:1 126:1 131:1 157:1 201:1 
6.392522898964712 22:1 33:1 66:1 79:1 105:1 131:1 157:1 198:1 
3.2299536184591764 22:1 42:1 57:1 79:1 123:1 131:1 173:1 187:1 
6.3330603940459493 22:1 42:1 72:1 79:1 118:1 131:1 161:1 202:1 
8 13:1 38:1 58:1 97:1 124:1 131:1 157:1 193:1 
6.7895742856552097 1:1 46:1 69:1 79:1 110:1 131:1 167:1 187:1 
8 9:1 33:1 64:1 97:1 123:1 152:1 173:1 183:1 
-0.26674526033739815 19:1 46:1 74:1 79:1 124:1 142:1 157:1 191:1 
-8 5:1 42:1 72:1 79:1 123:1 131:1 167:1 198:1 
-3.1632136536868871 25:1 31:1 58:1 89:1 121:1 131:1 157:1 201:1 
-2.8132951050708819 9:1 33:1 72:1 79:1 105:1 131:1 178:1 204:1 
-0.18610861577932977 16:1 33:1 64:1 100:1 111:1 142:1 157:1 189:1 
-1.5325795590461089 22:1 33:1 64:1 79:1 111:1 137:1 157:1 183:1 
-0.41001059638257054 12:1 42:1 74:1 83:1 129:1 142:1 173:1 204:1 
-0.19858293158863227 19:1 42:1 71:1 91:1 111:1 148:1 160:1 191:1 
-1.4266057221282562 1:1 46:1 56:1 97:1 109:1 134:1 175:1 201:1 
-1.7236673094782882 12:1 40:1 72:1 82:1 109:1 153:1 161:1 187:1 
-2.1635192011706503 14:1 46:1 56:1 83:1 127:1 135:1 161:1 187:1 
-0.650860307500015 5:1 43:1 68:1 97:1 109:1 152:1 170:1 202:1 
-1.9844418169265801 1:1 33:1 64:1 79:1 111:1 146:1 157:1 198:1 
-5.9526970913265851 1:1 33:1 68:1 79:1 120:1 131:1 157:1 190:1 
-1.1442064485184988 17:1 51:1 68:1 100:1 120:1 131:1 157:1 198:1 
-0.30555907077779176 12:1 38:1 68:1 97:1 112:1 149:1 160:1 186:1 
-0.47867938327952442 20:1 45:1 64:1 79:1 116:1 152:1 157:1 189:1 
-7.6852715379229313 19:1 38:1 72:1 79:1 110:1 131:1 157:1 202:1 
-0.76537085675163197 1:1 42:1 68:1 79:1 115:1 147:1 161:1 201:1 
-4.9527688699252312 19:1 37:1 68:1 79:1 126:1 131:1 157:1 196:1 
-0.38829891684800893 11:1 42:1 53:1 100:1 105:1 131:1 170:1 198:1 
-0.02107148364016985 25:1 45:1 74:1 90:1 107:1 146:1 181:1 187:1 
-1.9340546530520841 14:1 40:1 74:1 79:1 118:1 144:1 175:1 202:1 
-0.16078095137765339 12:1 38:1 61:1 94:1 121:1 131:1 175:1 201:1 
-2.4836626759639246 9:1 42:1 69:1 79:1 123:1 149:1 157:1 183:1 
-0.49094978176653642 1:1 45:1 71:1 79:1 105:1 152:1 170:1 189:1 
-0.054265517071888585 13:1 40:1 68:1 82:1 129:1 141:1 157:1 207:1 
-0.45527149240048193 9:1 42:1 57:1 100:1 124:1 144:1 179:1 187:1 
-0.67651828510330425 12:1 46:1 53:1 84:1 113:1 137:1 175:1 198:1 
-0.24038794329459609 20:1 27:1 58:1 87:1 111:1 149:1 172:1 201:1 
-7.2088135641627398 1:1 45:1 53:1 79:1 126:1 131:1 160:1 186:1 
-3.4168054524474738 1:1 30:1 56:1 84:1 121:1 131:1 175:1 204:1 
-1.189435467882993 7:1 42:1 64:1 79:1 115:1 139:1 170:1 186:1 
-2.8000421402712465 1:1 45:1 64:1 87:1 110:1 131:1 175:1 201:1 
-0.46206395691658325 20:1 27:1 66:1 79:1 123:1 139:1 157:1 198:1 
-0.011542529720908424 1:1 40:1 53:1 97:1 113:1 131:1 172:1 196:1 
-0.037884565131756254 13:1 33:1 68:1 90:1 109:1 141:1 178:1 202:1 
-1.5405119831522802 22:1 46:1 56:1 84:1 118:1 131:1 162:1 193:1 
-2.5930031961636812 16:1 51:1 66:1 94:1 118:1 131:1 157:1 187:1 
-3.9086533590189321 14:1 42:1 66:1 79:1 105:1 135:1 157:1 201:1 
-5.3215215398791011 16:1 34:1 71:1 79:1 105:1 131:1 157:1 183:1 
-0.44901023983699812 16:1 40:1 56:1 85:1 121:1 138:1 179:1 193:1 
-0.34895763273777142 12:1 46:1 64:1 94:1 116:1 131:1 157:1 201:1 
-3.2742508710108531 19:1 46:1 59:1 100:1 108:1 131:1 161:1 202:1 
-0.197027235900399 1:1 42:1 72:1 79:1 108:1 141:1 170:1 189:1 
-2.0441600604289327 16:1 46:1 59:1 96:1 112:1 131:1 167:1 183:1 
-0.69732833299179231 8:1 27:1 63:1 79:1 105:1 131:1 172:1 188:1 
-0.34677822226245514 7:1 46:1 65:1 91:1 121:1 155:1 162:1 187:1 
-0.76063037433817426 23:1 46:1 63:1 100:1 105:1 144:1 161:1 183:1 
-1.0202410828332942 12:1 27:1 59:1 94:1 105:1 131:1 157:1 201:1 
-6.6034497596569404 16:1 27:1 53:1 79:1 123:1 131:1 161:1 202:1 
-1.0949568635418836 1:1 31:1 72:1 79:1 118:1 141:1 175:1 196:1 
-2.1223280727466403 7:1 46:1 61:1 90:1 112:1 131:1 179:1 196:1 
-0.041669067811700301 1:1 27:1 68:1 94:1 111:1 131:1 167:1 186:1 
-2.5991168741274109 1:1 45:1 74:1 79:1 122:1 131:1 159:1 202:1 
-0.91673554066457541 1:1 42:1 61:1 95:1 105:1 131:1 175:1 186:1 
-0.18467790645855647 19:1 46:1 56:1 100:1 113:1 155:1 173:1 191:1 
-0.077960209047903864 13:1 42:1 65:1 83:1 110:1 131:1 167:1 183:1 
-0.85330765542292397 20:1 27:1 68:1 79:1 113:1 131:1 170:1 204:1 
-0.17398205792564764 22:1 43:1 53:1 79:1 109:1 142:1 160:1 202:1 
-0.47813552167664486 16:1 33:1 72:1 98:1 124:1 152:1 173:1 198:1 
-0.63632242913849679 20:1 46:1 72:1 100:1 121:1 146:1 160:1 196:1 
-4.0079416430901285 22:1 33:1 74:1 79:1 123:1 152:1 157:1 204:1 
-0.53759792128835537 11:1 46:1 72:1 83:1 126:1 131:1 157:1 193:1 
-0.77377818960850875 16:1 51:1 68:1 97:1 117:1 131:1 173:1 202:1 
-1.834687914156977 16:1 45:1 65:1 79:1 121:1 150:1 160:1 199:1 
-1.3117639642244814 11:1 32:1 63:1 84:1 111:1 131:1 157:1 201:1 
-0.26217226207309319 12:1 45:1 58:1 90:1 111:1 137:1 178:1 202:1 
-0.79738509083576392 12:1 40:1 61:1 84:1 109:1 135:1 175:1 191:1 
-1.2757599821789565 5:1 31:1 71:1 87:1 126:1 131:1 157:1 201:1 
-1.1004247890072594 5:1 45:1 61:1 100:1 105:1 131:1 175:1 202:1 
-1.84741146581511 20:1 35:1 68:1 85:1 123:1 131:1 157:1 202:1 
-0.23418597611970221 12:1 33:1 53:1 100:1 105:1 131:1 168:1 201:1 
-0.77994704343126342 3:1 33:1 69:1 83:1 123:1 149:1 157:1 186:1 
-1.877461077697433 7:1 43:1 57:1 97:1 123:1 131:1 160:1 183:1 
-8 5:1 45:1 71:1 79:1 108:1 131:1 157:1 187:1 
-3.7137863139279728 1:1 31:1 68:1 79:1 111:1 149:1 157:1 198:1 
-2.9886364013595048 1:1 42:1 71:1 97:1 123:1 131:1 157:1 183:1 
-4.1578158825415592 16:1 45:1 71:1 97:1 105:1 131:1 157:1 190:1 
-0.82851950199443181 8:1 37:1 68:1 85:1 109:1 152:1 161:1 198:1 
-1.501809792669045 19:1 46:1 61:1 97:1 123:1 152:1 173:1 183:1 
-0.52486552292657906 8:1 37:1 74:1 87:1 115:1 144:1 161:1 202:1 
-0.31906030386847384 9:1 45:1 69:1 90:1 118:1 141:1 170:1 204:1 
-0.32465170893029538 14:1 37:1 66:1 100:1 127:1 152:1 164:1 202:1 
-2.0371781692099908 7:1 31:1 71:1 90:1 121:1 152:1 161:1 183:1 
-3.7024801746234033 19:1 38:1 69:1 100:1 109:1 131:1 167:1 187:1 
-0.14662562927907324 12:1 43:1 74:1 83:1 105:1 141:1 161:1 193:1 
-0.75580868342647411 5:1 37:1 72:1 85:1 121:1 152:1 167:1 190:1 
-0.58270964048959262 11:1 34:1 63:1 92:1 121:1 131:1 176:1 190:1 
-1.1862331982091545 18:1 48:1 60:1 79:1 127:1 131:1 174:1 183:1 
-1.7492125026962937 8:1 27:1 75:1 79:1 122:1 131:1 174:1 198:1 
-2.5398469033426538 16:1 42:1 72:1 94:1 123:1 131:1 157:1 183:1 
-8 16:1 46:1 68:1 97:1 105:1 131:1 157:1 198:1 
-1.5064337770870622 16:1 30:1 68:1 79:1 126:1 135:1 173:1 187:1 
-3.7097986294426057 20:1 27:1 72:1 79:1 111:1 131:1 157:1 194:1 
-7.5703465156491285 1:1 33:1 53:1 79:1 116:1 131:1 157:1 183:1 
-8 16:1 33:1 72:1 79:1 112:1 131:1 175:1 201:1 
-0.13487850152839051 7:1 45:1 74:1 97:1 108:1 131:1 161:1 200:1 
-0.29730126021500258 1:1 33:1 59:1 79:1 105:1 155:1 157:1 201:1 
-8 7:1 33:1 53:1 79:1 129:1 131:1 175:1 202:1 
-0.082340258838917602 1:1 45:1 72:1 97:1 124:1 131:1 167:1 183:1 
-5.741275877759648 20:1 45:1 72:1 79:1 115:1 131:1 172:1 183:1 
-1.8987812107457991 20:1 27:1 63:1 79:1 120:1 131:1 157:1 187:1 
-1.0270275182812123 1:1 42:1 53:1 79:1 109:1 137:1 165:1 201:1 
-1.0540869589396766 12:1 31:1 63:1 95:1 129:1 131:1 157:1 200:1 
-1.1567710560462319 18:1 27:1 74:1 100:1 117:1 131:1 157:1 183:1 
-1.6853436601391276 22:1 48:1 65:1 79:1 105:1 131:1 178:1 189:1 
-4.5752208415989868 12:1 33:1 71:1 79:1 111:1 131:1 175:1 196:1 
-0.58101112788280018 13:1 46:1 59:1 79:1 115:1 136:1 176:1 199:1 
-0.86749365725435468 22:1 38:1 56:1 87:1 105:1 137:1 157:1 187:1 
-3.9104180949507676 12:1 30:1 61:1 79:1 111:1 131:1 161:1 196:1 
-1.4196103968749767 20:1 45:1 74:1 97:1 117:1 149:1 178:1 189:1 
-0.45306197227122658 6:1 43:1 65:1 79:1 115:1 148:1 157:1 188:1 
-0.14626007808267899 14:1 37:1 69:1 97:1 110:1 149:1 176:1 186:1 
-2.9766844624563324 12:1 42:1 72:1 100:1 105:1 135:1 157:1 186:1 
-2.3601971801357222 13:1 45:1 58:1 100:1 110:1 149:1 157:1 191:1 
-0.089199021378339446 20:1 43:1 63:1 100:1 124:1 152:1 161:1 183:1 
-0.89988209120076446 20:1 45:1 56:1 100:1 126:1 155:1 173:1 191:1 
-0.96809752806230753 8:1 46:1 53:1 84:1 115:1 141:1 176:1 183:1 
-0.09180676869815646 22:1 42:1 71:1 84:1 105:1 142:1 173:1 198:1 
-4.4254298332738742 12:1 43:1 68:1 79:1 124:1 131:1 161:1 183:1 
-8 16:1 27:1 72:1 79:1 109:1 131:1 157:1 186:1 
-1.3370236608947526 25:1 51:1 68:1 97:1 127:1 131:1 157:1 207:1 
-0.92721852449734765 25:1 40:1 74:1 79:1 108:1 139:1 160:1 198:1 
-6.8843435711939387 9:1 46:1 58:1 79:1 116:1 131:1 162:1 191:1 
-0.92359191955359832 18:1 27:1 56:1 79:1 105:1 131:1 173:1 205:1 
-0.86932905969467633 17:1 49:1 69:1 79:1 111:1 150:1 157:1 207:1 
-3.0570080576049072 1:1 33:1 72:1 79:1 129:1 141:1 173:1 189:1 
-0.46102082126817778 13:1 45:1 66:1 79:1 122:1 146:1 175:1 193:1 
-0.98735122333863101 6:1 33:1 68:1 97:1 115:1 131:1 157:1 183:1 
-0.23484795651044107 19:1 37:1 53:1 79:1 105:1 131:1 175:1 198:1 
-0.10466200080876213 19:1 42:1 56:1 82:1 118:1 136:1 175:1 198:1 
-0.3694820669141361 16:1 30:1 56:1 92:1 110:1 149:1 172:1 187:1 
-0.61134846055914316 20:1 27:1 59:1 100:1 111:1 155:1 157:1 201:1 
-0.81782708211902 22:1 33:1 77:1 79:1 123:1 150:1 173:1 183:1 
-0.73084434487971461 25:1 27:1 71:1 98:1 121:1 131:1 175:1 202:1 
-0.23602906909060498 20:1 43:1 53:1 97:1 124:1 131:1 178:1 193:1 
-0.12332826810098756 8:1 37:1 63:1 83:1 113:1 131:1 169:1 187:1 
-0.38509262927160842 5:1 38:1 74:1 97:1 123:1 131:1 161:1 196:1 
-2.2423419994864897 22:1 45:1 71:1 79:1 109:1 144:1 175:1 201:1 
-0.11202459775583448 7:1 38:1 74:1 85:1 116:1 131:1 175:1 198:1 
-3.5404100944941255 1:1 46:1 71:1 79:1 124:1 131:1 176:1 188:1 
-0.1388999585234878 20:1 27:1 72:1 84:1 121:1 141:1 176:1 201:1 
-1.7883708227131188 4:1 45:1 70:1 79:1 118:1 148:1 157:1 186:1 
-0.34278452414447502 1:1 40:1 70:1 79:1 108:1 131:1 176:1 200:1 
-0.99429498516602011 7:1 38:1 72:1 79:1 111:1 131:1 165:1 183:1 
-0.52890515543723371 19:1 45:1 65:1 97:1 124:1 149:1 157:1 201:1 
-0.60327855808524511 13:1 45:1 72:1 97:1 105:1 149:1 157:1 183:1 
-0.81036733808190009 20:1 45:1 53:1 97:1 105:1 131:1 172:1 201:1 
-0.24917085026699792 16:1 27:1 64:1 100:1 113:1 137:1 175:1 189:1 
-0.43235439793678371 25:1 33:1 59:1 79:1 126:1 131:1 157:1 194:1 
-2.4177381605361177 7:1 33:1 72:1 98:1 113:1 131:1 157:1 198:1 
-8 1:1 42:1 70:1 79:1 105:1 131:1 157:1 183:1 
-4.9625082394983577 16:1 44:1 53:1 79:1 105:1 131:1 157:1 193:1 
-2.2272524570174776 9:1 33:1 72:1 85:1 129:1 137:1 157:1 183:1 
-1.9928619634999223 16:1 38:1 66:1 83:1 121:1 149:1 162:1 187:1 
-0.41765662655145414 14:1 31:1 69:1 97:1 110:1 135:1 173:1 191:1 
-3.3033586913996644 19:1 35:1 63:1 79:1 115:1 131:1 173:1 183:1 
-0.47450168705416695 11:1 27:1 63:1 79:1 121:1 131:1 167:1 200:1 
-4.9615932402930261 22:1 42:1 72:1 79:1 113:1 131:1 168:1 202:1 
-0.0018700636898176452 13:1 27:1 71:1 79:1 121:1 149:1 175:1 196:1 
-0.14781416860088448 19:1 40:1 64:1 97:1 123:1 134:1 157:1 204:1 
-0.57049661064922275 22:1 48:1 59:1 97:1 113:1 131:1 173:1 189:1 
-2.5229669696560668 7:1 45:1 61:1 79:1 121:1 137:1 178:1 202:1 
-3.3838319793433103 22:1 40:1 71:1 100:1 116:1 131:1 175:1 183:1 
-0.80109547473421394 1:1 42:1 63:1 91:1 108:1 131:1 160:1 195:1 
-0.131738373635543 12:1 45:1 72:1 98:1 116:1 152:1 157:1 201:1 
-0.70538703035654626 12:1 48:1 53:1 97:1 126:1 131:1 157:1 201:1 
-0.15614107186669932 5:1 39:1 72:1 94:1 121:1 131:1 167:1 183:1 
-0.77243974027607376 20:1 48:1 63:1 79:1 109:1 149:1 157:1 198:1 
-1.3019248863819748 16:1 38:1 56:1 87:1 122:1 131:1 160:1 183:1 
-3.3044737188169502 4:1 35:1 70:1 79:1 108:1 131:1 157:1 191:1 
-0.053291905711163642 9:1 27:1 72:1 100:1 118:1 152:1 170:1 202:1 
-0.91753697757978525 20:1 48:1 66:1 100:1 118:1 150:1 157:1 190:1 
-0.0047258780467906263 14:1 46:1 53:1 86:1 105:1 131:1 165:1 186:1 
-2.2953341904258746 1:1 35:1 56:1 100:1 123:1 131:1 167:1 201:1 
-1.2652506862070825 4:1 48:1 71:1 79:1 115:1 149:1 157:1 191:1 
-0.064708159470998616 9:1 35:1 61:1 82:1 111:1 131:1 175:1 189:1 
-0.3265890677711259 7:1 44:1 74:1 90:1 129:1 131:1 167:1 186:1 
-0.76053275452687841 22:1 38:1 77:1 79:1 115:1 134:1 161:1 190:1 
-5.0649287086524266 1:1 48:1 68:1 79:1 121:1 131:1 163:1 202:1 
-0.24865903544339493 7:1 46:1 53:1 79:1 105:1 131:1 160:1 194:1 
-4.0271774547941854 20:1 27:1 64:1 97:1 121:1 137:1 157:1 198:1 
-0.32856821271472053 12:1 42:1 72:1 97:1 115:1 152:1 173:1 183:1 
-0.5442346922948601 20:1 45:1 65:1 83:1 129:1 136:1 175:1 198:1 
-1.1453589770186841 9:1 45:1 63:1 97:1 111:1 152:1 163:1 193:1 
-1.3093264704948582 11:1 45:1 59:1 100:1 111:1 141:1 157:1 201:1 
-0.60763999288821824 19:1 33:1 74:1 85:1 115:1 131:1 175:1 207:1 
-1.5363268422822127 14:1 46:1 71:1 90:1 105:1 131:1 160:1 204:1 
-1.8879788435496463 9:1 37:1 69:1 79:1 115:1 155:1 175:1 201:1 
-0.41637545198988601 1:1 33:1 68:1 79:1 111:1 149:1 157:1 189:1 
-3.0338034334213364 1:1 33:1 53:1 79:1 120:1 131:1 160:1 198:1 
-1.4234027043442325 16:1 46:1 74:1 84:1 110:1 137:1 160:1 201:1 
-0.029521917114754211 9:1 27:1 68:1 100:1 124:1 144:1 173:1 186:1 
-1.143683335113802 16:1 48:1 72:1 92:1 121:1 134:1 175:1 187:1 
-0.10169330384806664 12:1 32:1 72:1 100:1 111:1 131:1 175:1 183:1 
-0.83629126122788611 20:1 48:1 59:1 79:1 123:1 131:1 162:1 204:1 
-0.03350736027863703 9:1 43:1 56:1 83:1 116:1 143:1 173:1 193:1 
-0.84331134984690859 13:1 43:1 63:1 92:1 112:1 131:1 167:1 183:1 
-0.99380440220070132 11:1 27:1 57:1 100:1 123:1 131:1 161:1 187:1 
-2.9486917313451699 11:1 37:1 61:1 87:1 116:1 131:1 157:1 201:1 
-0.14410855886250146 20:1 38:1 69:1 79:1 115:1 135:1 181:1 201:1 
-2.1919910812948853 17:1 27:1 63:1 83:1 129:1 149:1 157:1 187:1 
-0.21334490429905267 20:1 40:1 74:1 87:1 105:1 141:1 161:1 191:1 
-2.5520495347303411 14:1 48:1 64:1 79:1 109:1 149:1 173:1 198:1 
-0.23824840230436664 9:1 30:1 71:1 100:1 115:1 135:1 167:1 187:1 
-0.33450954456648924 8:1 37:1 63:1 97:1 109:1 142:1 175:1 201:1 
-1.0778711090726321 19:1 42:1 64:1 100:1 118:1 137:1 175:1 187:1 
-1.1116534192467187 1:1 27:1 65:1 98:1 116:1 131:1 157:1 189:1 
-2.0282078272884068 16:1 46:1 59:1 79:1 105:1 131:1 172:1 183:1 
-1.6726768040738857 9:1 30:1 68:1 82:1 105:1 131:1 176:1 202:1 
-0.92214122264230447 7:1 44:1 70:1 79:1 105:1 131:1 157:1 183:1 
-0.30337143749761192 13:1 27:1 69:1 79:1 109:1 144:1 157:1 196:1 
-4.0707392128117519 1:1 43:1 53:1 83:1 118:1 131:1 170:1 190:1 
-0.92586161651196797 8:1 37:1 60:1 90:1 118:1 137:1 160:1 189:1 
-0.63131281166475828 8:1 38:1 66:1 85:1 108:1 137:1 170:1 198:1 
-1.1707430532949605 11:1 34:1 63:1 90:1 111:1 131:1 157:1 201:1 
-0.86585626925356396 9:1 48:1 74:1 85:1 117:1 137:1 173:1 186:1 
-0.086134228963483231 13:1 33:1 69:1 82:1 115:1 135:1 157:1 183:1 
-2.7915805690355624 7:1 43:1 56:1 89:1 109:1 131:1 157:1 183:1 
-1.6389622974742428 4:1 37:1 57:1 79:1 105:1 131:1 175:1 187:1 
-0.6202612116211027 20:1 46:1 72:1 100:1 109:1 135:1 170:1 189:1 
-1.0569085264119911 5:1 40:1 59:1 92:1 123:1 131:1 176:1 186:1 
-0.51796957419937728 1:1 46:1 56:1 92:1 115:1 150:1 175:1 187:1 
-0.30368842668258894 5:1 46:1 69:1 98:1 124:1 131:1 176:1 196:1 
-0.30293013825042153 22:1 46:1 74:1 97:1 113:1 131:1 175:1 183:1 
-3.14902626947358 22:1 45:1 61:1 79:1 123:1 131:1 178:1 204:1 
-5.079682689184283 7:1 45:1 64:1 100:1 115:1 131:1 160:1 201:1 
-0.43349802735481241 20:1 30:1 56:1 96:1 121:1 147:1 157:1 204:1 
-1.4395271646972108 22:1 46:1 57:1 97:1 121:1 131:1 175:1 194:1 
-6.2585066905042845 22:1 46:1 72:1 97:1 109:1 131:1 157:1 193:1 
-2.0586107518343795 20:1 46:1 71:1 83:1 105:1 131:1 167:1 187:1 
-0.43419735163947293 1:1 43:1 72:1 85:1 111:1 149:1 162:1 188:1 
-0.69895830561186401 19:1 33:1 58:1 101:1 121:1 141:1 157:1 186:1 
-0.48027964374722448 7:1 27:1 65:1 87:1 105:1 131:1 157:1 204:1 
-0.24740542519009839 18:1 37:1 61:1 100:1 121:1 148:1 173:1 202:1 
-0.93022868620176569 1:1 48:1 57:1 92:1 123:1 131:1 157:1 186:1 
-4.3518738452647954 22:1 31:1 66:1 97:1 105:1 131:1 160:1 187:1 
-1.6134232246978497 13:1 46:1 74:1 98:1 123:1 131:1 167:1 186:1 
-4.2035330251988468 12:1 42:1 64:1 79:1 110:1 131:1 157:1 183:1 
-2.0847483391878741 16:1 38:1 53:1 84:1 105:1 131:1 157:1 198:1 
-0.61291716745375413 12:1 27:1 58:1 79:1 105:1 131:1 172:1 198:1 
-0.51738924888885462 16:1 42:1 53:1 86:1 105:1 131:1 160:1 198:1 
-0.54763780311306831 13:1 46:1 66:1 85:1 110:1 155:1 157:1 186:1 
-3.003674086871976 20:1 40:1 59:1 84:1 129:1 131:1 160:1 198:1 
-0.77232460787637247 4:1 42:1 56:1 97:1 123:1 131:1 175:1 200:1 
-1.2811417112418368 1:1 45:1 70:1 101:1 105:1 131:1 157:1 196:1 
-0.6230030028535487 19:1 44:1 75:1 79:1 105:1 131:1 170:1 198:1 
-2.5360883186997842 1:1 38:1 68:1 100:1 121:1 147:1 157:1 189:1 
-0.15198127476669571 14:1 48:1 72:1 79:1 111:1 142:1 175:1 186:1 
-0.29003359055841549 12:1 33:1 53:1 79:1 105:1 131:1 157:1 194:1 
-1.0295726857534704 1:1 27:1 64:1 100:1 123:1 131:1 157:1 183:1 
-2.074547326825892 1:1 32:1 68:1 97:1 121:1 131:1 157:1 183:1 
-3.8904264871392891 16:1 40:1 65:1 97:1 123:1 131:1 161:1 205:1 
-0.66575049696810962 13:1 33:1 59:1 91:1 116:1 131:1 175:1 198:1 
-0.48882924625620272 20:1 43:1 64:1 100:1 118:1 148:1 160:1 189:1 
-0.55964597585021847 14:1 44:1 56:1 85:1 115:1 131:1 178:1 199:1 
-0.90035235953585269 12:1 46:1 71:1 90:1 111:1 131:1 176:1 183:1 
-1.8388267658026913 6:1 40:1 77:1 79:1 109:1 131:1 168:1 199:1 
-0.14768829963358995 1:1 43:1 70:1 97:1 111:1 141:1 168:1 198:1 
-0.18033662154212632 17:1 40:1 53:1 92:1 105:1 155:1 160:1 183:1 
-0.16624595218024424 14:1 27:1 66:1 79:1 129:1 134:1 157:1 201:1 
-0.53339305656592206 9:1 42:1 66:1 90:1 121:1 139:1 172:1 199:1 
-0.025206385994407131 22:1 42:1 58:1 92:1 124:1 141:1 181:1 198:1 
-0.41969631683315384 7:1 42:1 72:1 97:1 113:1 131:1 160:1 196:1 
-1.7406457898415288 9:1 27:1 56:1 92:1 121:1 149:1 161:1 204:1 
-1.7959482210386744 7:1 38:1 72:1 79:1 116:1 131:1 163:1 198:1 
-0.5986595502120593 1:1 27:1 72:1 85:1 107:1 141:1 157:1 187:1 
-2.4972387544304135 1:1 46:1 59:1 81:1 115:1 131:1 161:1 207:1 
-0.64126103388640487 7:1 32:1 69:1 79:1 111:1 152:1 167:1 191:1 
-1.9691220748492371 1:1 27:1 64:1 79:1 105:1 131:1 172:1 198:1 
-1.0180324924886961 16:1 42:1 71:1 79:1 117:1 147:1 175:1 207:1 
-0.38981096201721732 16:1 45:1 53:1 91:1 121:1 149:1 181:1 204:1 
-3.0700311078066029 17:1 45:1 77:1 100:1 109:1 131:1 169:1 199:1 
-1.3539404271416289 7:1 46:1 53:1 90:1 105:1 131:1 175:1 198:1 
-1.6901355540947667 7:1 49:1 74:1 79:1 129:1 137:1 176:1 186:1 
-0.20341216343966231 9:1 27:1 59:1 85:1 118:1 131:1 181:1 189:1 
-0.40018482816395817 22:1 44:1 56:1 100:1 120:1 131:1 173:1 199:1 
-0.041543669191611732 12:1 45:1 64:1 98:1 111:1 152:1 162:1 198:1 
-3.7710122649663704 16:1 40:1 60:1 97:1 115:1 141:1 157:1 202:1 
-2.9945148556845016 19:1 32:1 71:1 100:1 126:1 131:1 157:1 201:1 
-2.5452757788665528 6:1 45:1 74:1 100:1 105:1 131:1 175:1 198:1 
-1.5125678514815701 12:1 38:1 56:1 79:1 123:1 137:1 170:1 187:1 
-1.8221702171559166 13:1 44:1 56:1 87:1 123:1 131:1 165:1 186:1 
-0.17449412777323584 7:1 45:1 72:1 79:1 124:1 150:1 157:1 183:1 
-8 1:1 46:1 72:1 79:1 105:1 131:1 157:1 204:1 
-2.7001925157005635 20:1 46:1 53:1 79:1 105:1 131:1 178:1 186:1 
-0.28942802598774792 1:1 48:1 56:1 97:1 118:1 144:1 160:1 186:1 
-0.94738113387019274 7:1 38:1 63:1 87:1 111:1 131:1 179:1 204:1 
-1.276685521404415 17:1 42:1 71:1 83:1 123:1 131:1 165:1 193:1 
-0.24973580071168219 8:1 43:1 58:1 87:1 118:1 153:1 175:1 202:1 
-8 20:1 42:1 63:1 79:1 109:1 131:1 157:1 189:1 
-2.3735723376688016 5:1 45:1 63:1 97:1 118:1 131:1 162:1 198:1 
-0.12127767126455871 13:1 42:1 56:1 79:1 122:1 139:1 165:1 186:1 
-0.085021990321422311 14:1 33:1 66:1 100:1 123:1 138:1 176:1 187:1 
-1.3239323818960675 7:1 46:1 66:1 98:1 129:1 141:1 157:1 187:1 
-3.1271918554724558 20:1 40:1 72:1 103:1 115:1 131:1 161:1 183:1 
-1.8264734751413516 20:1 51:1 63:1 79:1 109:1 131:1 157:1 202:1 
-1.2211592820640165 8:1 42:1 53:1 96:1 111:1 131:1 174:1 202:1 
-1.6069626478589598 20:1 46:1 70:1 96:1 122:1 131:1 157:1 202:1 
-2.0982262978105095 20:1 38:1 74:1 100:1 111:1 131:1 176:1 204:1 
-0.15375296621433499 20:1 38:1 63:1 83:1 105:1 131:1 160:1 189:1 
-0.9956766080729732 14:1 44:1 64:1 97:1 109:1 131:1 173:1 207:1 
-0.36777326582133146 13:1 40:1 68:1 100:1 105:1 137:1 157:1 183:1 
-2.1441479924436053 16:1 48:1 53:1 85:1 105:1 131:1 160:1 201:1 
-1.9266604583168925 20:1 46:1 56:1 87:1 111:1 149:1 170:1 202:1 
-5.3770044761941822 9:1 42:1 53:1 97:1 111:1 131:1 157:1 183:1 
-5.305961186579828 1:1 45:1 59:1 79:1 105:1 131:1 164:1 187:1 
-1.6352805448783723 1:1 34:1 57:1 79:1 126:1 131:1 161:1 186:1 
-6.5721096948382183 1:1 33:1 66:1 96:1 113:1 131:1 157:1 198:1 
-2.0249058180579103 12:1 48:1 59:1 79:1 111:1 131:1 157:1 194:1 
-0.63049068219302817 23:1 44:1 77:1 97:1 121:1 131:1 160:1 196:1 
-2.6716343839451637 1:1 30:1 66:1 85:1 107:1 131:1 173:1 202:1 
-0.45131236447016743 20:1 40:1 64:1 90:1 111:1 144:1 175:1 187:1 
-0.9989458445999394 7:1 32:1 72:1 79:1 120:1 131:1 173:1 183:1 
-0.59994676832208049 18:1 46:1 74:1 87:1 120:1 131:1 175:1 186:1 
-0.89512992407144909 22:1 43:1 59:1 79:1 111:1 137:1 164:1 189:1 
-0.945703636505552 8:1 33:1 56:1 100:1 111:1 143:1 164:1 204:1 
-0.64152253173817464 7:1 39:1 60:1 100:1 115:1 135:1 167:1 187:1 
-0.077494575629907358 18:1 37:1 71:1 79:1 129:1 137:1 157:1 183:1 
-0.62596309666825034 22:1 35:1 59:1 85:1 111:1 152:1 157:1 187:1 
-0.014426162694802385 20:1 46:1 68:1 90:1 109:1 152:1 157:1 199:1 
-1.0731593238158228 20:1 42:1 64:1 83:1 126:1 131:1 173:1 202:1 
-1.0322393261485112 12:1 31:1 74:1 79:1 121:1 150:1 175:1 199:1 
-0.14272286598353287 17:1 46:1 71:1 95:1 121:1 135:1 176:1 190:1 
-8 19:1 33:1 72:1 79:1 118:1 131:1 161:1 189:1 
-0.53775665113258952 20:1 27:1 66:1 79:1 109:1 137:1 167:1 191:1 
-0.47464713841602935 9:1 46:1 68:1 100:1 123:1 152:1 167:1 193:1 
-0.050028691248123543 16:1 48:1 71:1 100:1 115:1 141:1 178:1 186:1 
-5.1640090494672419 11:1 46:1 72:1 79:1 124:1 131:1 160:1 201:1 
-0.20327556995677845 11:1 40:1 63:1 87:1 116:1 131:1 176:1 202:1 
-0.86885899518022935 9:1 31:1 61:1 87:1 115:1 148:1 176:1 187:1 
-1.6669609765355735 1:1 38:1 72:1 100:1 126:1 137:1 157:1 189:1 
-2.2973200229135271 8:1 45:1 56:1 90:1 126:1 131:1 161:1 193:1 
-3.0761092220805861 1:1 46:1 74:1 85:1 126:1 131:1 157:1 189:1 
-0.38281728563515677 1:1 42:1 59:1 100:1 124:1 152:1 176:1 198:1 
-2.7476862594960836 20:1 33:1 64:1 97:1 118:1 137:1 173:1 202:1 
-0.10634840395667723 7:1 43:1 72:1 100:1 124:1 152:1 175:1 183:1 
-3.2951409278479211 20:1 48:1 72:1 100:1 123:1 131:1 176:1 189:1 
-0.98638141859147233 9:1 45:1 65:1 97:1 123:1 135:1 157:1 196:1 
-0.066645313735783321 19:1 39:1 71:1 97:1 109:1 131:1 170:1 189:1 
-0.96979870036116289 19:1 45:1 57:1 79:1 118:1 137:1 157:1 183:1 
-1.0522840407996656 12:1 45:1 66:1 94:1 118:1 131:1 170:1 199:1 
-0.076293214615744565 14:1 42:1 66:1 79:1 118:1 147:1 176:1 202:1 
-1.092489582623051 20:1 30:1 72:1 85:1 121:1 131:1 159:1 199:1 
-0.058642526498447305 9:1 43:1 65:1 97:1 108:1 146:1 157:1 207:1 
-0.81395721091483852 12:1 33:1 72:1 85:1 116:1 131:1 170:1 202:1 
-0.64339705347400822 16:1 42:1 70:1 100:1 116:1 142:1 173:1 189:1 
-0.0012787030079724124 9:1 27:1 72:1 100:1 105:1 152:1 172:1 201:1 
-2.0303092078515044 16:1 45:1 53:1 103:1 105:1 131:1 157:1 198:1 
-2.6437791740081162 1:1 27:1 68:1 79:1 120:1 131:1 160:1 201:1 
-2.406704621745563 16:1 45:1 61:1 85:1 109:1 148:1 175:1 202:1 
-0.075300274896159841 14:1 44:1 74:1 79:1 115:1 152:1 157:1 204:1 
-0.73828307426495898 22:1 27:1 74:1 85:1 123:1 131:1 157:1 204:1 
-8 20:1 42:1 53:1 100:1 105:1 131:1 157:1 198:1 
-1.2208406932170812 16:1 27:1 74:1 79:1 105:1 131:1 172:1 202:1 
-0.433838413504262 20:1 42:1 71:1 97:1 111:1 142:1 175:1 186:1 
-2.0616582870491391 7:1 46:1 74:1 100:1 115:1 152:1 157:1 189:1 
-1.1441804120813621 22:1 48:1 63:1 100:1 105:1 137:1 157:1 189:1 
-0.22970191221535272 9:1 29:1 65:1 79:1 113:1 152:1 175:1 191:1 
-0.22264234391200804 13:1 27:1 61:1 97:1 118:1 152:1 175:1 193:1 
-0.087116229777355919 9:1 45:1 66:1 100:1 123:1 141:1 163:1 199:1 
-0.093601854513139501 19:1 40:1 74:1 97:1 115:1 137:1 173:1 207:1 
-1.4781516384202984 22:1 45:1 63:1 85:1 121:1 155:1 157:1 193:1 
-0.0068422506515470509 7:1 43:1 77:1 79:1 115:1 148:1 162:1 188:1 
-1.2206737394127387 4:1 40:1 59:1 100:1 118:1 148:1 175:1 189:1 
-2.0236010489673806 7:1 48:1 66:1 96:1 123:1 137:1 175:1 187:1 
-0.80572259645180899 22:1 40:1 70:1 97:1 111:1 149:1 161:1 186:1 
-1.756062982966256 16:1 46:1 74:1 103:1 123:1 131:1 176:1 201:1 
-0.1328107124871028 20:1 37:1 63:1 90:1 112:1 141:1 161:1 198:1 
-0.043716998514464069 1:1 38:1 59:1 100:1 116:1 131:1 175:1 202:1 
-0.84667193986448308 1:1 45:1 72:1 85:1 105:1 144:1 162:1 196:1 
-0.53976905263126906 6:1 40:1 66:1 92:1 109:1 131:1 175:1 183:1 
-0.41648545262978948 14:1 31:1 53:1 97:1 105:1 131:1 157:1 193:1 
-0.025948746675616037 8:1 33:1 77:1 97:1 115:1 152:1 164:1 204:1 
-0.21358269997391741 25:1 45:1 63:1 100:1 112:1 152:1 172:1 207:1 
-0.94631871684179492 22:1 33:1 57:1 87:1 121:1 131:1 167:1 183:1 
-8 1:1 40:1 72:1 100:1 124:1 131:1 157:1 202:1 
-1.5917940075976411 22:1 46:1 53:1 79:1 124:1 131:1 167:1 199:1 
-2.6501642089339685 1:1 46:1 53:1 89:1 121:1 131:1 157:1 202:1 
-4.1569225502697895 1:1 48:1 72:1 79:1 110:1 148:1 157:1 198:1 
-2.9077259607175705 20:1 48:1 74:1 100:1 109:1 131:1 163:1 186:1 
-0.3219900770727751 9:1 27:1 69:1 97:1 115:1 137:1 176:1 202:1 
-2.0444574083516036 7:1 46:1 72:1 100:1 108:1 131:1 165:1 193:1 
-0.26128375363493445 16:1 43:1 66:1 90:1 126:1 136:1 157:1 189:1 
-1.549526981800825 17:1 40:1 64:1 100:1 110:1 131:1 163:1 187:1 
-2.2950439391347985 22:1 42:1 60:1 90:1 129:1 131:1 167:1 196:1 
-1.3734456437951768 12:1 40:1 57:1 97:1 109:1 149:1 175:1 201:1 
-0.02058821605907531 25:1 45:1 59:1 98:1 123:1 131:1 173:1 183:1 
-3.1088387770160564 19:1 27:1 69:1 79:1 109:1 131:1 175:1 202:1 
-1.1655662230604913 9:1 29:1 53:1 79:1 116:1 131:1 176:1 201:1 
-0.17713151425577828 1:1 46:1 71:1 90:1 127:1 131:1 163:1 183:1 
-0.21411520732224398 19:1 38:1 75:1 79:1 111:1 131:1 175:1 202:1 
-0.26168015495619318 7:1 46:1 60:1 79:1 117:1 139:1 178:1 202:1 
-1.5355933825124217 9:1 48:1 72:1 95:1 111:1 152:1 175:1 191:1 
-0.16952340895903764 5:1 40:1 56:1 90:1 123:1 141:1 170:1 187:1 
-4.8800286806949256 9:1 46:1 58:1 100:1 110:1 131:1 168:1 190:1 
-3.815572063419002 12:1 42:1 74:1 85:1 118:1 131:1 157:1 183:1 
-2.3194943689751577 7:1 40:1 53:1 79:1 105:1 131:1 172:1 204:1 
-4.336386354718484 8:1 40:1 68:1 79:1 123:1 150:1 157:1 196:1 
-0.06570399604537748 14:1 42:1 53:1 97:1 124:1 131:1 170:1 200:1 
-0.61183347216844819 14:1 44:1 68:1 100:1 129:1 131:1 165:1 183:1 
-0.56106687770314734 16:1 48:1 77:1 79:1 113:1 131:1 164:1 200:1 
-0.13515950633326118 1:1 32:1 71:1 97:1 116:1 131:1 175:1 189:1 
-0.29461031595171894 19:1 45:1 64:1 79:1 123:1 137:1 175:1 204:1 
-1.2769336287745352 7:1 45:1 74:1 94:1 109:1 131:1 175:1 183:1 
-2.5828698470088796 19:1 40:1 70:1 97:1 118:1 131:1 157:1 200:1 
-4.12497789441466 1:1 40:1 69:1 90:1 124:1 131:1 157:1 201:1 
-0.059063574321664404 14:1 43:1 64:1 98:1 105:1 131:1 175:1 186:1 
-1.4611732835072995 19:1 30:1 53:1 100:1 116:1 137:1 157:1 186:1 
-0.65589517226317107 4:1 27:1 74:1 90:1 111:1 131:1 160:1 191:1 
-5.0277281392062898 12:1 48:1 64:1 100:1 123:1 131:1 157:1 189:1 
-0.54550589827573237 11:1 27:1 60:1 98:1 109:1 131:1 173:1 204:1 
-1.2900296430204479 8:1 46:1 57:1 79:1 121:1 152:1 165:1 196:1 
-0.070076096101974725 14:1 46:1 58:1 82:1 111:1 152:1 157:1 186:1 
-1.3330877006121544 12:1 38:1 53:1 85:1 111:1 131:1 176:1 199:1 
-0.05026738250949965 9:1 45:1 60:1 87:1 124:1 148:1 164:1 186:1 
-0.57610325837318654 8:1 30:1 65:1 90:1 121:1 139:1 172:1 187:1 
-8 12:1 45:1 71:1 100:1 121:1 131:1 160:1 187:1 
-2.8761808189377325 22:1 43:1 53:1 82:1 109:1 131:1 170:1 201:1 
-0.90486131426503436 22:1 45:1 71:1 83:1 116:1 131:1 161:1 200:1 
-0.39335387614558143 19:1 31:1 64:1 79:1 109:1 148:1 175:1 199:1 
-0.72676971241272115 1:1 31:1 70:1 97:1 121:1 152:1 173:1 187:1 
-0.13045594434602556 18:1 45:1 69:1 100:1 121:1 135:1 170:1 202:1 
-0.81979890440675229 17:1 31:1 66:1 98:1 124:1 131:1 175:1 201:1 
-0.31692319401000563 14:1 46:1 72:1 79:1 123:1 149:1 175:1 183:1 
