svm_type c_svc
kernel_type rbf
gamma 0.0025706940874035988
nr_class 2
total_sv 327
rho 1.0584811499918758
label 1 -1
nr_sv 112 215
SV
1 19:1 46:1 53:1 87:1 123:1 150:1 178:1 183:1 228:1 246:1 261:1 295:1 313:1 357:1 380:1 
1 12:1 48:1 59:1 90:1 105:1 137:1 163:1 183:1 209:1 254:1 261:1 293:1 313:1 344:1 383:1 
1 1:1 40:1 55:1 87:1 124:1 139:1 170:1 198:1 212:1 243:1 269:1 292:1 313:1 339:1 384:1 
1 7:1 27:1 59:1 90:1 105:1 137:1 172:1 183:1 224:1 235:1 261:1 294:1 313:1 339:1 368:1 
1 1:1 38:1 74:1 79:1 111:1 142:1 175:1 194:1 228:1 235:1 266:1 287:1 313:1 358:1 384:1 
1 5:1 35:1 72:1 84:1 112:1 144:1 176:1 207:1 222:1 238:1 261:1 302:1 313:1 347:1 378:1 
1 9:1 46:1 71:1 87:1 120:1 136:1 176:1 194:1 230:1 238:1 282:1 291:1 313:1 346:1 372:1 
1 12:1 32:1 74:1 97:1 116:1 142:1 165:1 198:1 225:1 235:1 279:1 305:1 313:1 339:1 386:1 
1 20:1 27:1 58:1 87:1 111:1 149:1 172:1 201:1 222:1 254:1 261:1 305:1 313:1 339:1 386:1 
1 19:1 38:1 61:1 84:1 105:1 149:1 175:1 191:1 230:1 254:1 261:1 300:1 313:1 357:1 373:1 
1 19:1 33:1 71:1 90:1 120:1 155:1 170:1 198:1 222:1 235:1 261:1 291:1 313:1 357:1 383:1 
1 1:1 38:1 61:1 84:1 116:1 142:1 172:1 190:1 227:1 235:1 261:1 287:1 313:1 339:1 378:1 
1 12:1 27:1 53:1 97:1 116:1 149:1 176:1 189:1 230:1 238:1 261:1 291:1 332:1 360:1 372:1 
1 1:1 45:1 64:1 84:1 107:1 146:1 176:1 189:1 226:1 242:1 261:1 297:1 313:1 339:1 365:1 
1 1:1 33:1 58:1 90:1 116:1 142:1 162:1 190:1 220:1 256:1 272:1 287:1 319:1 354:1 365:1 
1 1:1 27:1 72:1 79:1 116:1 150:1 157:1 198:1 228:1 250:1 261:1 287:1 313:1 339:1 380:1 
1 12:1 46:1 64:1 100:1 110:1 137:1 168:1 202:1 209:1 250:1 269:1 303:1 313:1 339:1 383:1 
1 1:1 48:1 58:1 85:1 123:1 143:1 172:1 195:1 213:1 240:1 261:1 297:1 313:1 343:1 384:1 
1 12:1 33:1 74:1 100:1 111:1 142:1 157:1 202:1 212:1 238:1 282:1 303:1 313:1 339:1 369:1 
1 1:1 48:1 53:1 97:1 116:1 136:1 169:1 189:1 227:1 256:1 261:1 294:1 313:1 357:1 369:1 
1 1:1 45:1 74:1 90:1 113:1 137:1 168:1 201:1 214:1 246:1 267:1 293:1 334:1 358:1 381:1 
1 22:1 27:1 53:1 90:1 123:1 142:1 178:1 198:1 230:1 247:1 261:1 289:1 319:1 355:1 369:1 
1 9:1 46:1 68:1 84:1 126:1 149:1 176:1 191:1 227:1 253:1 282:1 303:1 313:1 343:1 382:1 
1 22:1 33:1 61:1 90:1 111:1 142:1 175:1 191:1 228:1 253:1 272:1 291:1 313:1 344:1 384:1 
1 1:1 42:1 57:1 94:1 105:1 146:1 172:1 202:1 224:1 253:1 261:1 287:1 313:1 354:1 383:1 
1 12:1 48:1 68:1 85:1 124:1 131:1 164:1 183:1 227:1 253:1 267:1 293:1 330:1 345:1 372:1 
1 7:1 27:1 72:1 91:1 105:1 131:1 168:1 194:1 224:1 235:1 267:1 293:1 313:1 339:1 389:1 
1 7:1 33:1 64:1 100:1 116:1 137:1 175:1 183:1 215:1 235:1 279:1 300:1 313:1 339:1 371:1 
1 22:1 33:1 61:1 79:1 116:1 137:1 157:1 183:1 220:1 250:1 282:1 309:1 313:1 357:1 380:1 
1 19:1 27:1 64:1 94:1 110:1 142:1 172:1 183:1 227:1 235:1 282:1 311:1 313:1 342:1 380:1 
1 6:1 32:1 64:1 90:1 116:1 149:1 168:1 198:1 228:1 256:1 261:1 291:1 313:1 342:1 386:1 
1 6:1 35:1 74:1 97:1 108:1 150:1 173:1 193:1 230:1 254:1 282:1 291:1 313:1 339:1 371:1 
1 16:1 45:1 58:1 79:1 116:1 147:1 172:1 183:1 228:1 235:1 265:1 287:1 313:1 342:1 383:1 
1 9:1 38:1 61:1 87:1 124:1 153:1 162:1 183:1 224:1 252:1 261:1 290:1 313:1 339:1 365:1 
1 7:1 27:1 72:1 79:1 116:1 136:1 163:1 198:1 227:1 245:1 261:1 287:1 313:1 339:1 383:1 
1 22:1 33:1 77:1 79:1 123:1 150:1 173:1 183:1 227:1 254:1 261:1 308:1 323:1 339:1 371:1 
1 12:1 27:1 59:1 90:1 126:1 137:1 168:1 183:1 227:1 250:1 261:1 303:1 313:1 339:1 384:1 
1 1:1 35:1 53:1 90:1 123:1 149:1 169:1 201:1 228:1 253:1 261:1 305:1 313:1 339:1 380:1 
1 1:1 27:1 68:1 96:1 105:1 131:1 157:1 183:1 209:1 245:1 279:1 287:1 313:1 342:1 378:1 
1 5:1 43:1 71:1 84:1 109:1 147:1 165:1 202:1 224:1 259:1 264:1 291:1 330:1 355:1 380:1 
1 9:1 27:1 64:1 98:1 117:1 149:1 168:1 183:1 224:1 247:1 261:1 305:1 313:1 355:1 383:1 
1 19:1 27:1 64:1 79:1 116:1 150:1 178:1 183:1 224:1 247:1 261:1 292:1 313:1 339:1 369:1 
1 20:1 46:1 64:1 100:1 105:1 149:1 178:1 183:1 209:1 253:1 261:1 292:1 313:1 339:1 380:1 
1 3:1 38:1 72:1 84:1 111:1 146:1 162:1 199:1 225:1 254:1 282:1 297:1 313:1 343:1 383:1 
1 6:1 38:1 61:1 79:1 124:1 152:1 170:1 204:1 222:1 254:1 261:1 294:1 313:1 339:1 373:1 
1 12:1 38:1 53:1 100:1 120:1 131:1 173:1 183:1 215:1 254:1 261:1 287:1 313:1 339:1 368:1 
1 1:1 45:1 74:1 85:1 126:1 142:1 172:1 202:1 227:1 245:1 282:1 303:1 313:1 339:1 371:1 
1 14:1 30:1 63:1 87:1 113:1 135:1 178:1 201:1 222:1 254:1 279:1 298:1 313:1 339:1 368:1 
1 3:1 38:1 53:1 90:1 105:1 137:1 172:1 183:1 215:1 253:1 261:1 293:1 313:1 339:1 380:1 
1 9:1 43:1 56:1 83:1 116:1 143:1 173:1 193:1 222:1 242:1 261:1 297:1 313:1 343:1 386:1 
1 19:1 38:1 68:1 100:1 113:1 146:1 162:1 187:1 227:1 254:1 272:1 303:1 313:1 349:1 369:1 
1 19:1 35:1 74:1 92:1 113:1 152:1 175:1 198:1 228:1 248:1 282:1 295:1 313:1 349:1 369:1 
1 1:1 38:1 61:1 90:1 126:1 139:1 175:1 202:1 224:1 248:1 282:1 298:1 313:1 343:1 383:1 
1 6:1 46:1 71:1 90:1 126:1 139:1 175:1 198:1 220:1 248:1 282:1 297:1 313:1 352:1 369:1 
1 20:1 38:1 72:1 98:1 123:1 146:1 168:1 204:1 222:1 241:1 279:1 291:1 323:1 357:1 369:1 
1 12:1 27:1 53:1 85:1 105:1 142:1 178:1 183:1 224:1 254:1 267:1 287:1 313:1 339:1 380:1 
1 20:1 38:1 53:1 100:1 116:1 137:1 168:1 183:1 224:1 247:1 261:1 303:1 313:1 343:1 378:1 
1 13:1 35:1 74:1 100:1 111:1 143:1 163:1 199:1 212:1 245:1 265:1 287:1 313:1 339:1 383:1 
1 1:1 45:1 53:1 100:1 126:1 150:1 168:1 202:1 227:1 246:1 279:1 293:1 331:1 350:1 386:1 
1 6:1 39:1 71:1 90:1 110:1 131:1 178:1 202:1 209:1 254:1 261:1 305:1 313:1 355:1 384:1 
1 18:1 43:1 72:1 96:1 118:1 149:1 175:1 202:1 209:1 256:1 265:1 300:1 331:1 339:1 365:1 
1 12:1 42:1 64:1 79:1 110:1 131:1 157:1 183:1 224:1 250:1 261:1 294:1 313:1 339:1 368:1 
1 20:1 27:1 64:1 98:1 105:1 142:1 172:1 204:1 225:1 251:1 261:1 293:1 313:1 343:1 369:1 
1 19:1 27:1 53:1 79:1 116:1 131:1 162:1 198:1 227:1 251:1 261:1 287:1 313:1 352:1 368:1 
1 12:1 46:1 65:1 85:1 111:1 143:1 168:1 183:1 227:1 250:1 261:1 305:1 313:1 339:1 371:1 
1 13:1 38:1 59:1 100:1 120:1 142:1 157:1 202:1 215:1 254:1 261:1 294:1 313:1 343:1 380:1 
1 9:1 32:1 72:1 79:1 116:1 142:1 172:1 195:1 225:1 248:1 261:1 300:1 313:1 363:1 368:1 
1 22:1 51:1 65:1 90:1 105:1 143:1 172:1 183:1 222:1 254:1 282:1 305:1 313:1 339:1 371:1 
1 22:1 33:1 64:1 98:1 105:1 142:1 157:1 189:1 224:1 250:1 261:1 303:1 313:1 339:1 384:1 
1 1:1 38:1 64:1 79:1 105:1 152:1 161:1 198:1 222:1 235:1 261:1 298:1 313:1 339:1 365:1 
1 12:1 27:1 64:1 79:1 116:1 131:1 163:1 201:1 215:1 254:1 261:1 298:1 313:1 339:1 383:1 
1 1:1 46:1 71:1 97:1 113:1 139:1 157:1 189:1 215:1 248:1 261:1 311:1 319:1 357:1 384:1 
1 22:1 32:1 68:1 97:1 111:1 142:1 165:1 187:1 228:1 245:1 282:1 305:1 313:1 339:1 375:1 
1 19:1 48:1 74:1 79:1 105:1 149:1 172:1 204:1 219:1 241:1 266:1 303:1 334:1 357:1 371:1 
1 1:1 35:1 58:1 81:1 110:1 131:1 173:1 196:1 228:1 241:1 279:1 306:1 313:1 358:1 384:1 
1 11:1 35:1 59:1 79:1 127:1 152:1 163:1 202:1 225:1 250:1 279:1 291:1 331:1 339:1 373:1 
1 12:1 38:1 74:1 98:1 111:1 142:1 162:1 191:1 216:1 254:1 276:1 297:1 313:1 343:1 365:1 
1 20:1 38:1 61:1 91:1 123:1 142:1 162:1 204:1 224:1 247:1 261:1 305:1 313:1 352:1 384:1 
1 22:1 46:1 72:1 79:1 126:1 143:1 168:1 204:1 224:1 252:1 261:1 309:1 313:1 355:1 384:1 
1 22:1 39:1 65:1 90:1 110:1 150:1 178:1 194:1 215:1 254:1 274:1 306:1 337:1 349:1 365:1 
1 12:1 48:1 74:1 85:1 105:1 150:1 178:1 204:1 220:1 250:1 261:1 303:1 313:1 339:1 384:1 
1 12:1 38:1 59:1 97:1 113:1 142:1 169:1 196:1 224:1 256:1 261:1 293:1 313:1 339:1 368:1 
1 16:1 27:1 71:1 85:1 105:1 131:1 157:1 190:1 213:1 235:1 282:1 287:1 317:1 342:1 365:1 
1 12:1 27:1 64:1 97:1 120:1 142:1 157:1 183:1 215:1 250:1 261:1 305:1 313:1 342:1 384:1 
1 22:1 45:1 53:1 79:1 110:1 142:1 178:1 189:1 227:1 254:1 282:1 292:1 313:1 360:1 368:1 
1 22:1 38:1 59:1 79:1 126:1 137:1 162:1 202:1 209:1 250:1 261:1 303:1 313:1 339:1 380:1 
1 20:1 38:1 71:1 85:1 120:1 152:1 162:1 191:1 224:1 246:1 282:1 303:1 319:1 339:1 371:1 
1 19:1 29:1 61:1 84:1 126:1 139:1 163:1 189:1 215:1 256:1 261:1 291:1 313:1 352:1 368:1 
1 20:1 45:1 65:1 79:1 116:1 142:1 168:1 194:1 227:1 241:1 280:1 287:1 326:1 339:1 369:1 
1 1:1 42:1 64:1 79:1 118:1 146:1 168:1 194:1 213:1 248:1 261:1 297:1 313:1 339:1 378:1 
1 22:1 33:1 53:1 85:1 116:1 152:1 157:1 189:1 225:1 254:1 282:1 304:1 313:1 342:1 372:1 
1 1:1 33:1 64:1 79:1 110:1 149:1 168:1 198:1 209:1 238:1 278:1 290:1 319:1 339:1 380:1 
1 9:1 39:1 58:1 84:1 123:1 152:1 168:1 198:1 228:1 243:1 279:1 299:1 331:1 357:1 369:1 
1 1:1 48:1 74:1 90:1 116:1 133:1 159:1 201:1 215:1 256:1 261:1 306:1 313:1 339:1 380:1 
1 12:1 33:1 72:1 85:1 116:1 131:1 170:1 202:1 228:1 238:1 282:1 297:1 313:1 343:1 383:1 
1 1:1 29:1 61:1 79:1 124:1 152:1 157:1 204:1 224:1 253:1 261:1 311:1 313:1 339:1 365:1 
1 12:1 33:1 64:1 79:1 126:1 137:1 162:1 199:1 228:1 250:1 261:1 308:1 313:1 339:1 365:1 
1 12:1 48:1 74:1 100:1 123:1 149:1 168:1 201:1 227:1 253:1 261:1 300:1 313:1 357:1 381:1 
1 19:1 46:1 59:1 79:1 118:1 136:1 170:1 196:1 222:1 239:1 261:1 305:1 313:1 339:1 365:1 
1 12:1 27:1 74:1 90:1 120:1 152:1 163:1 187:1 217:1 251:1 261:1 297:1 313:1 339:1 373:1 
1 1:1 48:1 72:1 79:1 110:1 148:1 157:1 198:1 228:1 243:1 278:1 305:1 313:1 357:1 384:1 
1 22:1 32:1 61:1 84:1 120:1 147:1 170:1 194:1 230:1 240:1 261:1 293:1 317:1 342:1 375:1 
1 12:1 48:1 71:1 97:1 124:1 137:1 170:1 194:1 213:1 256:1 269:1 303:1 313:1 343:1 386:1 
1 7:1 38:1 59:1 79:1 116:1 155:1 175:1 189:1 228:1 253:1 261:1 303:1 313:1 343:1 365:1 
1 20:1 45:1 64:1 101:1 105:1 137:1 157:1 201:1 228:1 245:1 282:1 311:1 313:1 361:1 368:1 
1 20:1 32:1 74:1 84:1 105:1 142:1 164:1 186:1 219:1 252:1 282:1 308:1 313:1 339:1 383:1 
1 9:1 39:1 53:1 87:1 117:1 142:1 172:1 204:1 215:1 248:1 261:1 287:1 313:1 339:1 380:1 
1 19:1 45:1 64:1 79:1 123:1 137:1 175:1 204:1 224:1 239:1 261:1 305:1 313:1 355:1 369:1 
1 1:1 27:1 74:1 79:1 105:1 142:1 157:1 204:1 224:1 254:1 261:1 300:1 313:1 343:1 384:1 
1 22:1 38:1 74:1 97:1 105:1 131:1 163:1 195:1 220:1 240:1 279:1 306:1 313:1 339:1 375:1 
1 20:1 27:1 64:1 90:1 105:1 137:1 163:1 183:1 228:1 251:1 261:1 292:1 313:1 349:1 369:1 
1 20:1 46:1 53:1 91:1 116:1 150:1 163:1 191:1 215:1 246:1 279:1 305:1 334:1 355:1 365:1 
-1 3:1 27:1 77:1 84:1 116:1 152:1 181:1 187:1 224:1 254:1 261:1 305:1 313:1 349:1 380:1 
-0.63501934247728364 1:1 37:1 68:1 79:1 105:1 141:1 164:1 207:1 213:1 240:1 271:1 303:1 313:1 339:1 383:1 
-0.87120966051230253 1:1 48:1 74:1 90:1 120:1 137:1 168:1 204:1 215:1 246:1 261:1 293:1 319:1 339:1 365:1 
-1 12:1 33:1 53:1 85:1 105:1 137:1 168:1 183:1 215:1 250:1 261:1 302:1 313:1 339:1 372:1 
-0.36347333063481219 1:1 27:1 56:1 90:1 109:1 153:1 161:1 199:1 233:1 250:1 282:1 302:1 313:1 339:1 380:1 
-1 12:1 27:1 64:1 100:1 105:1 137:1 168:1 201:1 220:1 254:1 261:1 292:1 313:1 339:1 384:1 
-1 1:1 46:1 72:1 79:1 124:1 152:1 172:1 183:1 224:1 250:1 261:1 297:1 329:1 343:1 383:1 
-0.37906714139144981 1:1 42:1 68:1 79:1 115:1 147:1 161:1 201:1 219:1 250:1 261:1 308:1 313:1 339:1 378:1 
-0.22983712876162862 14:1 42:1 72:1 83:1 113:1 150:1 162:1 190:1 222:1 254:1 285:1 300:1 316:1 339:1 380:1 
-0.0080759478735141603 19:1 35:1 68:1 84:1 124:1 142:1 178:1 186:1 230:1 239:1 261:1 294:1 320:1 352:1 371:1 
-0.50427269256795193 22:1 48:1 65:1 90:1 110:1 152:1 175:1 194:1 220:1 243:1 276:1 303:1 313:1 357:1 383:1 
-0.26760783877183481 13:1 38:1 58:1 100:1 123:1 142:1 168:1 191:1 224:1 251:1 261:1 305:1 331:1 339:1 365:1 
-0.9093296086875724 22:1 45:1 64:1 90:1 113:1 146:1 173:1 183:1 227:1 253:1 261:1 287:1 334:1 352:1 371:1 
-0.54508295709175525 19:1 38:1 72:1 79:1 110:1 139:1 163:1 201:1 224:1 253:1 274:1 306:1 313:1 357:1 365:1 
-0.13464099395091167 9:1 33:1 71:1 94:1 123:1 144:1 176:1 183:1 227:1 235:1 261:1 308:1 313:1 342:1 368:1 
-0.49995598841352018 14:1 46:1 53:1 97:1 105:1 131:1 178:1 183:1 212:1 238:1 266:1 303:1 313:1 357:1 386:1 
-0.86649395319832523 12:1 32:1 64:1 98:1 116:1 142:1 176:1 183:1 227:1 246:1 269:1 292:1 313:1 357:1 383:1 
-1 12:1 38:1 58:1 97:1 111:1 149:1 168:1 198:1 233:1 248:1 276:1 300:1 313:1 339:1 369:1 
-0.18978600041380128 6:1 45:1 59:1 97:1 116:1 146:1 181:1 196:1 224:1 248:1 261:1 287:1 317:1 339:1 383:1 
-1 6:1 27:1 64:1 87:1 110:1 142:1 168:1 198:1 216:1 253:1 261:1 287:1 313:1 339:1 365:1 
-1 12:1 42:1 64:1 79:1 105:1 149:1 168:1 201:1 228:1 241:1 282:1 290:1 313:1 343:1 384:1 
-0.27084315995459801 12:1 38:1 72:1 79:1 123:1 142:1 162:1 185:1 224:1 254:1 267:1 304:1 320:1 339:1 375:1 
-0.18582964978446839 12:1 46:1 53:1 97:1 116:1 136:1 159:1 198:1 228:1 241:1 278:1 294:1 313:1 349:1 365:1 
-0.21564987874123825 11:1 27:1 53:1 79:1 120:1 136:1 170:1 189:1 228:1 247:1 273:1 303:1 337:1 344:1 369:1 
-0.56894702448546608 12:1 32:1 60:1 90:1 126:1 142:1 157:1 189:1 224:1 235:1 261:1 287:1 331:1 339:1 369:1 
-1 6:1 34:1 64:1 100:1 116:1 131:1 163:1 198:1 209:1 235:1 261:1 305:1 313:1 343:1 384:1 
-0.32372794208979006 20:1 27:1 68:1 97:1 113:1 141:1 175:1 189:1 228:1 243:1 272:1 294:1 313:1 361:1 378:1 
-0.50031839273329182 19:1 38:1 53:1 100:1 116:1 131:1 157:1 183:1 209:1 254:1 261:1 298:1 332:1 339:1 380:1 
-0.88199760190352627 1:1 46:1 53:1 90:1 124:1 131:1 172:1 202:1 224:1 235:1 261:1 287:1 313:1 354:1 380:1 
-1 22:1 38:1 58:1 83:1 127:1 141:1 162:1 183:1 227:1 256:1 261:1 304:1 313:1 341:1 384:1 
-1 20:1 38:1 74:1 84:1 111:1 142:1 176:1 183:1 224:1 243:1 277:1 287:1 313:1 357:1 368:1 
-0.12601767987063525 6:1 46:1 53:1 100:1 110:1 137:1 175:1 195:1 224:1 247:1 265:1 292:1 313:1 349:1 365:1 
-0.031487968601861129 20:1 30:1 72:1 79:1 120:1 131:1 165:1 183:1 222:1 256:1 282:1 293:1 326:1 344:1 381:1 
-0.33642308037363955 16:1 35:1 64:1 84:1 113:1 137:1 178:1 194:1 215:1 256:1 282:1 293:1 324:1 339:1 384:1 
-0.63396436899686237 22:1 27:1 74:1 79:1 123:1 142:1 162:1 195:1 215:1 253:1 282:1 287:1 320:1 339:1 383:1 
-0.024744065661469718 5:1 48:1 53:1 79:1 115:1 146:1 181:1 198:1 227:1 247:1 261:1 303:1 332:1 342:1 381:1 
-1 5:1 45:1 61:1 100:1 105:1 131:1 175:1 202:1 217:1 250:1 267:1 305:1 313:1 339:1 384:1 
-1 19:1 38:1 74:1 94:1 126:1 143:1 157:1 185:1 215:1 251:1 265:1 305:1 331:1 339:1 368:1 
-1 16:1 48:1 65:1 79:1 107:1 137:1 173:1 187:1 227:1 253:1 261:1 290:1 313:1 339:1 369:1 
-0.70796093142358885 1:1 27:1 57:1 94:1 105:1 137:1 175:1 183:1 224:1 253:1 279:1 305:1 313:1 339:1 365:1 
-0.12230743575850422 1:1 31:1 68:1 79:1 111:1 149:1 157:1 198:1 227:1 253:1 279:1 287:1 313:1 339:1 372:1 
-1 1:1 27:1 68:1 83:1 120:1 131:1 172:1 198:1 228:1 250:1 279:1 287:1 313:1 339:1 380:1 
-0.33640716498307094 19:1 27:1 53:1 79:1 120:1 149:1 178:1 183:1 224:1 241:1 276:1 287:1 313:1 358:1 380:1 
-0.63751230675829262 16:1 33:1 68:1 79:1 105:1 150:1 172:1 198:1 212:1 250:1 261:1 308:1 317:1 355:1 369:1 
-1 12:1 27:1 53:1 79:1 124:1 142:1 178:1 198:1 215:1 254:1 261:1 294:1 313:1 357:1 383:1 
-0.048421840997346484 7:1 33:1 70:1 85:1 112:1 137:1 175:1 189:1 227:1 256:1 279:1 290:1 313:1 343:1 382:1 
-0.27180536205420758 13:1 27:1 53:1 90:1 116:1 146:1 157:1 189:1 215:1 235:1 261:1 311:1 313:1 357:1 384:1 
-1 1:1 27:1 77:1 79:1 123:1 150:1 175:1 202:1 209:1 245:1 261:1 302:1 313:1 339:1 369:1 
-0.63244349143916534 9:1 45:1 59:1 96:1 116:1 148:1 157:1 194:1 213:1 245:1 277:1 311:1 313:1 339:1 382:1 
-1 1:1 27:1 74:1 85:1 111:1 142:1 178:1 194:1 215:1 253:1 261:1 293:1 313:1 357:1 378:1 
-0.049125640954390905 22:1 38:1 59:1 97:1 105:1 137:1 157:1 201:1 222:1 235:1 261:1 293:1 334:1 351:1 384:1 
-0.86440011789752502 7:1 39:1 72:1 96:1 121:1 147:1 178:1 194:1 212:1 243:1 261:1 293:1 313:1 343:1 378:1 
-1 12:1 27:1 59:1 97:1 105:1 142:1 172:1 188:1 220:1 250:1 261:1 305:1 313:1 360:1 389:1 
-0.09295568725098606 19:1 32:1 61:1 84:1 110:1 142:1 168:1 194:1 227:1 246:1 276:1 306:1 334:1 339:1 369:1 
-1 9:1 32:1 58:1 90:1 116:1 142:1 175:1 194:1 224:1 254:1 282:1 287:1 317:1 339:1 368:1 
-0.19811625701867677 23:1 38:1 71:1 90:1 126:1 142:1 175:1 195:1 227:1 240:1 282:1 292:1 331:1 339:1 373:1 
-0.27413378203260397 22:1 32:1 71:1 79:1 113:1 136:1 165:1 204:1 227:1 238:1 280:1 303:1 323:1 360:1 384:1 
-0.37109304954469169 12:1 45:1 64:1 90:1 116:1 149:1 178:1 191:1 230:1 250:1 279:1 292:1 313:1 350:1 381:1 
-0.042632704087240576 19:1 38:1 64:1 90:1 123:1 152:1 165:1 204:1 224:1 253:1 266:1 287:1 324:1 355:1 380:1 
-1 22:1 35:1 74:1 94:1 123:1 136:1 157:1 194:1 225:1 250:1 261:1 306:1 313:1 343:1 365:1 
-1 22:1 42:1 71:1 84:1 105:1 142:1 173:1 198:1 209:1 254:1 261:1 291:1 313:1 339:1 368:1 
-0.012373790126381453 16:1 45:1 75:1 79:1 105:1 155:1 163:1 200:1 222:1 259:1 274:1 308:1 313:1 342:1 373:1 
-1 1:1 48:1 70:1 84:1 122:1 146:1 178:1 191:1 228:1 240:1 261:1 298:1 313:1 344:1 373:1 
-1 9:1 35:1 72:1 101:1 110:1 131:1 172:1 200:1 209:1 238:1 261:1 287:1 313:1 355:1 387:1 
-0.29756419266361173 12:1 38:1 53:1 84:1 116:1 133:1 162:1 202:1 220:1 247:1 261:1 305:1 324:1 344:1 371:1 
-1 1:1 46:1 53:1 90:1 110:1 137:1 172:1 201:1 219:1 235:1 261:1 287:1 313:1 357:1 380:1 
-0.081382440679905271 20:1 38:1 69:1 84:1 116:1 148:1 170:1 196:1 228:1 241:1 272:1 290:1 319:1 343:1 381:1 
-0.28809572264950145 1:1 44:1 61:1 79:1 116:1 131:1 178:1 204:1 220:1 254:1 261:1 295:1 328:1 339:1 383:1 
-0.7055591829011052 20:1 27:1 59:1 100:1 111:1 155:1 157:1 201:1 228:1 251:1 261:1 305:1 332:1 339:1 386:1 
-0.057939246931711416 7:1 27:1 59:1 90:1 108:1 134:1 172:1 190:1 219:1 245:1 265:1 295:1 313:1 351:1 369:1 
-0.2529944335872803 1:1 46:1 64:1 79:1 116:1 146:1 168:1 183:1 215:1 246:1 282:1 293:1 324:1 339:1 383:1 
-0.51588556323873314 20:1 38:1 53:1 90:1 120:1 142:1 157:1 189:1 220:1 256:1 267:1 298:1 313:1 357:1 380:1 
-0.15673327022839595 12:1 48:1 59:1 90:1 105:1 149:1 172:1 183:1 225:1 235:1 261:1 306:1 331:1 339:1 384:1 
-0.0025922456748237992 18:1 44:1 58:1 90:1 105:1 137:1 157:1 189:1 220:1 254:1 261:1 293:1 313:1 347:1 365:1 
-0.33425716265699507 19:1 46:1 71:1 79:1 123:1 131:1 157:1 198:1 227:1 252:1 280:1 298:1 313:1 342:1 371:1 
-0.90283900197652256 1:1 38:1 74:1 87:1 111:1 149:1 163:1 207:1 215:1 241:1 261:1 308:1 313:1 339:1 376:1 
-0.82203026323597095 6:1 33:1 53:1 79:1 105:1 142:1 157:1 189:1 215:1 254:1 280:1 295:1 313:1 339:1 380:1 
-0.61354550831902654 1:1 33:1 59:1 98:1 124:1 139:1 157:1 183:1 224:1 252:1 261:1 287:1 313:1 339:1 365:1 
-0.24427490176075276 25:1 48:1 68:1 79:1 126:1 152:1 165:1 189:1 228:1 241:1 285:1 293:1 313:1 339:1 386:1 
-0.49862384234684259 12:1 45:1 61:1 96:1 118:1 143:1 178:1 193:1 215:1 243:1 271:1 297:1 313:1 356:1 369:1 
-0.012449624142679165 22:1 32:1 64:1 90:1 108:1 155:1 172:1 194:1 222:1 239:1 277:1 305:1 318:1 343:1 381:1 
-0.33381666371474705 4:1 46:1 53:1 84:1 122:1 149:1 165:1 193:1 209:1 245:1 261:1 303:1 313:1 349:1 382:1 
-1 12:1 49:1 61:1 79:1 105:1 137:1 157:1 204:1 224:1 254:1 261:1 295:1 313:1 350:1 384:1 
-0.16164744801646544 12:1 45:1 71:1 82:1 105:1 152:1 178:1 189:1 227:1 243:1 261:1 303:1 319:1 360:1 384:1 
-0.071349360526249586 12:1 46:1 74:1 79:1 120:1 143:1 157:1 188:1 209:1 235:1 265:1 291:1 313:1 339:1 384:1 
-0.45624943322913042 25:1 45:1 72:1 82:1 126:1 142:1 162:1 187:1 221:1 254:1 276:1 303:1 313:1 349:1 365:1 
-0.90252965428279019 11:1 27:1 57:1 97:1 105:1 146:1 168:1 186:1 217:1 252:1 261:1 290:1 313:1 339:1 373:1 
-0.17626587261097429 22:1 45:1 59:1 98:1 126:1 137:1 174:1 189:1 228:1 235:1 272:1 293:1 313:1 360:1 376:1 
-1 1:1 48:1 64:1 90:1 105:1 142:1 168:1 183:1 230:1 250:1 261:1 303:1 313:1 345:1 384:1 
-0.46192873696304815 12:1 33:1 71:1 81:1 116:1 131:1 168:1 183:1 215:1 250:1 261:1 293:1 331:1 339:1 371:1 
-0.52838669529315607 12:1 27:1 59:1 94:1 105:1 137:1 175:1 183:1 215:1 235:1 261:1 302:1 313:1 342:1 380:1 
-0.029841616477683533 1:1 27:1 68:1 79:1 108:1 146:1 178:1 198:1 228:1 256:1 266:1 292:1 319:1 342:1 383:1 
-0.2001712267472667 19:1 51:1 72:1 79:1 118:1 136:1 163:1 191:1 209:1 250:1 282:1 306:1 326:1 355:1 368:1 
-1 12:1 38:1 71:1 90:1 123:1 142:1 162:1 202:1 230:1 241:1 261:1 305:1 313:1 344:1 386:1 
-0.16806994743426121 12:1 39:1 69:1 89:1 118:1 138:1 157:1 193:1 209:1 239:1 282:1 305:1 313:1 343:1 369:1 
-0.054267309436026145 5:1 35:1 71:1 92:1 124:1 152:1 175:1 196:1 213:1 247:1 279:1 297:1 323:1 339:1 383:1 
-0.56298749887596522 9:1 38:1 74:1 87:1 123:1 150:1 172:1 196:1 230:1 246:1 261:1 291:1 331:1 355:1 380:1 
-0.0088305477671398371 11:1 32:1 72:1 85:1 116:1 143:1 161:1 196:1 221:1 245:1 282:1 298:1 337:1 342:1 368:1 
-1 1:1 27:1 59:1 79:1 116:1 152:1 157:1 198:1 228:1 241:1 261:1 287:1 313:1 354:1 365:1 
-0.88693219809118795 1:1 48:1 64:1 85:1 116:1 131:1 172:1 195:1 209:1 251:1 261:1 291:1 326:1 339:1 378:1 
-1 22:1 38:1 59:1 90:1 105:1 146:1 169:1 183:1 225:1 235:1 265:1 300:1 313:1 352:1 372:1 
-1 20:1 39:1 61:1 100:1 126:1 137:1 169:1 189:1 225:1 238:1 271:1 291:1 313:1 339:1 365:1 
-0.70473866236372995 9:1 48:1 74:1 85:1 117:1 137:1 173:1 186:1 219:1 239:1 261:1 287:1 313:1 357:1 369:1 
-0.38918381512128569 22:1 37:1 63:1 96:1 127:1 152:1 176:1 204:1 227:1 243:1 261:1 305:1 313:1 360:1 386:1 
-1 22:1 46:1 64:1 98:1 123:1 142:1 175:1 189:1 227:1 246:1 282:1 297:1 313:1 342:1 383:1 
-0.38166663420900815 19:1 38:1 74:1 89:1 105:1 134:1 175:1 202:1 212:1 238:1 278:1 303:1 329:1 339:1 386:1 
-1 20:1 31:1 71:1 95:1 105:1 149:1 168:1 204:1 228:1 254:1 279:1 291:1 313:1 339:1 375:1 
-1 7:1 38:1 58:1 91:1 123:1 142:1 162:1 183:1 230:1 254:1 261:1 306:1 313:1 357:1 365:1 
-0.20783806010346703 20:1 44:1 66:1 97:1 123:1 150:1 157:1 204:1 213:1 248:1 279:1 287:1 313:1 342:1 369:1 
-0.73038099734291129 12:1 39:1 53:1 79:1 116:1 133:1 157:1 194:1 224:1 246:1 261:1 292:1 313:1 339:1 365:1 
-0.137819526537937 16:1 38:1 53:1 84:1 105:1 131:1 157:1 198:1 224:1 235:1 268:1 287:1 313:1 342:1 380:1 
-0.44378807283449284 1:1 27:1 56:1 94:1 124:1 150:1 169:1 202:1 222:1 241:1 266:1 311:1 313:1 342:1 380:1 
-0.46282523163732481 12:1 33:1 72:1 79:1 116:1 150:1 157:1 194:1 224:1 256:1 277:1 303:1 313:1 345:1 365:1 
-0.30820276580664346 20:1 46:1 72:1 82:1 120:1 153:1 179:1 202:1 227:1 248:1 282:1 306:1 313:1 345:1 376:1 
-0.12588900746904591 1:1 38:1 64:1 85:1 105:1 131:1 157:1 183:1 209:1 246:1 282:1 305:1 313:1 339:1 365:1 
-0.94871565743714792 12:1 48:1 71:1 79:1 105:1 131:1 168:1 183:1 214:1 250:1 279:1 303:1 313:1 339:1 365:1 
-1 4:1 45:1 68:1 84:1 129:1 152:1 170:1 198:1 222:1 247:1 279:1 305:1 313:1 343:1 387:1 
-0.24239967460221881 20:1 33:1 72:1 79:1 112:1 131:1 161:1 198:1 209:1 240:1 274:1 311:1 313:1 343:1 365:1 
-0.26378457950154449 20:1 27:1 60:1 79:1 109:1 146:1 157:1 188:1 222:1 259:1 261:1 291:1 313:1 350:1 381:1 
-1 20:1 27:1 64:1 90:1 120:1 143:1 173:1 196:1 209:1 248:1 261:1 311:1 316:1 339:1 383:1 
-0.58586968501166947 12:1 38:1 61:1 90:1 105:1 152:1 168:1 189:1 230:1 259:1 273:1 298:1 313:1 351:1 380:1 
-0.081195288763901974 1:1 46:1 59:1 100:1 123:1 139:1 178:1 189:1 220:1 254:1 261:1 298:1 313:1 345:1 380:1 
-0.022741283482494903 1:1 33:1 68:1 94:1 105:1 147:1 157:1 183:1 228:1 241:1 263:1 297:1 313:1 343:1 389:1 
-0.37323448620022631 22:1 35:1 64:1 97:1 116:1 131:1 165:1 204:1 230:1 235:1 272:1 298:1 313:1 339:1 386:1 
-0.026761949814168452 12:1 38:1 53:1 79:1 126:1 135:1 172:1 196:1 209:1 235:1 272:1 287:1 313:1 339:1 380:1 
-0.58559157252296734 16:1 33:1 75:1 92:1 116:1 137:1 170:1 201:1 220:1 238:1 261:1 308:1 319:1 339:1 368:1 
-0.17692470098950105 5:1 33:1 72:1 84:1 108:1 134:1 163:1 198:1 213:1 241:1 283:1 308:1 313:1 363:1 371:1 
-0.12264503133675504 19:1 44:1 59:1 89:1 116:1 142:1 168:1 188:1 230:1 253:1 282:1 299:1 313:1 358:1 383:1 
-0.30097627727643622 12:1 32:1 74:1 97:1 126:1 143:1 157:1 202:1 227:1 253:1 269:1 295:1 313:1 345:1 371:1 
-1 7:1 45:1 72:1 79:1 110:1 150:1 163:1 204:1 226:1 238:1 282:1 302:1 313:1 355:1 381:1 
-0.83167618020586065 19:1 33:1 64:1 87:1 109:1 150:1 167:1 204:1 227:1 235:1 261:1 297:1 321:1 358:1 369:1 
-0.49903350738071539 12:1 40:1 71:1 87:1 111:1 136:1 165:1 198:1 222:1 242:1 279:1 297:1 323:1 339:1 384:1 
-0.063684587230597209 14:1 45:1 61:1 85:1 110:1 139:1 172:1 196:1 216:1 253:1 271:1 297:1 313:1 358:1 373:1 
-0.23534833085293666 22:1 29:1 74:1 90:1 126:1 143:1 168:1 204:1 227:1 243:1 272:1 293:1 331:1 344:1 383:1 
-0.57457050090755601 13:1 38:1 74:1 97:1 113:1 142:1 163:1 201:1 214:1 253:1 282:1 308:1 313:1 339:1 383:1 
-1 12:1 48:1 71:1 87:1 116:1 137:1 175:1 188:1 227:1 256:1 282:1 287:1 313:1 357:1 380:1 
-0.19760169366036623 14:1 31:1 64:1 100:1 117:1 148:1 163:1 195:1 226:1 238:1 269:1 305:1 313:1 347:1 368:1 
-0.72859472604318876 1:1 35:1 58:1 97:1 116:1 152:1 178:1 183:1 220:1 247:1 282:1 298:1 313:1 347:1 370:1 
-1 1:1 43:1 66:1 98:1 111:1 149:1 176:1 183:1 228:1 254:1 261:1 287:1 313:1 339:1 386:1 
-0.46079544998307137 17:1 40:1 72:1 85:1 123:1 150:1 157:1 202:1 228:1 235:1 261:1 287:1 313:1 360:1 368:1 
-0.12243915454200216 19:1 38:1 59:1 92:1 129:1 144:1 175:1 189:1 220:1 245:1 269:1 293:1 313:1 361:1 386:1 
-0.41027805872899908 9:1 33:1 53:1 101:1 126:1 137:1 176:1 199:1 224:1 253:1 265:1 305:1 313:1 347:1 375:1 
-1 22:1 46:1 59:1 90:1 110:1 139:1 164:1 202:1 224:1 245:1 261:1 291:1 313:1 339:1 371:1 
-0.62639055662545162 13:1 27:1 71:1 79:1 118:1 150:1 170:1 187:1 227:1 245:1 279:1 300:1 313:1 344:1 380:1 
-0.20651789034938339 13:1 39:1 64:1 84:1 124:1 152:1 168:1 189:1 228:1 248:1 280:1 311:1 323:1 339:1 369:1 
-0.80787178868482101 13:1 38:1 58:1 98:1 126:1 142:1 163:1 202:1 222:1 254:1 285:1 297:1 313:1 343:1 365:1 
-1 6:1 46:1 74:1 90:1 111:1 150:1 170:1 202:1 233:1 245:1 261:1 291:1 313:1 339:1 384:1 
-0.14627768448188971 18:1 46:1 72:1 94:1 105:1 146:1 163:1 190:1 224:1 235:1 278:1 293:1 313:1 356:1 384:1 
-0.33364043874526 1:1 27:1 72:1 90:1 126:1 152:1 163:1 183:1 228:1 256:1 282:1 298:1 328:1 339:1 381:1 
-0.81070447910571075 22:1 38:1 68:1 79:1 121:1 131:1 157:1 202:1 228:1 246:1 271:1 291:1 313:1 339:1 368:1 
-0.55994972812086752 12:1 33:1 71:1 87:1 116:1 143:1 170:1 198:1 230:1 235:1 267:1 287:1 313:1 342:1 383:1 
-0.36831718849367334 1:1 29:1 74:1 91:1 126:1 142:1 159:1 204:1 217:1 250:1 261:1 305:1 319:1 339:1 365:1 
-1 3:1 48:1 65:1 100:1 116:1 133:1 178:1 191:1 224:1 235:1 279:1 293:1 313:1 339:1 365:1 
-0.066806616824786377 22:1 39:1 74:1 90:1 107:1 152:1 165:1 198:1 209:1 253:1 267:1 287:1 313:1 339:1 372:1 
-0.69051043699254033 13:1 48:1 64:1 81:1 126:1 139:1 172:1 183:1 227:1 241:1 261:1 287:1 313:1 346:1 369:1 
-0.064641548380373878 12:1 29:1 74:1 87:1 120:1 131:1 175:1 189:1 209:1 235:1 261:1 294:1 317:1 339:1 386:1 
-0.43824882974087087 9:1 42:1 53:1 97:1 111:1 131:1 157:1 183:1 216:1 239:1 261:1 308:1 313:1 343:1 368:1 
-0.19155891731998653 8:1 31:1 53:1 100:1 105:1 135:1 160:1 183:1 215:1 248:1 278:1 295:1 313:1 339:1 380:1 
-0.29515117424477572 18:1 38:1 53:1 79:1 116:1 152:1 163:1 183:1 215:1 235:1 261:1 298:1 313:1 350:1 383:1 
-0.30866475848828806 3:1 48:1 72:1 90:1 129:1 147:1 175:1 205:1 226:1 259:1 279:1 303:1 313:1 342:1 378:1 
-0.327955678520297 20:1 38:1 74:1 90:1 111:1 131:1 178:1 189:1 214:1 254:1 261:1 302:1 313:1 355:1 365:1 
-0.57190018654176322 19:1 33:1 72:1 85:1 116:1 149:1 163:1 183:1 226:1 254:1 282:1 295:1 328:1 339:1 383:1 
-0.025157899429308832 7:1 42:1 74:1 84:1 113:1 146:1 168:1 204:1 225:1 241:1 261:1 293:1 319:1 346:1 371:1 
-0.095360378910376076 20:1 46:1 72:1 94:1 116:1 135:1 178:1 183:1 225:1 254:1 279:1 303:1 329:1 343:1 384:1 
-1 19:1 39:1 53:1 90:1 116:1 142:1 168:1 201:1 215:1 254:1 261:1 300:1 313:1 343:1 371:1 
-1 1:1 38:1 64:1 90:1 116:1 149:1 163:1 202:1 209:1 248:1 261:1 291:1 319:1 349:1 373:1 
-0.91450594119987394 4:1 30:1 63:1 100:1 124:1 142:1 181:1 193:1 228:1 254:1 261:1 306:1 313:1 342:1 383:1 
-0.36620924388500148 19:1 38:1 64:1 79:1 120:1 142:1 157:1 196:1 224:1 246:1 272:1 291:1 326:1 339:1 375:1 
-0.002389609980002024 7:1 43:1 72:1 100:1 122:1 131:1 160:1 190:1 227:1 238:1 272:1 308:1 313:1 343:1 375:1 
-0.44893916019704361 18:1 32:1 64:1 79:1 122:1 131:1 163:1 183:1 228:1 256:1 267:1 308:1 313:1 339:1 371:1 
-0.46911456510722244 22:1 33:1 74:1 79:1 105:1 137:1 168:1 183:1 214:1 253:1 272:1 302:1 313:1 342:1 382:1 
-0.36790074400492428 7:1 38:1 53:1 84:1 123:1 142:1 172:1 183:1 212:1 252:1 264:1 293:1 313:1 354:1 371:1 
-1 20:1 33:1 64:1 97:1 118:1 137:1 173:1 202:1 230:1 254:1 282:1 305:1 313:1 358:1 371:1 
-0.22189325795381359 6:1 32:1 71:1 100:1 116:1 146:1 176:1 191:1 227:1 247:1 279:1 305:1 317:1 339:1 378:1 
-0.27578933205380046 6:1 45:1 74:1 90:1 120:1 150:1 165:1 201:1 221:1 253:1 279:1 291:1 313:1 352:1 371:1 
-0.4492492690380146 1:1 40:1 59:1 79:1 105:1 142:1 175:1 196:1 224:1 248:1 261:1 300:1 329:1 358:1 384:1 
-0.13311422140928408 3:1 45:1 59:1 100:1 105:1 150:1 157:1 183:1 224:1 245:1 280:1 311:1 315:1 343:1 369:1 
-0.31187875761961331 1:1 38:1 61:1 79:1 105:1 137:1 163:1 191:1 215:1 235:1 263:1 295:1 313:1 358:1 386:1 
-0.20466308530602312 22:1 42:1 61:1 97:1 113:1 139:1 174:1 196:1 226:1 256:1 261:1 297:1 334:1 339:1 386:1 
-0.58197315137900796 7:1 38:1 53:1 100:1 111:1 136:1 173:1 202:1 224:1 235:1 282:1 287:1 313:1 339:1 380:1 
-0.85944971524201796 12:1 27:1 74:1 85:1 110:1 147:1 176:1 198:1 209:1 256:1 261:1 287:1 313:1 354:1 384:1 
-0.55031545130264181 16:1 45:1 71:1 85:1 116:1 149:1 160:1 189:1 228:1 256:1 282:1 297:1 334:1 339:1 371:1 
-0.067554448727286331 1:1 35:1 74:1 97:1 113:1 142:1 168:1 191:1 215:1 247:1 261:1 295:1 331:1 352:1 386:1 
-0.18313110472553318 9:1 38:1 64:1 87:1 111:1 143:1 157:1 191:1 227:1 248:1 282:1 305:1 323:1 345:1 381:1 
-0.30458533153945644 12:1 38:1 61:1 85:1 117:1 131:1 165:1 201:1 222:1 256:1 279:1 297:1 319:1 355:1 389:1 
-1 9:1 33:1 65:1 79:1 113:1 149:1 170:1 204:1 227:1 245:1 267:1 303:1 337:1 339:1 375:1 
-0.25384338492179104 1:1 45:1 69:1 98:1 108:1 144:1 163:1 204:1 222:1 252:1 279:1 293:1 331:1 343:1 368:1 
-0.025117121585984788 19:1 38:1 61:1 98:1 124:1 150:1 168:1 183:1 220:1 241:1 282:1 298:1 313:1 357:1 384:1 
-0.19767230841873895 20:1 46:1 64:1 79:1 116:1 137:1 178:1 194:1 209:1 253:1 280:1 293:1 313:1 352:1 370:1 
-0.028650513419508632 7:1 27:1 66:1 84:1 118:1 144:1 170:1 187:1 209:1 253:1 261:1 287:1 313:1 349:1 380:1 
-0.4562925074420629 7:1 38:1 71:1 87:1 116:1 142:1 157:1 189:1 228:1 256:1 261:1 298:1 319:1 339:1 376:1 
-1 7:1 27:1 64:1 79:1 126:1 142:1 172:1 204:1 215:1 239:1 269:1 303:1 313:1 349:1 365:1 
-1 17:1 46:1 63:1 85:1 123:1 149:1 168:1 183:1 222:1 254:1 282:1 306:1 313:1 339:1 384:1 
-0.07957472390057066 12:1 27:1 66:1 98:1 126:1 150:1 157:1 183:1 228:1 235:1 271:1 303:1 313:1 339:1 384:1 
-0.25786000943129334 9:1 27:1 53:1 98:1 105:1 137:1 165:1 183:1 230:1 254:1 261:1 292:1 330:1 339:1 380:1 
-0.40039905490249528 23:1 33:1 61:1 79:1 121:1 149:1 167:1 189:1 228:1 254:1 282:1 290:1 313:1 347:1 375:1 
-0.3060104661217149 9:1 38:1 58:1 100:1 110:1 139:1 162:1 198:1 225:1 248:1 272:1 308:1 318:1 339:1 371:1 
-1 12:1 32:1 74:1 84:1 113:1 136:1 172:1 199:1 222:1 246:1 282:1 292:1 313:1 345:1 369:1 
-0.16681495906247251 22:1 48:1 70:1 82:1 118:1 136:1 163:1 204:1 224:1 242:1 272:1 311:1 313:1 349:1 378:1 
-0.8526285493257405 9:1 29:1 53:1 79:1 116:1 131:1 176:1 201:1 220:1 257:1 261:1 293:1 313:1 357:1 384:1 
-1 6:1 35:1 55:1 97:1 124:1 139:1 162:1 191:1 228:1 240:1 282:1 292:1 313:1 350:1 372:1 
-1 19:1 35:1 61:1 91:1 105:1 139:1 169:1 194:1 224:1 256:1 267:1 300:1 313:1 339:1 365:1 
-0.1309129499448666 13:1 27:1 61:1 91:1 116:1 146:1 178:1 189:1 222:1 235:1 261:1 287:1 313:1 354:1 386:1 
-1 1:1 27:1 53:1 79:1 120:1 152:1 178:1 190:1 222:1 250:1 261:1 305:1 332:1 339:1 378:1 
-0.67551040396776107 1:1 42:1 74:1 100:1 112:1 144:1 172:1 183:1 227:1 254:1 261:1 300:1 330:1 354:1 386:1 
-0.42783535484293705 18:1 46:1 72:1 79:1 126:1 142:1 157:1 189:1 220:1 235:1 261:1 308:1 313:1 339:1 376:1 
-0.15074347570767405 1:1 48:1 64:1 79:1 111:1 142:1 157:1 183:1 230:1 235:1 261:1 298:1 313:1 360:1 380:1 
-0.31045616490815381 5:1 46:1 68:1 96:1 124:1 136:1 175:1 183:1 222:1 251:1 272:1 306:1 313:1 339:1 383:1 
-0.40904872644533957 19:1 49:1 61:1 97:1 126:1 133:1 168:1 194:1 230:1 246:1 282:1 305:1 313:1 339:1 371:1 
-0.86445898762082474 19:1 27:1 53:1 85:1 117:1 142:1 162:1 201:1 228:1 235:1 261:1 297:1 332:1 343:1 384:1 
-0.092807527282812885 6:1 45:1 72:1 79:1 105:1 141:1 176:1 187:1 228:1 253:1 279:1 294:1 323:1 339:1 372:1 
-0.56235131744596711 19:1 46:1 53:1 79:1 115:1 150:1 161:1 202:1 227:1 253:1 268:1 297:1 313:1 346:1 384:1 
-1 1:1 39:1 64:1 98:1 111:1 139:1 163:1 194:1 227:1 253:1 282:1 303:1 313:1 342:1 369:1 
-1 20:1 33:1 61:1 85:1 116:1 149:1 175:1 204:1 225:1 235:1 264:1 291:1 313:1 352:1 383:1 
-1 20:1 43:1 74:1 97:1 123:1 135:1 168:1 183:1 213:1 252:1 279:1 303:1 334:1 355:1 369:1 
