svm_type c_svc
kernel_type substitution_matrix
nr_class 2
total_sv 267
rho 5.5201827910915666
label 1 -1
nr_sv 90 177
SV
1 20:1 48:1 53:1 98:1 116:1 131:1 165:1 183:1 227:1 250:1 
1 7:1 33:1 53:1 79:1 124:1 131:1 163:1 183:1 214:1 253:1 
1 9:1 40:1 68:1 82:1 113:1 139:1 162:1 183:1 209:1 254:1 
1 12:1 45:1 64:1 98:1 105:1 136:1 157:1 183:1 228:1 254:1 
1 14:1 46:1 77:1 92:1 108:1 131:1 172:1 183:1 217:1 248:1 
1 6:1 46:1 64:1 100:1 108:1 152:1 161:1 183:1 216:1 242:1 
1 12:1 35:1 68:1 95:1 105:1 149:1 175:1 183:1 209:1 256:1 
0.65342001693059171 19:1 42:1 71:1 92:1 124:1 131:1 175:1 183:1 209:1 256:1 
1 19:1 45:1 61:1 100:1 124:1 131:1 170:1 183:1 227:1 243:1 
1 12:1 42:1 60:1 97:1 105:1 131:1 157:1 183:1 209:1 248:1 
1 19:1 46:1 59:1 100:1 108:1 131:1 161:1 202:1 230:1 242:1 
1 16:1 46:1 59:1 96:1 112:1 131:1 167:1 183:1 209:1 235:1 
1 12:1 32:1 60:1 90:1 126:1 142:1 157:1 189:1 224:1 235:1 
1 7:1 38:1 72:1 79:1 120:1 139:1 173:1 183:1 209:1 253:1 
0.17142147113452216 13:1 42:1 65:1 83:1 110:1 131:1 167:1 183:1 213:1 254:1 
1 6:1 39:1 59:1 97:1 126:1 131:1 164:1 183:1 227:1 239:1 
1 7:1 38:1 71:1 84:1 116:1 137:1 163:1 204:1 228:1 251:1 
1 12:1 48:1 68:1 100:1 117:1 131:1 159:1 189:1 225:1 239:1 
0.86433096768005391 19:1 46:1 61:1 97:1 123:1 152:1 173:1 183:1 213:1 252:1 
1 12:1 45:1 61:1 98:1 123:1 142:1 161:1 183:1 214:1 254:1 
1 16:1 42:1 72:1 94:1 123:1 131:1 157:1 183:1 224:1 253:1 
1 1:1 34:1 53:1 97:1 123:1 137:1 163:1 200:1 215:1 242:1 
1 1:1 38:1 64:1 94:1 105:1 137:1 163:1 183:1 209:1 259:1 
1 7:1 45:1 53:1 85:1 105:1 149:1 170:1 183:1 209:1 241:1 
1 7:1 27:1 53:1 90:1 120:1 152:1 179:1 183:1 227:1 250:1 
1 12:1 42:1 53:1 97:1 105:1 152:1 181:1 183:1 212:1 250:1 
0.66421872235401169 19:1 38:1 68:1 98:1 126:1 131:1 161:1 183:1 212:1 256:1 
1 20:1 43:1 63:1 100:1 124:1 152:1 161:1 183:1 209:1 241:1 
1 17:1 42:1 53:1 98:1 105:1 135:1 157:1 183:1 212:1 253:1 
1 23:1 32:1 53:1 94:1 122:1 131:1 160:1 183:1 209:1 235:1 
0.51751484588251806 6:1 33:1 68:1 97:1 115:1 131:1 157:1 183:1 209:1 253:1 
1 20:1 43:1 53:1 97:1 124:1 131:1 178:1 193:1 209:1 241:1 
1 19:1 39:1 71:1 98:1 123:1 131:1 175:1 183:1 209:1 250:1 
1 1:1 27:1 53:1 79:1 115:1 149:1 157:1 183:1 212:1 248:1 
1 17:1 35:1 72:1 94:1 129:1 134:1 161:1 200:1 225:1 250:1 
1 19:1 48:1 53:1 79:1 123:1 131:1 162:1 183:1 209:1 250:1 
1 1:1 43:1 53:1 85:1 124:1 131:1 157:1 183:1 209:1 238:1 
1 5:1 48:1 71:1 92:1 124:1 149:1 168:1 183:1 209:1 238:1 
0.702124163474111 13:1 43:1 63:1 92:1 112:1 131:1 167:1 183:1 213:1 256:1 
1 16:1 32:1 57:1 97:1 124:1 142:1 173:1 183:1 219:1 239:1 
0.79607643924493166 22:1 45:1 68:1 98:1 118:1 152:1 165:1 183:1 219:1 239:1 
1 9:1 45:1 72:1 94:1 118:1 152:1 168:1 183:1 213:1 253:1 
0.80938759241683722 9:1 45:1 68:1 90:1 118:1 152:1 167:1 183:1 222:1 239:1 
1 16:1 38:1 74:1 92:1 111:1 149:1 161:1 193:1 227:1 239:1 
1 12:1 48:1 53:1 94:1 124:1 137:1 157:1 183:1 209:1 250:1 
1 13:1 33:1 69:1 82:1 115:1 135:1 157:1 183:1 209:1 253:1 
1 20:1 38:1 72:1 97:1 116:1 149:1 163:1 201:1 220:1 256:1 
1 1:1 48:1 72:1 79:1 124:1 131:1 175:1 183:1 225:1 254:1 
1 19:1 45:1 72:1 79:1 126:1 135:1 170:1 201:1 209:1 235:1 
0.876481758990176 1:1 32:1 68:1 97:1 121:1 131:1 157:1 183:1 222:1 238:1 
0.57020839967232473 13:1 38:1 53:1 97:1 120:1 131:1 175:1 183:1 209:1 241:1 
0.6763873054596562 12:1 27:1 72:1 85:1 124:1 131:1 164:1 183:1 213:1 250:1 
1 22:1 31:1 68:1 92:1 105:1 131:1 168:1 183:1 209:1 235:1 
0.56517203111003345 1:1 33:1 71:1 85:1 124:1 131:1 168:1 183:1 209:1 253:1 
1 9:1 27:1 59:1 85:1 118:1 131:1 181:1 189:1 227:1 254:1 
1 12:1 35:1 57:1 98:1 115:1 152:1 175:1 183:1 209:1 245:1 
1 19:1 42:1 74:1 89:1 111:1 136:1 173:1 204:1 227:1 241:1 
1 1:1 43:1 66:1 98:1 111:1 149:1 176:1 183:1 228:1 254:1 
1 22:1 33:1 72:1 95:1 120:1 149:1 161:1 201:1 209:1 243:1 
1 12:1 32:1 61:1 86:1 124:1 146:1 167:1 183:1 213:1 235:1 
0.25242726093059153 13:1 38:1 74:1 94:1 122:1 131:1 179:1 183:1 225:1 254:1 
1 20:1 48:1 64:1 85:1 124:1 144:1 176:1 207:1 219:1 235:1 
1 20:1 48:1 74:1 90:1 120:1 131:1 173:1 183:1 209:1 254:1 
0.078170671902494146 12:1 39:1 66:1 94:1 126:1 131:1 163:1 183:1 209:1 238:1 
1 1:1 27:1 60:1 83:1 105:1 152:1 157:1 187:1 212:1 235:1 
1 12:1 27:1 53:1 85:1 120:1 131:1 175:1 183:1 212:1 254:1 
1 12:1 48:1 59:1 97:1 124:1 152:1 162:1 183:1 230:1 238:1 
0.68222298067983222 22:1 32:1 61:1 94:1 116:1 152:1 173:1 189:1 209:1 241:1 
0.37228578157533793 9:1 33:1 59:1 85:1 126:1 131:1 161:1 183:1 222:1 238:1 
1 12:1 38:1 64:1 97:1 111:1 150:1 157:1 196:1 209:1 239:1 
0.46803589246030886 16:1 38:1 64:1 83:1 118:1 131:1 167:1 183:1 209:1 248:1 
0.9637129803114205 22:1 27:1 59:1 95:1 124:1 152:1 174:1 183:1 212:1 242:1 
1 19:1 38:1 68:1 79:1 108:1 148:1 160:1 189:1 209:1 250:1 
1 22:1 38:1 68:1 98:1 113:1 149:1 169:1 201:1 227:1 239:1 
1 3:1 29:1 71:1 85:1 126:1 131:1 176:1 183:1 209:1 250:1 
1 22:1 27:1 74:1 94:1 123:1 131:1 181:1 183:1 209:1 235:1 
0.23878043186012068 7:1 32:1 69:1 98:1 120:1 131:1 178:1 183:1 209:1 235:1 
1 19:1 38:1 71:1 97:1 123:1 131:1 170:1 183:1 227:1 251:1 
1 6:1 40:1 66:1 92:1 109:1 131:1 175:1 183:1 209:1 235:1 
0.8923580396452836 22:1 33:1 57:1 87:1 121:1 131:1 167:1 183:1 209:1 243:1 
1 18:1 27:1 68:1 98:1 113:1 148:1 175:1 183:1 227:1 254:1 
1 17:1 40:1 64:1 100:1 110:1 131:1 163:1 187:1 212:1 245:1 
1 7:1 40:1 64:1 83:1 126:1 139:1 173:1 183:1 213:1 256:1 
0.83411107351107328 25:1 45:1 59:1 98:1 123:1 131:1 173:1 183:1 213:1 235:1 
0.8658131809540599 7:1 27:1 71:1 98:1 115:1 152:1 181:1 183:1 231:1 238:1 
1 12:1 34:1 56:1 89:1 122:1 152:1 178:1 183:1 209:1 253:1 
1 12:1 27:1 74:1 94:1 124:1 131:1 170:1 183:1 213:1 254:1 
1 1:1 33:1 65:1 90:1 110:1 149:1 176:1 183:1 209:1 245:1 
1 7:1 33:1 53:1 98:1 121:1 131:1 162:1 183:1 219:1 239:1 
1 20:1 33:1 61:1 85:1 116:1 149:1 175:1 204:1 225:1 235:1 
-0.3724868482975402 22:1 51:1 57:1 94:1 124:1 131:1 175:1 183:1 219:1 250:1 
-0.24824383492712809 12:1 39:1 61:1 85:1 124:1 131:1 157:1 183:1 230:1 256:1 
-1 19:1 38:1 66:1 98:1 108:1 135:1 179:1 187:1 213:1 239:1 
-0.64461992580375771 7:1 38:1 53:1 85:1 120:1 131:1 172:1 183:1 209:1 242:1 
-1 7:1 38:1 71:1 90:1 124:1 131:1 162:1 183:1 209:1 254:1 
-0.31948188233276054 22:1 42:1 53:1 94:1 120:1 131:1 167:1 199:1 213:1 253:1 
-0.051611830290143546 20:1 40:1 59:1 98:1 117:1 143:1 173:1 207:1 214:1 239:1 
-0.023434271417551701 7:1 40:1 60:1 101:1 118:1 148:1 168:1 196:1 227:1 238:1 
-1 12:1 38:1 61:1 94:1 121:1 131:1 175:1 201:1 209:1 235:1 
-0.18555076351794686 19:1 40:1 72:1 79:1 123:1 131:1 157:1 204:1 209:1 238:1 
-0.33764093133393114 14:1 46:1 53:1 97:1 105:1 131:1 178:1 183:1 212:1 238:1 
-0.5790026741173101 1:1 48:1 53:1 82:1 108:1 136:1 173:1 183:1 227:1 256:1 
-0.36338935513288945 9:1 48:1 72:1 79:1 118:1 131:1 175:1 191:1 209:1 250:1 
-0.099227070807761844 12:1 42:1 77:1 92:1 120:1 144:1 157:1 183:1 213:1 235:1 
-0.82611417686018718 12:1 38:1 68:1 86:1 123:1 131:1 157:1 183:1 209:1 235:1 
-0.84570135135984215 19:1 38:1 71:1 98:1 111:1 152:1 160:1 183:1 213:1 254:1 
-0.45760362912319741 6:1 29:1 68:1 98:1 111:1 148:1 164:1 183:1 219:1 235:1 
-0.25867278836348434 22:1 38:1 53:1 85:1 120:1 131:1 157:1 183:1 227:1 235:1 
-0.022711775148130345 12:1 27:1 59:1 94:1 105:1 131:1 157:1 201:1 209:1 239:1 
-1 1:1 33:1 68:1 79:1 105:1 131:1 175:1 183:1 213:1 254:1 
-0.1301925466565948 11:1 45:1 59:1 98:1 113:1 142:1 164:1 183:1 231:1 248:1 
-0.40252449660309525 1:1 42:1 72:1 94:1 105:1 131:1 157:1 183:1 224:1 250:1 
-0.11650408808381221 11:1 32:1 53:1 97:1 126:1 131:1 174:1 183:1 211:1 254:1 
-0.2680447107664285 7:1 45:1 65:1 94:1 117:1 135:1 162:1 183:1 219:1 235:1 
-0.46269120591649471 22:1 38:1 59:1 100:1 126:1 137:1 168:1 183:1 228:1 238:1 
-0.086536977368680199 16:1 33:1 72:1 98:1 124:1 152:1 173:1 198:1 212:1 248:1 
-0.21757573239469061 6:1 45:1 74:1 85:1 126:1 131:1 175:1 204:1 209:1 256:1 
-0.11525188824354814 12:1 32:1 65:1 85:1 123:1 152:1 157:1 190:1 209:1 253:1 
-0.12175881381914276 19:1 48:1 63:1 98:1 124:1 135:1 178:1 183:1 209:1 245:1 
-0.0067997178289620009 16:1 51:1 68:1 97:1 117:1 131:1 173:1 202:1 212:1 251:1 
-0.10393371694879761 9:1 32:1 57:1 83:1 123:1 139:1 178:1 183:1 209:1 253:1 
-0.017998368406950294 1:1 45:1 72:1 87:1 120:1 137:1 175:1 183:1 209:1 254:1 
-0.024840263171983037 13:1 27:1 55:1 85:1 121:1 135:1 175:1 201:1 209:1 238:1 
-0.19669209646934208 1:1 29:1 59:1 95:1 109:1 149:1 175:1 183:1 212:1 235:1 
-1 7:1 43:1 57:1 97:1 123:1 131:1 160:1 183:1 209:1 239:1 
-1 7:1 45:1 53:1 94:1 123:1 149:1 175:1 183:1 209:1 235:1 
-1 19:1 27:1 68:1 97:1 123:1 149:1 157:1 183:1 209:1 242:1 
-0.20268218563783666 1:1 27:1 60:1 89:1 120:1 137:1 161:1 204:1 213:1 250:1 
-0.42671422174592405 7:1 31:1 71:1 90:1 121:1 152:1 161:1 183:1 219:1 239:1 
-0.13385283994441124 17:1 48:1 63:1 86:1 115:1 144:1 173:1 183:1 228:1 242:1 
-0.6903137469829399 16:1 27:1 68:1 94:1 124:1 146:1 175:1 183:1 209:1 235:1 
-1 1:1 42:1 68:1 98:1 120:1 149:1 157:1 183:1 209:1 250:1 
-0.060176748026383245 12:1 38:1 72:1 79:1 124:1 131:1 163:1 183:1 209:1 246:1 
-0.18694103182991653 1:1 46:1 53:1 85:1 105:1 131:1 168:1 183:1 209:1 235:1 
-1 12:1 48:1 68:1 85:1 124:1 131:1 164:1 183:1 227:1 253:1 
-0.16267523690740543 7:1 45:1 59:1 97:1 126:1 149:1 160:1 183:1 213:1 252:1 
-0.20998686232457323 1:1 33:1 64:1 83:1 122:1 131:1 175:1 189:1 209:1 252:1 
-1 16:1 27:1 59:1 85:1 105:1 131:1 181:1 183:1 227:1 254:1 
-1 1:1 45:1 72:1 97:1 124:1 131:1 167:1 183:1 224:1 235:1 
-0.58359428501813071 12:1 33:1 70:1 79:1 126:1 152:1 169:1 183:1 209:1 235:1 
-1 12:1 48:1 64:1 85:1 123:1 131:1 163:1 183:1 227:1 248:1 
-1 17:1 48:1 64:1 82:1 113:1 131:1 163:1 183:1 213:1 248:1 
-0.098945439484889999 19:1 32:1 71:1 98:1 108:1 152:1 165:1 207:1 225:1 256:1 
-0.90748887241385745 12:1 45:1 64:1 94:1 124:1 152:1 157:1 187:1 209:1 238:1 
-0.1597931556872656 12:1 45:1 65:1 97:1 110:1 152:1 162:1 201:1 209:1 243:1 
-0.090919062036808135 7:1 40:1 64:1 92:1 115:1 152:1 170:1 188:1 228:1 253:1 
-0.96565038966658712 6:1 27:1 64:1 95:1 120:1 131:1 176:1 183:1 213:1 235:1 
-1 12:1 43:1 68:1 79:1 124:1 131:1 161:1 183:1 209:1 238:1 
-0.24799401067960392 22:1 33:1 77:1 103:1 120:1 149:1 179:1 183:1 209:1 259:1 
-1 16:1 48:1 61:1 98:1 110:1 131:1 168:1 183:1 214:1 243:1 
-0.96210118520221277 23:1 43:1 53:1 85:1 124:1 131:1 181:1 193:1 225:1 241:1 
-0.22128370049037865 7:1 42:1 71:1 89:1 105:1 131:1 157:1 183:1 227:1 250:1 
-0.12954389192799176 22:1 33:1 77:1 79:1 123:1 150:1 173:1 183:1 227:1 254:1 
-0.16246642275946496 5:1 38:1 74:1 97:1 123:1 131:1 161:1 196:1 227:1 253:1 
-0.1528967277773936 19:1 33:1 77:1 85:1 111:1 131:1 178:1 183:1 209:1 246:1 
-0.20070953680073247 12:1 33:1 65:1 79:1 105:1 136:1 163:1 183:1 209:1 235:1 
-0.80070308101591015 12:1 27:1 59:1 85:1 124:1 150:1 165:1 183:1 209:1 250:1 
-0.47228147528330744 1:1 33:1 59:1 98:1 124:1 139:1 157:1 183:1 224:1 252:1 
-0.091246049070335872 9:1 27:1 53:1 94:1 122:1 131:1 157:1 183:1 209:1 235:1 
-0.41970352229310731 1:1 27:1 68:1 96:1 105:1 131:1 157:1 183:1 209:1 245:1 
-0.87233623011060346 22:1 48:1 59:1 97:1 113:1 131:1 173:1 189:1 230:1 254:1 
-0.021578274813251787 22:1 27:1 68:1 91:1 105:1 136:1 157:1 183:1 213:1 239:1 
-0.82243842760814689 17:1 43:1 72:1 100:1 115:1 131:1 161:1 201:1 209:1 250:1 
-0.98320658429909435 19:1 27:1 68:1 90:1 108:1 139:1 174:1 183:1 212:1 235:1 
-0.23542347454412393 16:1 38:1 56:1 87:1 122:1 131:1 160:1 183:1 209:1 243:1 
-0.032888526995060473 1:1 45:1 59:1 96:1 126:1 142:1 181:1 183:1 219:1 238:1 
-0.50968854701372035 12:1 38:1 53:1 100:1 120:1 131:1 173:1 183:1 215:1 254:1 
-0.8144284180942305 12:1 34:1 72:1 79:1 116:1 149:1 173:1 189:1 209:1 250:1 
-0.089502599895951288 12:1 32:1 64:1 100:1 126:1 152:1 169:1 194:1 209:1 253:1 
-0.061858570337395738 12:1 45:1 64:1 84:1 124:1 152:1 163:1 183:1 227:1 235:1 
-1 13:1 32:1 63:1 89:1 113:1 139:1 168:1 183:1 209:1 253:1 
-0.050711148693231851 20:1 38:1 69:1 79:1 115:1 135:1 181:1 201:1 209:1 239:1 
-0.11735420546843743 22:1 45:1 66:1 83:1 117:1 149:1 167:1 193:1 209:1 253:1 
-0.73069179977498533 20:1 42:1 66:1 100:1 116:1 131:1 161:1 201:1 225:1 250:1 
-0.51496620291119133 20:1 46:1 71:1 94:1 116:1 152:1 170:1 189:1 227:1 239:1 
-0.074372305597984925 22:1 27:1 68:1 98:1 111:1 131:1 157:1 183:1 224:1 235:1 
-1 16:1 39:1 53:1 95:1 105:1 135:1 170:1 183:1 222:1 242:1 
-0.5811582547540366 20:1 35:1 60:1 89:1 112:1 142:1 170:1 189:1 212:1 241:1 
-0.34434573062717966 22:1 31:1 57:1 92:1 111:1 144:1 175:1 183:1 228:1 238:1 
-0.92826513046106462 22:1 46:1 74:1 97:1 113:1 131:1 175:1 183:1 230:1 256:1 
-1 12:1 45:1 59:1 97:1 116:1 152:1 167:1 183:1 212:1 253:1 
-0.10374153470444199 17:1 27:1 74:1 98:1 109:1 149:1 173:1 183:1 227:1 246:1 
-1 19:1 38:1 74:1 98:1 124:1 149:1 161:1 183:1 209:1 245:1 
-0.53319141416422977 12:1 48:1 72:1 98:1 123:1 135:1 157:1 183:1 219:1 239:1 
-1 12:1 32:1 53:1 100:1 124:1 131:1 176:1 183:1 227:1 235:1 
-0.33542636003585879 19:1 46:1 53:1 100:1 109:1 144:1 175:1 183:1 209:1 238:1 
-1 20:1 27:1 74:1 83:1 118:1 149:1 157:1 183:1 212:1 239:1 
-0.27740303254998366 3:1 27:1 64:1 94:1 116:1 131:1 162:1 183:1 209:1 235:1 
-0.86599674227327528 20:1 39:1 72:1 92:1 111:1 136:1 181:1 183:1 212:1 250:1 
-0.11241561917244394 25:1 27:1 56:1 94:1 108:1 149:1 175:1 183:1 227:1 252:1 
-0.32775965409197561 25:1 48:1 66:1 94:1 118:1 143:1 175:1 201:1 209:1 239:1 
-0.20571873945460462 22:1 40:1 68:1 92:1 117:1 149:1 175:1 183:1 213:1 257:1 
-0.066021375442859853 17:1 27:1 53:1 98:1 111:1 133:1 167:1 183:1 213:1 259:1 
-0.17311187904932823 1:1 39:1 69:1 97:1 129:1 152:1 161:1 183:1 221:1 251:1 
-0.45097725449868231 7:1 40:1 71:1 90:1 108:1 131:1 178:1 189:1 209:1 238:1 
-0.39713196867349404 7:1 45:1 59:1 98:1 105:1 142:1 157:1 183:1 227:1 250:1 
-0.51536871758725578 20:1 33:1 74:1 96:1 108:1 152:1 172:1 183:1 225:1 251:1 
-0.64122886733426732 6:1 35:1 68:1 92:1 112:1 149:1 167:1 193:1 209:1 254:1 
-0.83705826456158194 12:1 33:1 71:1 84:1 123:1 152:1 178:1 183:1 209:1 253:1 
-0.42823480486500964 7:1 45:1 58:1 97:1 126:1 152:1 157:1 183:1 227:1 250:1 
-0.065050248324067514 18:1 33:1 65:1 96:1 108:1 139:1 175:1 183:1 217:1 238:1 
-1 19:1 46:1 53:1 98:1 124:1 131:1 157:1 183:1 209:1 256:1 
-0.50289625182669551 20:1 27:1 72:1 98:1 105:1 131:1 157:1 183:1 230:1 238:1 
-0.59727790862430019 14:1 45:1 59:1 90:1 115:1 139:1 163:1 183:1 231:1 256:1 
-1 9:1 34:1 72:1 94:1 115:1 131:1 161:1 183:1 209:1 241:1 
-0.079213386341056194 1:1 33:1 77:1 92:1 129:1 137:1 161:1 183:1 220:1 251:1 
-1 20:1 40:1 57:1 97:1 115:1 149:1 170:1 183:1 214:1 250:1 
-0.43894412083441592 22:1 38:1 59:1 98:1 118:1 150:1 181:1 193:1 209:1 239:1 
-0.30996495012790004 12:1 33:1 72:1 92:1 124:1 155:1 167:1 183:1 213:1 235:1 
-0.021174218393189701 20:1 40:1 72:1 103:1 115:1 131:1 161:1 183:1 209:1 254:1 
-0.42175875128559459 16:1 33:1 60:1 94:1 105:1 148:1 163:1 183:1 226:1 254:1 
-0.19293497184097072 12:1 44:1 72:1 98:1 122:1 148:1 174:1 183:1 209:1 254:1 
-0.58554658908145507 1:1 27:1 72:1 90:1 126:1 152:1 163:1 183:1 228:1 256:1 
-1 13:1 40:1 68:1 100:1 105:1 137:1 157:1 183:1 212:1 253:1 
-0.27251652960561046 12:1 29:1 74:1 87:1 120:1 131:1 175:1 189:1 209:1 235:1 
-0.73500803268472714 3:1 48:1 61:1 94:1 105:1 149:1 163:1 183:1 209:1 235:1 
-0.086551753223268524 22:1 35:1 68:1 79:1 123:1 137:1 157:1 183:1 209:1 242:1 
-1 9:1 42:1 53:1 97:1 111:1 131:1 157:1 183:1 216:1 239:1 
-0.20393037921358906 5:1 30:1 53:1 85:1 118:1 148:1 165:1 183:1 209:1 250:1 
-0.31796202255809025 20:1 32:1 74:1 98:1 118:1 134:1 159:1 201:1 217:1 238:1 
-0.14850201821895967 22:1 33:1 53:1 85:1 105:1 131:1 168:1 183:1 220:1 253:1 
-0.10811098177447485 17:1 45:1 75:1 96:1 129:1 149:1 173:1 183:1 212:1 248:1 
-0.63620051918752563 19:1 43:1 53:1 82:1 118:1 137:1 159:1 183:1 225:1 254:1 
-0.11595923534405252 6:1 33:1 64:1 79:1 123:1 152:1 175:1 183:1 209:1 240:1 
-0.24858922254636467 25:1 33:1 53:1 79:1 123:1 152:1 169:1 204:1 209:1 253:1 
-0.27059102209931263 17:1 46:1 72:1 98:1 120:1 142:1 161:1 204:1 209:1 251:1 
-0.26035944404150746 20:1 42:1 64:1 83:1 126:1 131:1 173:1 202:1 227:1 251:1 
-0.087328319302196311 22:1 27:1 69:1 98:1 123:1 147:1 173:1 187:1 228:1 242:1 
-1 12:1 38:1 71:1 85:1 124:1 131:1 170:1 183:1 213:1 241:1 
-0.12672036943754036 12:1 51:1 63:1 98:1 124:1 131:1 176:1 183:1 212:1 253:1 
-0.90872679473868267 18:1 32:1 64:1 79:1 122:1 131:1 163:1 183:1 228:1 256:1 
-1 1:1 33:1 53:1 98:1 126:1 137:1 178:1 183:1 209:1 241:1 
-0.37498381494738842 1:1 27:1 64:1 97:1 118:1 146:1 170:1 183:1 222:1 251:1 
-0.20608408326518232 19:1 30:1 59:1 98:1 126:1 152:1 167:1 204:1 209:1 241:1 
-0.011898818142849495 1:1 33:1 61:1 81:1 117:1 131:1 165:1 204:1 227:1 243:1 
-0.44098786072316559 1:1 35:1 71:1 92:1 126:1 149:1 167:1 189:1 225:1 259:1 
-0.72520851149484344 19:1 40:1 74:1 97:1 115:1 137:1 173:1 207:1 209:1 245:1 
-0.32757645851310829 17:1 46:1 56:1 92:1 111:1 152:1 170:1 200:1 227:1 241:1 
-0.078649922477755055 4:1 40:1 59:1 100:1 118:1 148:1 175:1 189:1 227:1 239:1 
-0.13938586960230026 19:1 31:1 56:1 94:1 124:1 152:1 181:1 201:1 209:1 254:1 
-0.04681350557560985 8:1 33:1 77:1 97:1 115:1 152:1 164:1 204:1 224:1 259:1 
-0.56380376479053196 12:1 42:1 74:1 85:1 109:1 139:1 173:1 183:1 219:1 235:1 
-1 19:1 38:1 53:1 92:1 124:1 152:1 176:1 183:1 209:1 254:1 
-0.6134356493469153 20:1 27:1 53:1 98:1 105:1 141:1 173:1 183:1 209:1 254:1 
-1 7:1 35:1 53:1 100:1 124:1 131:1 162:1 200:1 209:1 250:1 
-0.24495382760737047 1:1 45:1 72:1 100:1 126:1 152:1 161:1 183:1 215:1 238:1 
-0.43052364175998303 6:1 42:1 69:1 92:1 116:1 152:1 162:1 183:1 215:1 239:1 
-0.31876373356649007 6:1 33:1 74:1 94:1 112:1 142:1 181:1 183:1 219:1 248:1 
-0.65027251212789472 22:1 42:1 60:1 90:1 129:1 131:1 167:1 196:1 219:1 245:1 
-0.23322647534362845 12:1 35:1 68:1 90:1 117:1 131:1 168:1 201:1 228:1 243:1 
-0.59322501033515562 13:1 27:1 64:1 97:1 124:1 139:1 168:1 204:1 227:1 253:1 
-1 7:1 46:1 71:1 79:1 121:1 131:1 161:1 183:1 227:1 254:1 
-1 9:1 32:1 61:1 98:1 110:1 152:1 162:1 183:1 220:1 242:1 
-0.033260478226945514 9:1 39:1 64:1 94:1 126:1 137:1 170:1 183:1 209:1 235:1 
-1 22:1 48:1 60:1 92:1 120:1 131:1 175:1 202:1 209:1 248:1 
-0.042163844596014924 14:1 42:1 53:1 97:1 124:1 131:1 170:1 200:1 224:1 256:1 
-0.55990011045004717 1:1 32:1 71:1 97:1 116:1 131:1 175:1 189:1 227:1 256:1 
-0.46701921699350635 6:1 45:1 53:1 92:1 121:1 142:1 176:1 183:1 209:1 253:1 
-0.35475392340192896 1:1 45:1 56:1 79:1 126:1 142:1 163:1 183:1 212:1 243:1 
-0.029913177655710024 12:1 32:1 71:1 98:1 105:1 131:1 167:1 202:1 213:1 254:1 
-0.077369062863101426 25:1 33:1 61:1 97:1 112:1 139:1 176:1 200:1 216:1 238:1 
-1 9:1 33:1 64:1 97:1 123:1 152:1 173:1 183:1 212:1 239:1 
-0.53106881223525648 19:1 45:1 74:1 95:1 105:1 134:1 161:1 183:1 222:1 253:1 
-0.056674067529145826 20:1 43:1 74:1 97:1 123:1 135:1 168:1 183:1 213:1 252:1 
-0.20679013222749282 22:1 45:1 71:1 83:1 116:1 131:1 161:1 200:1 227:1 251:1 
-0.49633812873531719 5:1 38:1 53:1 83:1 122:1 149:1 173:1 204:1 225:1 239:1 
-0.21429748001166174 17:1 48:1 69:1 83:1 118:1 150:1 176:1 183:1 227:1 253:1 
