svm_type c_svc
kernel_type precomputed
nr_class 2
total_sv 291
rho 21.509314456473945
label 1 -1
nr_sv 101 190
SV
0.125 0:14 
0.125 0:74 
0.125 0:123 
0.019715213781465121 0:173 
0.125 0:218 
0.125 0:275 
0.125 0:328 
0.125 0:378 
0.125 0:433 
0.125 0:485 
0.125 0:538 
0.125 0:587 
0.125 0:634 
0.125 0:688 
0.125 0:735 
0.12401047425264469 0:783 
0.125 0:830 
0.031986894723058892 0:881 
0.125 0:944 
0.125 0:1001 
0.125 0:1062 
0.125 0:1108 
0.125 0:1157 
0.125 0:1204 
0.125 0:1253 
0.125 0:1312 
0.125 0:1363 
0.125 0:1419 
0.125 0:1466 
0.125 0:1520 
0.10327502069501225 0:1569 
0.125 0:1620 
0.125 0:1681 
0.125 0:1731 
0.125 0:1793 
0.125 0:1853 
0.125 0:1968 
0.125 0:2030 
0.125 0:2094 
0.10810715050748462 0:2157 
0.038220055797571949 0:2200 
0.125 0:2244 
0.125 0:2392 
0.125 0:2505 
0.125 0:2564 
0.125 0:2622 
0.125 0:2673 
0.125 0:2725 
0.125 0:2772 
0.125 0:2817 
0.125 0:2864 
0.125 0:2914 
0.125 0:3022 
0.125 0:3076 
0.125 0:3124 
0.125 0:3187 
0.125 0:3334 
0.090453379463274239 0:3383 
0.125 0:3449 
0.125 0:3644 
0.125 0:3696 
0.125 0:3747 
0.125 0:3808 
0.125 0:3862 
0.125 0:3912 
0.125 0:3976 
0.125 0:4021 
0.024394235337831544 0:4070 
0.046883980293642775 0:4113 
0.125 0:4167 
0.125 0:4228 
0.11738910377544842 0:4274 
0.125 0:4326 
0.125 0:4376 
0.125 0:4429 
0.125 0:4531 
0.12157269447553605 0:4589 
0.125 0:4634 
0.125 0:4683 
0.125 0:4744 
0.125 0:4796 
0.125 0:4842 
0.125 0:4885 
0.015603851206105839 0:4946 
0.125 0:5000 
0.125 0:5054 
0.125 0:5137 
0.125 0:5187 
0.125 0:5240 
0.125 0:5287 
0.125 0:5333 
0.125 0:5382 
0.125 0:5429 
0.125 0:5477 
0.125 0:5528 
0.0012047982505220005 0:5572 
0.10342135891052477 0:5624 
0.125 0:5682 
0.125 0:5736 
0.125 0:5785 
0.125 0:5839 
-0.076012691397458323 0:29 
-0.0061483238667523988 0:41 
-0.069728419056089383 0:56 
-0.0042118731081164521 0:65 
-0.003215650770834418 0:137 
-0.125 0:138 
-0.125 0:170 
-0.023941559525469083 0:208 
-0.125 0:217 
-0.066902569687160823 0:230 
-0.035553944512223427 0:238 
-0.023029537703193367 0:272 
-0.00088875754703019198 0:340 
-0.037929528075603923 0:356 
-0.125 0:377 
-0.10351925892637548 0:436 
-0.10706094721368987 0:441 
-0.029029411982335235 0:450 
-0.018686317532403282 0:536 
-0.125 0:586 
-0.025476557547502037 0:608 
-0.070825725994101071 0:632 
-0.057198437467116531 0:686 
-0.0018945533446171096 0:740 
-0.125 0:741 
-0.013954680714134499 0:763 
-0.033390147367174328 0:784 
-0.031665950790208945 0:806 
-0.027017998181384759 0:934 
-0.033305396148041171 0:958 
-0.076418706828390554 0:988 
-0.011541193032132692 0:1000 
-0.026396084711478248 0:1016 
-0.0054014153671767696 0:1076 
-0.0192423187712027 0:1112 
-0.015163289174929442 0:1113 
-0.125 0:1115 
-0.020832362822610914 0:1121 
-0.125 0:1127 
-0.125 0:1128 
-0.1054443664845859 0:1214 
-0.026981749466333672 0:1227 
-0.125 0:1251 
-0.125 0:1252 
-0.061108099342298168 0:1270 
-0.064652431428851548 0:1293 
-0.125 0:1307 
-0.033043657653551439 0:1322 
-0.027652385652618346 0:1334 
-0.125 0:1366 
-0.125 0:1373 
-0.10490684976843667 0:1375 
-0.04662572501397301 0:1403 
-0.125 0:1416 
-0.125 0:1446 
-0.0076236428267236903 0:1459 
-0.125 0:1538 
-0.098892872037848828 0:1568 
-0.032992867339578229 0:1605 
-0.023530522943862198 0:1629 
-0.097048712570113063 0:1678 
-0.125 0:1680 
-0.0043208065041808637 0:1694 
-0.0047139355622622149 0:1705 
-0.125 0:1717 
-0.10251974062350522 0:1742 
-0.075458083191326422 0:1794 
-0.034722113441397001 0:1848 
-0.037431353551355177 0:1873 
-0.067341095339506551 0:1876 
-0.07053120067618894 0:1898 
-0.033485697039525752 0:1909 
-0.062498681226637452 0:1956 
-0.125 0:2018 
-0.087802436077071555 0:2024 
-0.096867069109643128 0:2025 
-0.052196147417929238 0:2129 
-0.125 0:2174 
-0.029680631839410044 0:2296 
-0.048940631929167984 0:2303 
-0.079954086410696137 0:2305 
-0.125 0:2387 
-0.079314121178624131 0:2414 
-0.028793761991942311 0:2437 
-0.078678999016031981 0:2561 
-0.034372625275917466 0:2576 
-0.034640039722570529 0:2607 
-0.014145386824093482 0:2626 
-0.125 0:2654 
-0.067844169897943507 0:2739 
-0.125 0:2774 
-0.060950878753795373 0:2861 
-0.077494394381218579 0:2915 
-0.00048683968358686596 0:2968 
-0.065988654819984199 0:2969 
-0.025672339556336413 0:2990 
-0.049390305985837227 0:3023 
-0.038660980580786007 0:3038 
-0.041655033345255769 0:3066 
-0.125 0:3080 
-0.125 0:3103 
-0.037302423499295023 0:3104 
-0.125 0:3122 
-0.015818767466723626 0:3144 
-0.076490829513741407 0:3188 
-0.125 0:3189 
-0.029571675393433049 0:3227 
-0.010295830537422227 0:3235 
-0.015454038722807486 0:3245 
-0.125 0:3246 
-0.027155190979381721 0:3252 
-0.027414368363584182 0:3332 
-0.032325098654953088 0:3347 
-0.1004729525997347 0:3348 
-0.020785608997740696 0:3380 
-0.073119897167219158 0:3429 
-0.011742070198915397 0:3493 
-0.024576439569319854 0:3497 
-0.032738963778243597 0:3600 
-0.049410656644648124 0:3657 
-0.053093440014120828 0:3672 
-0.072812750210947505 0:3697 
-0.025996531842659348 0:3759 
-0.045882855142242773 0:3835 
-0.125 0:3853 
-0.065665387117094381 0:3854 
-0.019441781359063132 0:3872 
-0.026142166968022747 0:3885 
-0.125 0:3917 
-0.029185945310946756 0:3918 
-0.023286858632017651 0:3967 
-0.067852496894062753 0:3977 
-0.125 0:4023 
-0.0080094178929368248 0:4031 
-0.125 0:4079 
-0.049919046259578402 0:4168 
-0.029543087882640408 0:4169 
-0.08435171772797237 0:4171 
-0.054422070785356311 0:4202 
-0.046698229479564486 0:4213 
-0.085170705295762317 0:4220 
-0.051181553843438796 0:4235 
-0.125 0:4275 
-0.04562131227054065 0:4317 
-0.12154265886494238 0:4318 
-0.10484331407947749 0:4320 
-0.0018812666541337556 0:4333 
-0.082907186971272653 0:4365 
-0.021016491030529032 0:4399 
-0.11585175004333403 0:4404 
-0.0059002121366350689 0:4540 
-0.050531206330194769 0:4575 
-0.027772257401322314 0:4602 
-0.066921183552026989 0:4605 
-0.125 0:4635 
-0.051543011770280159 0:4637 
-0.057887238631089327 0:4778 
-0.125 0:4783 
-0.076452305986785304 0:4855 
-0.070912692882452916 0:5055 
-0.043738836241910675 0:5056 
-0.076967520652199681 0:5075 
-0.026979088235744013 0:5092 
-0.001560202858960095 0:5106 
-0.070957352340696736 0:5107 
-0.017602873902527173 0:5109 
-0.0012769242456907122 0:5148 
-0.010941120791849711 0:5208 
-0.077614600055826724 0:5238 
-0.125 0:5257 
-0.125 0:5280 
-0.084820931941190683 0:5331 
-0.058480033013251664 0:5353 
-0.034068494759900016 0:5355 
-0.028388848197814964 0:5367 
-0.072070960188509461 0:5431 
-0.0034798077257702275 0:5471 
-0.125 0:5520 
-0.031373177321136821 0:5570 
-0.125 0:5582 
-0.004163209547656233 0:5585 
-0.068768359829294912 0:5695 
-0.0087563653470734831 0:5739 
-0.010746299306428743 0:5759 
-0.076013972947642533 0:5804 
-0.125 0:5841 
-0.125 0:5844 
-0.007313784581320198 0:5854 
-0.027144969418269906 0:5859 
-0.010455802019410211 0:5865 
