svm_type c_svc
kernel_type rbf
gamma 0.03125
nr_class 2
total_sv 434
rho 2.0916578831740047
label 1 -1
nr_sv 110 324
SV
8 20:1 48:1 53:1 98:1 116:1 131:1 165:1 183:1 227:1 250:1 
8 7:1 33:1 53:1 79:1 124:1 131:1 163:1 183:1 214:1 253:1 
8 9:1 40:1 68:1 82:1 113:1 139:1 162:1 183:1 209:1 254:1 
0.083828601376564851 7:1 42:1 53:1 94:1 105:1 131:1 164:1 183:1 209:1 238:1 
8 12:1 45:1 64:1 98:1 105:1 136:1 157:1 183:1 228:1 254:1 
8 14:1 46:1 77:1 92:1 108:1 131:1 172:1 183:1 217:1 248:1 
8 6:1 46:1 64:1 100:1 108:1 152:1 161:1 183:1 216:1 242:1 
8 12:1 35:1 68:1 95:1 105:1 149:1 175:1 183:1 209:1 256:1 
7.8793079674448627 19:1 42:1 71:1 92:1 124:1 131:1 175:1 183:1 209:1 256:1 
8 19:1 45:1 61:1 100:1 124:1 131:1 170:1 183:1 227:1 243:1 
8 25:1 40:1 68:1 92:1 105:1 131:1 161:1 183:1 227:1 253:1 
8 12:1 42:1 60:1 97:1 105:1 131:1 157:1 183:1 209:1 248:1 
8 19:1 46:1 59:1 100:1 108:1 131:1 161:1 202:1 230:1 242:1 
8 16:1 46:1 59:1 96:1 112:1 131:1 167:1 183:1 209:1 235:1 
8 12:1 32:1 60:1 90:1 126:1 142:1 157:1 189:1 224:1 235:1 
8 20:1 27:1 68:1 98:1 120:1 131:1 157:1 183:1 209:1 250:1 
8 7:1 38:1 72:1 79:1 120:1 139:1 173:1 183:1 209:1 253:1 
3.5878547551786895 13:1 42:1 65:1 83:1 110:1 131:1 167:1 183:1 213:1 254:1 
5.8862914454847592 12:1 27:1 72:1 82:1 108:1 152:1 173:1 183:1 209:1 239:1 
8 6:1 39:1 59:1 97:1 126:1 131:1 164:1 183:1 227:1 239:1 
8 7:1 38:1 71:1 84:1 116:1 137:1 163:1 204:1 228:1 251:1 
8 12:1 48:1 68:1 100:1 117:1 131:1 159:1 189:1 225:1 239:1 
8 19:1 46:1 61:1 97:1 123:1 152:1 173:1 183:1 213:1 252:1 
8 12:1 45:1 61:1 98:1 123:1 142:1 161:1 183:1 214:1 254:1 
8 16:1 42:1 72:1 94:1 123:1 131:1 157:1 183:1 224:1 253:1 
8 1:1 34:1 53:1 97:1 123:1 137:1 163:1 200:1 215:1 242:1 
8 1:1 38:1 64:1 94:1 105:1 137:1 163:1 183:1 209:1 259:1 
8 7:1 45:1 53:1 85:1 105:1 149:1 170:1 183:1 209:1 241:1 
8 7:1 27:1 53:1 90:1 120:1 152:1 179:1 183:1 227:1 250:1 
8 12:1 42:1 53:1 97:1 105:1 152:1 181:1 183:1 212:1 250:1 
7.8364679421388859 19:1 38:1 68:1 98:1 126:1 131:1 161:1 183:1 212:1 256:1 
8 20:1 43:1 63:1 100:1 124:1 152:1 161:1 183:1 209:1 241:1 
8 17:1 42:1 53:1 98:1 105:1 135:1 157:1 183:1 212:1 253:1 
8 23:1 32:1 53:1 94:1 122:1 131:1 160:1 183:1 209:1 235:1 
7.7271778161336 6:1 33:1 68:1 97:1 115:1 131:1 157:1 183:1 209:1 253:1 
8 20:1 43:1 53:1 97:1 124:1 131:1 178:1 193:1 209:1 241:1 
7.5447552649268204 7:1 38:1 53:1 97:1 120:1 131:1 173:1 183:1 209:1 254:1 
6.7197541799500327 19:1 39:1 71:1 98:1 123:1 131:1 175:1 183:1 209:1 250:1 
8 1:1 27:1 53:1 79:1 115:1 149:1 157:1 183:1 212:1 248:1 
8 17:1 35:1 72:1 94:1 129:1 134:1 161:1 200:1 225:1 250:1 
4.3240361949541128 19:1 38:1 53:1 94:1 117:1 131:1 175:1 183:1 225:1 253:1 
1.5059793935861125 20:1 48:1 53:1 94:1 117:1 131:1 162:1 183:1 209:1 239:1 
8 19:1 48:1 53:1 79:1 123:1 131:1 162:1 183:1 209:1 250:1 
0.57331051435437219 16:1 32:1 69:1 95:1 124:1 152:1 167:1 183:1 213:1 253:1 
8 1:1 43:1 53:1 85:1 124:1 131:1 157:1 183:1 209:1 238:1 
0.84819139899012153 12:1 42:1 72:1 97:1 115:1 152:1 173:1 183:1 209:1 241:1 
8 5:1 48:1 71:1 92:1 124:1 149:1 168:1 183:1 209:1 238:1 
5.9963400514995762 7:1 42:1 53:1 85:1 123:1 131:1 163:1 183:1 209:1 250:1 
5.9212474638623496 13:1 43:1 63:1 92:1 112:1 131:1 167:1 183:1 213:1 256:1 
8 16:1 32:1 57:1 97:1 124:1 142:1 173:1 183:1 219:1 239:1 
8 22:1 45:1 68:1 98:1 118:1 152:1 165:1 183:1 219:1 239:1 
8 9:1 45:1 72:1 94:1 118:1 152:1 168:1 183:1 213:1 253:1 
6.3855219184526373 9:1 45:1 68:1 90:1 118:1 152:1 167:1 183:1 222:1 239:1 
8 16:1 38:1 74:1 92:1 111:1 149:1 161:1 193:1 227:1 239:1 
8 12:1 48:1 53:1 94:1 124:1 137:1 157:1 183:1 209:1 250:1 
2.9815872135090391 7:1 38:1 53:1 94:1 117:1 131:1 173:1 183:1 213:1 248:1 
8 13:1 33:1 69:1 82:1 115:1 135:1 157:1 183:1 209:1 253:1 
8 20:1 38:1 72:1 97:1 116:1 149:1 163:1 201:1 220:1 256:1 
8 1:1 48:1 72:1 79:1 124:1 131:1 175:1 183:1 225:1 254:1 
8 19:1 45:1 72:1 79:1 126:1 135:1 170:1 201:1 209:1 235:1 
4.1250097332991444 1:1 27:1 53:1 94:1 120:1 131:1 164:1 183:1 209:1 238:1 
1.3723076369389162 12:1 42:1 74:1 95:1 121:1 131:1 163:1 183:1 213:1 239:1 
7.2765460183742725 1:1 32:1 68:1 97:1 121:1 131:1 157:1 183:1 222:1 238:1 
6.1505781722199204 13:1 38:1 53:1 97:1 120:1 131:1 175:1 183:1 209:1 241:1 
8 12:1 27:1 72:1 85:1 124:1 131:1 164:1 183:1 213:1 250:1 
2.3448103409665704 12:1 42:1 65:1 95:1 118:1 131:1 170:1 183:1 233:1 238:1 
2.5935484723058391 13:1 42:1 53:1 92:1 124:1 152:1 175:1 183:1 209:1 241:1 
0.21656434689841694 12:1 27:1 59:1 94:1 120:1 131:1 173:1 183:1 209:1 254:1 
8 22:1 31:1 68:1 92:1 105:1 131:1 168:1 183:1 209:1 235:1 
8 1:1 33:1 71:1 85:1 124:1 131:1 168:1 183:1 209:1 253:1 
8 9:1 27:1 59:1 85:1 118:1 131:1 181:1 189:1 227:1 254:1 
8 12:1 35:1 57:1 98:1 115:1 152:1 175:1 183:1 209:1 245:1 
8 19:1 42:1 74:1 89:1 111:1 136:1 173:1 204:1 227:1 241:1 
8 1:1 43:1 66:1 98:1 111:1 149:1 176:1 183:1 228:1 254:1 
8 22:1 33:1 72:1 95:1 120:1 149:1 161:1 201:1 209:1 243:1 
8 12:1 32:1 61:1 86:1 124:1 146:1 167:1 183:1 213:1 235:1 
2.5616971428514339 12:1 32:1 74:1 94:1 117:1 131:1 175:1 183:1 222:1 254:1 
4.0024976942085893 13:1 38:1 74:1 94:1 122:1 131:1 179:1 183:1 225:1 254:1 
8 20:1 48:1 64:1 85:1 124:1 144:1 176:1 207:1 219:1 235:1 
8 20:1 48:1 74:1 90:1 120:1 131:1 173:1 183:1 209:1 254:1 
4.3727055526577354 12:1 39:1 66:1 94:1 126:1 131:1 163:1 183:1 209:1 238:1 
8 1:1 27:1 60:1 83:1 105:1 152:1 157:1 187:1 212:1 235:1 
8 12:1 27:1 53:1 85:1 120:1 131:1 175:1 183:1 212:1 254:1 
8 12:1 48:1 59:1 97:1 124:1 152:1 162:1 183:1 230:1 238:1 
8 22:1 32:1 61:1 94:1 116:1 152:1 173:1 189:1 209:1 241:1 
7.8736016032853602 9:1 33:1 59:1 85:1 126:1 131:1 161:1 183:1 222:1 238:1 
8 12:1 38:1 64:1 97:1 111:1 150:1 157:1 196:1 209:1 239:1 
7.63224727757789 16:1 38:1 64:1 83:1 118:1 131:1 167:1 183:1 209:1 248:1 
8 22:1 27:1 59:1 95:1 124:1 152:1 174:1 183:1 212:1 242:1 
8 19:1 38:1 68:1 79:1 108:1 148:1 160:1 189:1 209:1 250:1 
8 22:1 38:1 68:1 98:1 113:1 149:1 169:1 201:1 227:1 239:1 
8 3:1 29:1 71:1 85:1 126:1 131:1 176:1 183:1 209:1 250:1 
5.8542507557303045 1:1 40:1 72:1 98:1 108:1 152:1 167:1 183:1 213:1 253:1 
8 22:1 27:1 74:1 94:1 123:1 131:1 181:1 183:1 209:1 235:1 
8 7:1 32:1 69:1 98:1 120:1 131:1 178:1 183:1 209:1 235:1 
8 19:1 38:1 71:1 97:1 123:1 131:1 170:1 183:1 227:1 251:1 
8 6:1 40:1 66:1 92:1 109:1 131:1 175:1 183:1 209:1 235:1 
7.7392034727325569 22:1 33:1 57:1 87:1 121:1 131:1 167:1 183:1 209:1 243:1 
8 18:1 27:1 68:1 98:1 113:1 148:1 175:1 183:1 227:1 254:1 
8 17:1 40:1 64:1 100:1 110:1 131:1 163:1 187:1 212:1 245:1 
8 7:1 40:1 64:1 83:1 126:1 139:1 173:1 183:1 213:1 256:1 
7.4574503242123935 25:1 45:1 59:1 98:1 123:1 131:1 173:1 183:1 213:1 235:1 
8 7:1 27:1 71:1 98:1 115:1 152:1 181:1 183:1 231:1 238:1 
8 12:1 34:1 56:1 89:1 122:1 152:1 178:1 183:1 209:1 253:1 
6.1042778237043889 12:1 42:1 74:1 85:1 118:1 131:1 157:1 183:1 209:1 250:1 
7.2516991367292158 7:1 45:1 74:1 94:1 109:1 131:1 175:1 183:1 225:1 239:1 
8 12:1 27:1 74:1 94:1 124:1 131:1 170:1 183:1 213:1 254:1 
8 1:1 33:1 65:1 90:1 110:1 149:1 176:1 183:1 209:1 245:1 
8 7:1 33:1 53:1 98:1 121:1 131:1 162:1 183:1 219:1 239:1 
8 20:1 33:1 61:1 85:1 116:1 149:1 175:1 204:1 225:1 235:1 
-0.55853821626541544 1:1 35:1 71:1 98:1 126:1 131:1 176:1 194:1 209:1 243:1 
-6.2679564270522636 22:1 51:1 57:1 94:1 124:1 131:1 175:1 183:1 219:1 250:1 
-1.2788643196266398 11:1 34:1 77:1 83:1 110:1 141:1 173:1 183:1 209:1 253:1 
-3.1251753520649581 12:1 39:1 61:1 85:1 124:1 131:1 157:1 183:1 230:1 256:1 
-1.0334345400944587 22:1 38:1 68:1 85:1 116:1 152:1 163:1 194:1 209:1 241:1 
-1.1469800853120427 7:1 38:1 74:1 85:1 116:1 131:1 163:1 189:1 209:1 235:1 
-1.6660915237691363 12:1 48:1 59:1 90:1 105:1 137:1 163:1 183:1 209:1 254:1 
-0.34701987587957622 16:1 33:1 64:1 94:1 126:1 135:1 181:1 194:1 225:1 256:1 
-1.3849885133330042 12:1 42:1 74:1 83:1 129:1 142:1 173:1 204:1 224:1 253:1 
-0.50241628312960318 17:1 48:1 68:1 97:1 120:1 149:1 169:1 189:1 226:1 238:1 
-0.50333662362983445 22:1 42:1 71:1 94:1 123:1 143:1 163:1 200:1 212:1 243:1 
-0.89605967074662873 19:1 45:1 64:1 92:1 124:1 134:1 161:1 205:1 213:1 239:1 
-4.3794090892602293 19:1 38:1 66:1 98:1 108:1 135:1 179:1 187:1 213:1 239:1 
-3.6277821808621371 1:1 33:1 53:1 85:1 116:1 131:1 163:1 198:1 209:1 250:1 
-8 7:1 38:1 53:1 85:1 120:1 131:1 172:1 183:1 209:1 242:1 
-0.16040802291940595 23:1 31:1 69:1 103:1 120:1 152:1 172:1 183:1 209:1 250:1 
-1.7331407514088883 19:1 35:1 72:1 97:1 116:1 131:1 168:1 204:1 209:1 241:1 
-8 7:1 38:1 71:1 90:1 124:1 131:1 162:1 183:1 209:1 254:1 
-4.7104615177518232 22:1 42:1 53:1 94:1 120:1 131:1 167:1 199:1 213:1 253:1 
-3.1466286799426202 17:1 31:1 71:1 89:1 120:1 131:1 178:1 183:1 209:1 248:1 
-0.069820307167987219 5:1 45:1 63:1 94:1 105:1 152:1 157:1 183:1 222:1 250:1 
-0.58635029259544214 13:1 38:1 74:1 94:1 126:1 149:1 174:1 207:1 227:1 256:1 
-1.3397062111788287 20:1 32:1 60:1 92:1 124:1 155:1 170:1 186:1 209:1 250:1 
-0.84467041702606693 20:1 40:1 59:1 98:1 117:1 143:1 173:1 207:1 214:1 239:1 
-0.56523910766989305 25:1 38:1 68:1 92:1 108:1 137:1 170:1 190:1 231:1 248:1 
-0.69304353205658109 7:1 40:1 60:1 101:1 118:1 148:1 168:1 196:1 227:1 238:1 
-1.1940152697836708 22:1 45:1 64:1 90:1 113:1 146:1 173:1 183:1 227:1 253:1 
-4.6014070584557132 12:1 38:1 61:1 94:1 121:1 131:1 175:1 201:1 209:1 235:1 
-0.29875555778004714 19:1 40:1 72:1 79:1 123:1 131:1 157:1 204:1 209:1 238:1 
-4.7805698645589096 14:1 46:1 53:1 97:1 105:1 131:1 178:1 183:1 212:1 238:1 
-6.0179900402279767 1:1 48:1 53:1 82:1 108:1 136:1 173:1 183:1 227:1 256:1 
-2.2886132624613773 22:1 39:1 59:1 94:1 116:1 131:1 167:1 191:1 222:1 238:1 
-0.94154778336714051 12:1 46:1 53:1 97:1 116:1 139:1 162:1 183:1 227:1 253:1 
-0.45572536015308174 5:1 37:1 74:1 98:1 108:1 136:1 170:1 183:1 214:1 245:1 
-5.0911675552390792 19:1 38:1 68:1 103:1 118:1 146:1 170:1 183:1 209:1 239:1 
-1.7602501213420325 12:1 42:1 77:1 92:1 120:1 144:1 157:1 183:1 213:1 235:1 
-0.10994027285432247 16:1 51:1 66:1 94:1 118:1 131:1 157:1 187:1 209:1 253:1 
-1.2822027679753965 9:1 32:1 64:1 90:1 120:1 138:1 175:1 183:1 209:1 235:1 
-7.2995605339823406 12:1 38:1 68:1 86:1 123:1 131:1 157:1 183:1 209:1 235:1 
-0.846044993074475 25:1 39:1 68:1 92:1 108:1 137:1 173:1 190:1 231:1 245:1 
-0.61751698838444158 12:1 27:1 64:1 98:1 116:1 146:1 168:1 183:1 209:1 253:1 
-3.9854535799943069 19:1 38:1 71:1 98:1 111:1 152:1 160:1 183:1 213:1 254:1 
-2.4068025855290047 6:1 29:1 68:1 98:1 111:1 148:1 164:1 183:1 219:1 235:1 
-0.27473884028846707 12:1 27:1 59:1 94:1 105:1 131:1 157:1 201:1 209:1 239:1 
-8 1:1 33:1 68:1 79:1 105:1 131:1 175:1 183:1 213:1 254:1 
-0.096740917927394116 1:1 45:1 53:1 83:1 124:1 131:1 170:1 193:1 227:1 248:1 
-2.1134464365645624 11:1 45:1 59:1 98:1 113:1 142:1 164:1 183:1 231:1 248:1 
-3.6430174967064004 1:1 42:1 72:1 94:1 105:1 131:1 157:1 183:1 224:1 250:1 
-4.6042791937722063 11:1 32:1 53:1 97:1 126:1 131:1 174:1 183:1 211:1 254:1 
-0.42952421060837737 12:1 46:1 53:1 94:1 113:1 147:1 157:1 183:1 227:1 238:1 
-0.80877591940310811 7:1 45:1 65:1 94:1 117:1 135:1 162:1 183:1 219:1 235:1 
-1.1895042801406404 14:1 32:1 69:1 97:1 115:1 142:1 163:1 186:1 227:1 238:1 
-1.4058539245804471 12:1 32:1 61:1 85:1 126:1 142:1 163:1 204:1 230:1 241:1 
-0.092388359482893534 22:1 38:1 59:1 100:1 126:1 137:1 168:1 183:1 228:1 238:1 
-2.1047855153381478 16:1 33:1 72:1 98:1 124:1 152:1 173:1 198:1 212:1 248:1 
-3.5887707904289328 6:1 45:1 74:1 85:1 126:1 131:1 175:1 204:1 209:1 256:1 
-1.541614384138287 7:1 48:1 53:1 97:1 126:1 131:1 178:1 183:1 227:1 246:1 
-0.59086845371939567 12:1 32:1 65:1 85:1 123:1 152:1 157:1 190:1 209:1 253:1 
-0.63733525187835494 19:1 48:1 63:1 98:1 124:1 135:1 178:1 183:1 209:1 245:1 
-0.36152126122237915 22:1 37:1 72:1 98:1 109:1 152:1 157:1 183:1 219:1 250:1 
-0.86005442183455527 16:1 51:1 68:1 97:1 117:1 131:1 173:1 202:1 212:1 251:1 
-0.020304762448105636 7:1 40:1 64:1 92:1 113:1 136:1 161:1 187:1 227:1 243:1 
-1.8909521973048558 9:1 32:1 57:1 83:1 123:1 139:1 178:1 183:1 209:1 253:1 
-0.70121315261659445 1:1 45:1 72:1 87:1 120:1 137:1 175:1 183:1 209:1 254:1 
-0.86673136999241929 12:1 45:1 64:1 100:1 120:1 152:1 169:1 183:1 211:1 241:1 
-1.4752257996624394 13:1 27:1 55:1 85:1 121:1 135:1 175:1 201:1 209:1 238:1 
-1.2090892224811642 1:1 29:1 59:1 95:1 109:1 149:1 175:1 183:1 212:1 235:1 
-8 7:1 43:1 57:1 97:1 123:1 131:1 160:1 183:1 209:1 239:1 
-3.6437685502488733 4:1 27:1 53:1 83:1 120:1 131:1 163:1 201:1 209:1 250:1 
-7.0868616543382412 7:1 45:1 53:1 94:1 123:1 149:1 175:1 183:1 209:1 235:1 
-6.7189960523519856 19:1 27:1 68:1 97:1 123:1 149:1 157:1 183:1 209:1 242:1 
-2.7491591243747222 1:1 42:1 71:1 97:1 123:1 131:1 157:1 183:1 216:1 245:1 
-0.046067788852545567 1:1 27:1 60:1 89:1 120:1 137:1 161:1 204:1 213:1 250:1 
-4.8978061999645366 7:1 31:1 71:1 90:1 121:1 152:1 161:1 183:1 219:1 239:1 
-0.34577086246867184 17:1 48:1 63:1 86:1 115:1 144:1 173:1 183:1 228:1 242:1 
-1.3355207989970639 18:1 48:1 60:1 79:1 127:1 131:1 174:1 183:1 226:1 250:1 
-3.233748182791488 16:1 27:1 68:1 94:1 124:1 146:1 175:1 183:1 209:1 235:1 
-8 1:1 42:1 68:1 98:1 120:1 149:1 157:1 183:1 209:1 250:1 
-3.8947651958492107 20:1 42:1 68:1 82:1 120:1 131:1 178:1 187:1 225:1 239:1 
-2.468187952646665 12:1 38:1 72:1 79:1 124:1 131:1 163:1 183:1 209:1 246:1 
-2.9396214672193097 1:1 46:1 53:1 85:1 105:1 131:1 168:1 183:1 209:1 235:1 
-8 12:1 48:1 68:1 85:1 124:1 131:1 164:1 183:1 227:1 253:1 
-1.6484005773339299 7:1 45:1 59:1 97:1 126:1 149:1 160:1 183:1 213:1 252:1 
-0.69790533668024224 1:1 33:1 64:1 83:1 122:1 131:1 175:1 189:1 209:1 252:1 
-1.3675938633280751 12:1 42:1 53:1 85:1 111:1 131:1 157:1 207:1 209:1 253:1 
-8 16:1 27:1 59:1 85:1 105:1 131:1 181:1 183:1 227:1 254:1 
-6.4131123236461489 1:1 45:1 72:1 97:1 124:1 131:1 167:1 183:1 224:1 235:1 
-3.7021947790654481 20:1 45:1 72:1 79:1 115:1 131:1 172:1 183:1 209:1 239:1 
-0.45682756947876058 18:1 27:1 64:1 83:1 115:1 147:1 181:1 183:1 209:1 252:1 
-3.3970043236417076 12:1 33:1 70:1 79:1 126:1 152:1 169:1 183:1 209:1 235:1 
-0.17364155701853742 22:1 33:1 59:1 90:1 126:1 142:1 163:1 201:1 209:1 241:1 
-6.4426026648072598 12:1 48:1 64:1 85:1 123:1 131:1 163:1 183:1 227:1 248:1 
-0.60120867628192876 7:1 48:1 65:1 98:1 111:1 131:1 167:1 188:1 228:1 251:1 
-5.4263323414053586 17:1 48:1 64:1 82:1 113:1 131:1 163:1 183:1 213:1 248:1 
-0.58973126036944723 13:1 45:1 74:1 85:1 113:1 131:1 168:1 189:1 209:1 235:1 
-2.6563993315439967 12:1 42:1 58:1 90:1 120:1 131:1 175:1 183:1 230:1 259:1 
-2.5783960779674029 19:1 32:1 71:1 98:1 108:1 152:1 165:1 207:1 225:1 256:1 
-5.5209207672523108 12:1 45:1 64:1 94:1 124:1 152:1 157:1 187:1 209:1 238:1 
-2.279718657159707 12:1 45:1 65:1 97:1 110:1 152:1 162:1 201:1 209:1 243:1 
-1.5879284286320319 7:1 40:1 64:1 92:1 115:1 152:1 170:1 188:1 228:1 253:1 
-0.7729552093281713 14:1 32:1 72:1 97:1 108:1 152:1 178:1 207:1 225:1 243:1 
-4.6994566025809341 6:1 27:1 64:1 95:1 120:1 131:1 176:1 183:1 213:1 235:1 
-8 12:1 43:1 68:1 79:1 124:1 131:1 161:1 183:1 209:1 238:1 
-2.6050003917049827 22:1 33:1 77:1 103:1 120:1 149:1 179:1 183:1 209:1 259:1 
-0.40304344983372858 18:1 40:1 77:1 92:1 126:1 131:1 160:1 191:1 212:1 250:1 
-7.874680860797767 16:1 48:1 61:1 98:1 110:1 131:1 168:1 183:1 214:1 243:1 
-0.63720318862899361 1:1 42:1 70:1 79:1 108:1 131:1 157:1 183:1 225:1 257:1 
-3.8134797686171029 23:1 43:1 53:1 85:1 124:1 131:1 181:1 193:1 225:1 241:1 
-3.4622667457561818 7:1 42:1 71:1 89:1 105:1 131:1 157:1 183:1 227:1 250:1 
-0.1492151539840656 1:1 33:1 74:1 85:1 129:1 131:1 175:1 202:1 225:1 235:1 
-0.19870569489030523 25:1 27:1 71:1 98:1 121:1 131:1 175:1 202:1 209:1 256:1 
-0.82381038871683709 4:1 42:1 60:1 89:1 115:1 135:1 165:1 183:1 221:1 239:1 
-3.4564919939993244 5:1 38:1 74:1 97:1 123:1 131:1 161:1 196:1 227:1 253:1 
-2.3239564447707708 12:1 27:1 59:1 90:1 126:1 137:1 168:1 183:1 227:1 250:1 
-3.5081194838886667 17:1 27:1 53:1 98:1 123:1 131:1 176:1 183:1 228:1 240:1 
-1.5950455488347077 7:1 27:1 59:1 90:1 124:1 131:1 163:1 183:1 217:1 235:1 
-0.26918050094054918 1:1 38:1 71:1 97:1 117:1 149:1 176:1 201:1 209:1 253:1 
-2.7360609977725274 19:1 33:1 77:1 85:1 111:1 131:1 178:1 183:1 209:1 246:1 
-0.43314992846080125 12:1 33:1 65:1 79:1 105:1 136:1 163:1 183:1 209:1 235:1 
-5.4508541387675935 12:1 27:1 59:1 85:1 124:1 150:1 165:1 183:1 209:1 250:1 
-4.7921660672686253 9:1 27:1 53:1 94:1 122:1 131:1 157:1 183:1 209:1 235:1 
-2.9857842662235599 1:1 27:1 68:1 96:1 105:1 131:1 157:1 183:1 209:1 245:1 
-0.66767330228257504 22:1 48:1 61:1 85:1 124:1 137:1 181:1 189:1 209:1 235:1 
-2.0707277941330373 22:1 35:1 59:1 98:1 111:1 155:1 163:1 183:1 209:1 256:1 
-2.7021320809666549 6:1 44:1 71:1 87:1 115:1 131:1 167:1 183:1 225:1 235:1 
-3.6713858391637242 19:1 35:1 63:1 79:1 115:1 131:1 173:1 183:1 219:1 252:1 
-1.2871931182516405 19:1 38:1 75:1 87:1 105:1 131:1 163:1 183:1 230:1 250:1 
-6.3313638362853455 7:1 27:1 74:1 94:1 124:1 131:1 165:1 183:1 220:1 254:1 
-0.63348975726354506 1:1 42:1 65:1 79:1 123:1 131:1 173:1 201:1 227:1 248:1 
-2.903231453765176 22:1 48:1 59:1 97:1 113:1 131:1 173:1 189:1 230:1 254:1 
-0.073766044111598608 19:1 46:1 72:1 90:1 126:1 131:1 175:1 204:1 209:1 235:1 
-1.5586924874984136 12:1 48:1 53:1 97:1 126:1 131:1 157:1 201:1 209:1 240:1 
-1.3427614870426774 12:1 32:1 57:1 91:1 124:1 146:1 173:1 183:1 219:1 235:1 
-0.1767817591048011 17:1 43:1 72:1 100:1 115:1 131:1 161:1 201:1 209:1 250:1 
-1.6388785613969044 19:1 27:1 68:1 90:1 108:1 139:1 174:1 183:1 212:1 235:1 
-4.8940224605201168 16:1 38:1 56:1 87:1 122:1 131:1 160:1 183:1 209:1 243:1 
-1.4475770775324261 8:1 27:1 53:1 87:1 108:1 152:1 175:1 183:1 219:1 253:1 
-0.36906196106645345 1:1 35:1 56:1 100:1 123:1 131:1 167:1 201:1 209:1 243:1 
-0.80766608905035864 22:1 33:1 70:1 85:1 124:1 131:1 168:1 189:1 209:1 256:1 
-6.9121647622519191 12:1 38:1 53:1 100:1 120:1 131:1 173:1 183:1 215:1 254:1 
-1.652595346334075 22:1 42:1 53:1 95:1 105:1 137:1 176:1 183:1 209:1 235:1 
-3.2400526876264957 12:1 34:1 72:1 79:1 116:1 149:1 173:1 189:1 209:1 250:1 
-0.34899821077888099 12:1 32:1 64:1 100:1 126:1 152:1 169:1 194:1 209:1 253:1 
-1.0293085663807386 7:1 48:1 64:1 94:1 124:1 149:1 167:1 204:1 225:1 235:1 
-0.23412207280720432 20:1 48:1 72:1 97:1 117:1 135:1 181:1 188:1 227:1 250:1 
-0.3524551858018023 19:1 37:1 71:1 85:1 126:1 137:1 167:1 183:1 227:1 259:1 
-1.9221015974946445 22:1 45:1 66:1 98:1 123:1 142:1 157:1 183:1 212:1 256:1 
-0.80218744034459588 1:1 38:1 53:1 85:1 120:1 131:1 163:1 201:1 209:1 241:1 
-2.7013507715151102 7:1 45:1 53:1 85:1 105:1 131:1 172:1 183:1 212:1 250:1 
-2.7764730696429751 16:1 48:1 68:1 98:1 126:1 136:1 162:1 189:1 212:1 253:1 
-0.066824075802405264 6:1 33:1 61:1 79:1 120:1 152:1 176:1 196:1 225:1 238:1 
-3.7335919047815751 12:1 32:1 72:1 100:1 111:1 131:1 175:1 183:1 214:1 256:1 
-1.6792279387338616 8:1 27:1 63:1 79:1 109:1 152:1 175:1 183:1 213:1 239:1 
-7.5834987172032564 13:1 32:1 63:1 89:1 113:1 139:1 168:1 183:1 209:1 253:1 
-0.54114355680057824 20:1 38:1 69:1 79:1 115:1 135:1 181:1 201:1 209:1 239:1 
-0.41201305750364592 22:1 45:1 66:1 83:1 117:1 149:1 167:1 193:1 209:1 253:1 
-5.2036718771970261 20:1 42:1 66:1 100:1 116:1 131:1 161:1 201:1 225:1 250:1 
-0.75903863000459615 5:1 40:1 61:1 82:1 123:1 152:1 167:1 187:1 219:1 239:1 
-2.4885666964470858 20:1 46:1 71:1 94:1 116:1 152:1 170:1 189:1 227:1 239:1 
-3.2174797151542247 22:1 27:1 68:1 98:1 111:1 131:1 157:1 183:1 224:1 235:1 
-1.2297913781405838 20:1 38:1 59:1 96:1 122:1 131:1 157:1 183:1 209:1 235:1 
-2.0455469908323303 12:1 33:1 70:1 96:1 105:1 131:1 157:1 183:1 209:1 241:1 
-1.7339075213904305 1:1 42:1 65:1 79:1 121:1 131:1 161:1 196:1 209:1 248:1 
-2.6006360999782201 16:1 39:1 53:1 95:1 105:1 135:1 170:1 183:1 222:1 242:1 
-0.52982153477021776 20:1 35:1 60:1 89:1 112:1 142:1 170:1 189:1 212:1 241:1 
-0.38763686495307548 20:1 39:1 61:1 100:1 126:1 137:1 169:1 189:1 225:1 238:1 
-0.53893068707396086 22:1 33:1 65:1 85:1 121:1 134:1 167:1 187:1 209:1 235:1 
-2.56921476419312 7:1 39:1 59:1 95:1 108:1 141:1 161:1 183:1 209:1 235:1 
-1.6997007922546037 7:1 43:1 56:1 89:1 109:1 131:1 157:1 183:1 227:1 239:1 
-0.4009859053937615 22:1 31:1 57:1 92:1 111:1 144:1 175:1 183:1 228:1 238:1 
-0.1359380807030442 14:1 45:1 53:1 98:1 108:1 144:1 167:1 202:1 227:1 239:1 
-0.30086406725306586 20:1 45:1 57:1 98:1 121:1 150:1 176:1 183:1 228:1 248:1 
-4.0965697227319282 22:1 46:1 74:1 97:1 113:1 131:1 175:1 183:1 230:1 256:1 
-8 12:1 45:1 59:1 97:1 116:1 152:1 167:1 183:1 212:1 253:1 
-2.0133287026374478 17:1 27:1 74:1 98:1 109:1 149:1 173:1 183:1 227:1 246:1 
-8 19:1 38:1 74:1 98:1 124:1 149:1 161:1 183:1 209:1 245:1 
-3.7478434046162286 12:1 48:1 72:1 98:1 123:1 135:1 157:1 183:1 219:1 239:1 
-4.3838773832693709 12:1 32:1 53:1 100:1 124:1 131:1 176:1 183:1 227:1 235:1 
-1.4704420967210263 25:1 40:1 71:1 85:1 110:1 153:1 173:1 193:1 209:1 238:1 
-1.5192656956056974 7:1 32:1 75:1 95:1 115:1 131:1 160:1 189:1 233:1 253:1 
-2.683219346111779 19:1 46:1 53:1 100:1 109:1 144:1 175:1 183:1 209:1 238:1 
-6.2599691688713683 20:1 27:1 74:1 83:1 118:1 149:1 157:1 183:1 212:1 239:1 
-0.05349482134370688 22:1 42:1 74:1 97:1 121:1 150:1 164:1 202:1 222:1 238:1 
-0.54313011449221671 4:1 46:1 65:1 98:1 126:1 150:1 175:1 183:1 219:1 238:1 
-3.7019120683250053 3:1 27:1 64:1 94:1 116:1 131:1 162:1 183:1 209:1 235:1 
-1.3181212121538735 1:1 38:1 68:1 90:1 105:1 136:1 157:1 183:1 209:1 250:1 
-1.9525736055390515 12:1 42:1 64:1 79:1 110:1 131:1 157:1 183:1 224:1 250:1 
-2.9914265841618222 20:1 39:1 72:1 92:1 111:1 136:1 181:1 183:1 212:1 250:1 
-2.3833230301657884 25:1 27:1 56:1 94:1 108:1 149:1 175:1 183:1 227:1 252:1 
-0.46512026095382986 19:1 45:1 53:1 97:1 122:1 153:1 157:1 183:1 209:1 248:1 
-1.7551903711966519 19:1 27:1 71:1 96:1 127:1 131:1 157:1 183:1 222:1 250:1 
-1.5937573584113174 12:1 46:1 53:1 90:1 120:1 152:1 173:1 199:1 209:1 241:1 
-3.3012762202354744 1:1 38:1 53:1 84:1 120:1 149:1 173:1 183:1 209:1 235:1 
-1.2499834253189042 25:1 48:1 66:1 94:1 118:1 143:1 175:1 201:1 209:1 239:1 
-8 22:1 40:1 68:1 92:1 117:1 149:1 175:1 183:1 213:1 257:1 
-1.4056067705786639 13:1 33:1 59:1 91:1 116:1 131:1 175:1 198:1 209:1 253:1 
-0.33376764836575923 12:1 48:1 66:1 96:1 108:1 137:1 167:1 183:1 230:1 251:1 
-2.3226290136752712 18:1 32:1 64:1 98:1 123:1 142:1 163:1 183:1 228:1 235:1 
-0.60316128094210442 16:1 27:1 58:1 92:1 129:1 131:1 161:1 183:1 220:1 251:1 
-0.94535166100883017 1:1 38:1 64:1 94:1 117:1 147:1 170:1 183:1 222:1 235:1 
-2.5037308205315614 13:1 43:1 66:1 79:1 118:1 131:1 181:1 186:1 209:1 253:1 
-1.2789045681302815 19:1 38:1 61:1 94:1 118:1 142:1 173:1 191:1 224:1 251:1 
-0.75989819723233254 7:1 42:1 72:1 97:1 113:1 131:1 160:1 196:1 225:1 253:1 
-1.6055857547143761 20:1 45:1 61:1 79:1 108:1 144:1 173:1 201:1 213:1 256:1 
-1.8537719452777448 9:1 48:1 59:1 90:1 124:1 131:1 168:1 183:1 215:1 250:1 
-2.3715066516216949 17:1 27:1 53:1 98:1 111:1 133:1 167:1 183:1 213:1 259:1 
-0.70075531964101556 16:1 40:1 53:1 79:1 116:1 131:1 157:1 183:1 224:1 250:1 
-3.6387901881743265 1:1 39:1 69:1 97:1 129:1 152:1 161:1 183:1 221:1 251:1 
-2.2161919014906752 7:1 40:1 71:1 90:1 108:1 131:1 178:1 189:1 209:1 238:1 
-2.2112317584428078 7:1 45:1 59:1 98:1 105:1 142:1 157:1 183:1 227:1 250:1 
-1.5173212201941353 16:1 31:1 59:1 101:1 126:1 131:1 181:1 189:1 228:1 238:1 
-2.3831148120723475 20:1 33:1 74:1 96:1 108:1 152:1 172:1 183:1 225:1 251:1 
-3.8906606835515398 6:1 35:1 68:1 92:1 112:1 149:1 167:1 193:1 209:1 254:1 
-5.6859635238065458 12:1 33:1 71:1 84:1 123:1 152:1 178:1 183:1 209:1 253:1 
-4.4571855646615308 7:1 45:1 58:1 97:1 126:1 152:1 157:1 183:1 227:1 250:1 
-0.60008636252634806 22:1 27:1 53:1 97:1 120:1 152:1 167:1 189:1 214:1 251:1 
-1.4937095931542355 20:1 37:1 64:1 90:1 108:1 131:1 175:1 189:1 222:1 239:1 
-1.9221647875044694 18:1 33:1 65:1 96:1 108:1 139:1 175:1 183:1 217:1 238:1 
-0.339923211179256 22:1 48:1 53:1 90:1 117:1 152:1 168:1 183:1 217:1 240:1 
-8 19:1 46:1 53:1 98:1 124:1 131:1 157:1 183:1 209:1 256:1 
-2.2993438024915984 20:1 27:1 72:1 98:1 105:1 131:1 157:1 183:1 230:1 238:1 
-0.15269700143056342 14:1 45:1 59:1 90:1 115:1 139:1 163:1 183:1 231:1 256:1 
-2.4692059335454588 7:1 46:1 69:1 94:1 123:1 135:1 175:1 183:1 217:1 245:1 
-8 9:1 34:1 72:1 94:1 115:1 131:1 161:1 183:1 209:1 241:1 
-4.890499146248696 20:1 40:1 57:1 97:1 115:1 149:1 170:1 183:1 214:1 250:1 
-0.39080515381557407 18:1 35:1 61:1 82:1 124:1 131:1 170:1 189:1 222:1 256:1 
-3.9110410873696551 22:1 38:1 59:1 98:1 118:1 150:1 181:1 193:1 209:1 239:1 
-4.6598417879644458 12:1 33:1 72:1 92:1 124:1 155:1 167:1 183:1 213:1 235:1 
-6.7719498876681916 20:1 40:1 72:1 103:1 115:1 131:1 161:1 183:1 209:1 254:1 
-2.1355920270195483 16:1 33:1 60:1 94:1 105:1 148:1 163:1 183:1 226:1 254:1 
-3.0860252145991169 12:1 44:1 72:1 98:1 122:1 148:1 174:1 183:1 209:1 254:1 
-3.8322196887634838 1:1 27:1 72:1 90:1 126:1 152:1 163:1 183:1 228:1 256:1 
-0.7729867386501118 1:1 27:1 72:1 98:1 116:1 141:1 161:1 183:1 209:1 238:1 
-5.7607130452503874 13:1 40:1 68:1 100:1 105:1 137:1 157:1 183:1 212:1 253:1 
-1.876075686159868 20:1 33:1 72:1 98:1 108:1 139:1 163:1 201:1 222:1 254:1 
-1.3800542383335648 12:1 29:1 74:1 87:1 120:1 131:1 175:1 189:1 209:1 235:1 
-3.7141553800155274 3:1 48:1 61:1 94:1 105:1 149:1 163:1 183:1 209:1 235:1 
-1.1759957464251949 22:1 35:1 68:1 79:1 123:1 137:1 157:1 183:1 209:1 242:1 
-6.3549888480904526 9:1 42:1 53:1 97:1 111:1 131:1 157:1 183:1 216:1 239:1 
-2.2516458394074519 1:1 27:1 53:1 86:1 109:1 131:1 178:1 183:1 213:1 238:1 
-3.9533869252740108 5:1 30:1 53:1 85:1 118:1 148:1 165:1 183:1 209:1 250:1 
-1.057952305097517 20:1 32:1 74:1 98:1 118:1 134:1 159:1 201:1 217:1 238:1 
-1.0181103995016165 1:1 27:1 64:1 100:1 111:1 131:1 163:1 183:1 209:1 246:1 
-1.870519817251965 22:1 33:1 53:1 85:1 105:1 131:1 168:1 183:1 220:1 253:1 
-0.64051833976371042 17:1 45:1 75:1 96:1 129:1 149:1 173:1 183:1 212:1 248:1 
-3.8162760726526894 19:1 43:1 53:1 82:1 118:1 137:1 159:1 183:1 225:1 254:1 
-1.0906285281434482 1:1 48:1 59:1 84:1 124:1 131:1 172:1 183:1 225:1 235:1 
-0.66071340851685367 7:1 27:1 70:1 98:1 126:1 139:1 172:1 183:1 227:1 238:1 
-0.24590823088281413 16:1 38:1 74:1 95:1 111:1 131:1 163:1 189:1 216:1 241:1 
-1.1842324545342164 7:1 33:1 60:1 85:1 108:1 152:1 163:1 195:1 216:1 256:1 
-0.19711012122112354 25:1 33:1 53:1 79:1 123:1 152:1 169:1 204:1 209:1 253:1 
-3.4934088180005936 20:1 42:1 64:1 83:1 126:1 131:1 173:1 202:1 227:1 251:1 
-8 12:1 38:1 71:1 85:1 124:1 131:1 170:1 183:1 213:1 241:1 
-2.1298627839214554 19:1 33:1 72:1 79:1 118:1 131:1 161:1 189:1 219:1 243:1 
-0.96742447864504544 7:1 37:1 61:1 98:1 120:1 152:1 175:1 204:1 219:1 245:1 
-0.17456529461219938 9:1 46:1 68:1 100:1 123:1 152:1 167:1 193:1 230:1 238:1 
-3.8476316781094719 12:1 51:1 63:1 98:1 124:1 131:1 176:1 183:1 212:1 253:1 
-0.42093146898858502 1:1 30:1 60:1 97:1 108:1 142:1 178:1 183:1 213:1 245:1 
-1.0877105452197664 18:1 32:1 64:1 79:1 122:1 131:1 163:1 183:1 228:1 256:1 
-5.257708786765968 1:1 33:1 53:1 98:1 126:1 137:1 178:1 183:1 209:1 241:1 
-0.33317323037018209 12:1 42:1 53:1 82:1 122:1 134:1 163:1 183:1 224:1 241:1 
-0.65354343036523788 19:1 40:1 59:1 95:1 124:1 152:1 176:1 204:1 227:1 235:1 
-3.4586075226760253 7:1 43:1 72:1 100:1 124:1 152:1 175:1 183:1 228:1 241:1 
-0.79113819518132522 16:1 46:1 61:1 97:1 117:1 149:1 175:1 187:1 209:1 248:1 
-2.776180476796128 19:1 39:1 71:1 97:1 109:1 131:1 170:1 189:1 209:1 235:1 
-1.1819958917419573 1:1 27:1 64:1 97:1 118:1 146:1 170:1 183:1 222:1 251:1 
-2.3119354728403625 12:1 45:1 66:1 94:1 118:1 131:1 170:1 199:1 228:1 254:1 
-1.4780448280106719 20:1 48:1 64:1 85:1 124:1 137:1 168:1 183:1 222:1 254:1 
-1.348258415492279 17:1 27:1 68:1 94:1 122:1 152:1 168:1 194:1 225:1 241:1 
-1.426259529894383 1:1 48:1 68:1 97:1 105:1 155:1 157:1 183:1 209:1 250:1 
-3.555124264965579 25:1 27:1 53:1 79:1 120:1 131:1 172:1 183:1 212:1 253:1 
-1.9453840675066449 18:1 38:1 68:1 97:1 113:1 137:1 161:1 200:1 227:1 254:1 
-6.6538391609441403 6:1 43:1 72:1 94:1 105:1 152:1 157:1 183:1 209:1 250:1 
-0.73851114898167236 17:1 46:1 68:1 79:1 126:1 131:1 157:1 183:1 224:1 254:1 
-3.1181195437657756 19:1 30:1 59:1 98:1 126:1 152:1 167:1 204:1 209:1 241:1 
-1.70341884291126 1:1 33:1 61:1 81:1 117:1 131:1 165:1 204:1 227:1 243:1 
-0.98075665393781886 13:1 27:1 61:1 97:1 118:1 152:1 175:1 193:1 215:1 251:1 
-1.2891334477923424 1:1 35:1 71:1 92:1 126:1 149:1 167:1 189:1 225:1 259:1 
-2.493989590842264 19:1 40:1 74:1 97:1 115:1 137:1 173:1 207:1 209:1 245:1 
-0.96868590492993178 17:1 46:1 56:1 92:1 111:1 152:1 170:1 200:1 227:1 241:1 
-0.70632194318706631 4:1 40:1 59:1 100:1 118:1 148:1 175:1 189:1 227:1 239:1 
-1.1788054131341179 14:1 33:1 74:1 92:1 122:1 149:1 163:1 201:1 213:1 238:1 
-1.498747784731985 1:1 40:1 58:1 92:1 118:1 144:1 161:1 183:1 227:1 235:1 
-0.44664425930133517 14:1 32:1 66:1 92:1 118:1 135:1 157:1 201:1 209:1 235:1 
-0.2036892857790534 14:1 40:1 66:1 83:1 105:1 149:1 157:1 183:1 209:1 245:1 
-0.24450492629356699 12:1 27:1 59:1 98:1 126:1 131:1 168:1 189:1 209:1 246:1 
-3.0631532597390354 12:1 42:1 74:1 85:1 109:1 139:1 173:1 183:1 219:1 235:1 
-8 19:1 38:1 53:1 92:1 124:1 152:1 176:1 183:1 209:1 254:1 
-0.11593047749021017 14:1 46:1 74:1 98:1 105:1 131:1 176:1 183:1 219:1 251:1 
-4.6161892519316785 20:1 27:1 53:1 98:1 105:1 141:1 173:1 183:1 209:1 254:1 
-5.4437804117970492 7:1 35:1 53:1 100:1 124:1 131:1 162:1 200:1 209:1 250:1 
-3.9116357250757572 1:1 45:1 72:1 100:1 126:1 152:1 161:1 183:1 215:1 238:1 
-0.45841021883532046 23:1 33:1 61:1 79:1 121:1 149:1 167:1 189:1 228:1 254:1 
-0.7128424630516853 19:1 37:1 59:1 98:1 124:1 152:1 160:1 183:1 217:1 245:1 
-0.018872101324225551 9:1 32:1 68:1 95:1 118:1 142:1 178:1 188:1 209:1 241:1 
-3.6715857957354792 6:1 42:1 69:1 92:1 116:1 152:1 162:1 183:1 215:1 239:1 
-3.2417079018894928 6:1 33:1 74:1 94:1 112:1 142:1 181:1 183:1 219:1 248:1 
-0.31841652453356473 22:1 42:1 60:1 90:1 129:1 131:1 167:1 196:1 219:1 245:1 
-0.59660446106130249 12:1 40:1 57:1 97:1 109:1 149:1 175:1 201:1 225:1 241:1 
-3.9591552893149826 7:1 46:1 71:1 79:1 121:1 131:1 161:1 183:1 227:1 254:1 
-1.4811674763125029 1:1 38:1 61:1 81:1 105:1 131:1 168:1 183:1 228:1 253:1 
-0.28720775251533376 1:1 46:1 71:1 90:1 127:1 131:1 163:1 183:1 227:1 254:1 
-7.3609239736053818 9:1 32:1 61:1 98:1 110:1 152:1 162:1 183:1 220:1 242:1 
-1.0705929755889745 12:1 32:1 64:1 97:1 113:1 139:1 169:1 183:1 217:1 247:1 
-1.3206289962578708 9:1 39:1 64:1 94:1 126:1 137:1 170:1 183:1 209:1 235:1 
-0.013807028512860659 16:1 48:1 59:1 92:1 105:1 131:1 157:1 183:1 224:1 256:1 
-6.5429829013471545 22:1 48:1 60:1 92:1 120:1 131:1 175:1 202:1 209:1 248:1 
-0.040981277641401838 14:1 42:1 53:1 97:1 124:1 131:1 170:1 200:1 224:1 256:1 
-0.34628278319810857 20:1 27:1 66:1 96:1 120:1 152:1 181:1 183:1 217:1 235:1 
-0.20425755688582289 1:1 32:1 71:1 97:1 116:1 131:1 175:1 189:1 227:1 256:1 
-1.3782353541524792 18:1 46:1 71:1 92:1 122:1 149:1 170:1 183:1 209:1 252:1 
-4.3139035246094721 6:1 45:1 53:1 92:1 121:1 142:1 176:1 183:1 209:1 253:1 
-3.2187823083083296 3:1 38:1 64:1 100:1 116:1 152:1 175:1 183:1 209:1 241:1 
-0.0062260115129610834 13:1 38:1 58:1 97:1 124:1 131:1 157:1 193:1 228:1 239:1 
-1.3362053837912755 12:1 32:1 71:1 98:1 105:1 131:1 167:1 202:1 213:1 254:1 
-0.72264330914355002 19:1 34:1 63:1 79:1 112:1 150:1 161:1 183:1 225:1 256:1 
-0.23300210646790478 11:1 27:1 60:1 98:1 109:1 131:1 173:1 204:1 217:1 248:1 
-0.81839239094498484 22:1 35:1 66:1 98:1 110:1 134:1 163:1 204:1 209:1 238:1 
-1.2389241913224018 25:1 33:1 61:1 97:1 112:1 139:1 176:1 200:1 216:1 238:1 
-8 9:1 33:1 64:1 97:1 123:1 152:1 173:1 183:1 212:1 239:1 
-4.9868294952159307 19:1 45:1 74:1 95:1 105:1 134:1 161:1 183:1 222:1 253:1 
-1.4743276936873979 20:1 43:1 74:1 97:1 123:1 135:1 168:1 183:1 213:1 252:1 
-2.5070678572924288 5:1 38:1 53:1 83:1 122:1 149:1 173:1 204:1 225:1 239:1 
-1.3400174554684954 17:1 48:1 69:1 83:1 118:1 150:1 176:1 183:1 227:1 253:1 
