svm_type c_svc
kernel_type precomputed
nr_class 2
total_sv 274
rho 74.517293191975384
label 1 -1
nr_sv 81 193
SV
0.76712306982499756 0:9 
0.46003274660214089 0:64 
0.63888839317386314 0:108 
1 0:193 
0.87767479068716237 0:245 
0.54299257660347533 0:293 
1 0:338 
0.0018745710927063073 0:435 
1 0:569 
0.51727223296205349 0:618 
1 0:660 
0.76066671134062347 0:745 
0.65574426556668408 0:901 
1 0:957 
0.84168717193243714 0:998 
0.057141518122307035 0:1042 
0.79122197431060937 0:1084 
1 0:1128 
1 0:1182 
1 0:1228 
1 0:1279 
0.32897321272845714 0:1321 
0.49150486538822635 0:1370 
0.33380096047568736 0:1460 
0.45718728622721239 0:1561 
0.38936838281193548 0:1618 
0.95672777206975734 0:1673 
1 0:1835 
0.39115581520584813 0:1894 
0.68281966091861657 0:1952 
0.41448808055502273 0:2029 
0.88578896399514762 0:2265 
0.44116251355308406 0:2319 
0.42008240933633501 0:2372 
0.16486651059677787 0:2465 
0.49725265884148567 0:2507 
1 0:2547 
1 0:2589 
1 0:2634 
1 0:2732 
1 0:2781 
0.67131500047685289 0:2824 
1 0:2882 
0.55554927355390327 0:2924 
0.33026317853003651 0:3014 
0.051217652491252923 0:3058 
0.1940482624840987 0:3119 
0.97915943105115555 0:3294 
0.4740657642308605 0:3341 
1 0:3387 
0.41594372126411006 0:3443 
1 0:3492 
0.64231759442086733 0:3537 
0.57976881020061444 0:3596 
1 0:3636 
1 0:3767 
0.13345776703020118 0:3823 
0.15396770449911409 0:3864 
1 0:3911 
1 0:3956 
0.51257083776849643 0:4004 
0.62243209532020183 0:4096 
1 0:4189 
0.71358199666294841 0:4336 
0.63770836727376079 0:4377 
0.37829319939459949 0:4415 
0.11893129036543251 0:4520 
0.23417653928998899 0:4569 
1 0:4647 
0.39937191263675453 0:4692 
0.74541913884128597 0:4740 
1 0:4823 
0.66085926550619445 0:4867 
0.48859086182049871 0:4909 
0.1286224136138899 0:4952 
0.59449118593466443 0:4998 
0.41316755328102633 0:5037 
0.11388220787487363 0:5084 
0.38235721641841641 0:5186 
0.032875918430740426 0:5230 
1 0:5279 
-0.15337273816613803 0:24 
-0.54863152476294297 0:58 
-0.14238806421058842 0:59 
-0.47544482615075229 0:150 
-0.035700260868648116 0:171 
-0.58849319889732843 0:192 
-0.0035072650709384819 0:205 
-0.072760356611171681 0:258 
-0.046365595065183465 0:270 
-0.077720126791573654 0:283 
-0.58643844403141288 0:292 
-0.43741086113508904 0:381 
-0.063893808942724215 0:391 
-0.94415890653882606 0:396 
-0.35340506805768257 0:481 
-0.18546077078286768 0:495 
-0.023921798029923714 0:525 
-0.86849314615604734 0:526 
-0.15412963343935099 0:564 
-0.32892705224004226 0:567 
-0.052308684162493006 0:611 
-0.056157630289759751 0:616 
-0.13168222734891896 0:663 
-0.05264237638745782 0:665 
-0.021409293611020598 0:666 
-0.293192258555664 0:669 
-0.12906745718780552 0:691 
-0.029702934224404884 0:710 
-0.11627697194485434 0:746 
-0.03367167645997822 0:764 
-0.023125560682969899 0:783 
-0.42608920546481005 0:805 
-0.031816054950633568 0:842 
-0.59226522473574217 0:898 
-0.19081892448023333 0:916 
-0.00017073604059465551 0:944 
-0.59381547941229651 0:979 
-0.038095334658028217 0:1002 
-0.33177753222304868 0:1003 
-0.60956481262192541 0:1005 
-0.57141912351775204 0:1017 
-0.060145282929938947 0:1018 
-0.18717595547079532 0:1039 
-0.0066544655720989793 0:1053 
-0.63967779964854499 0:1127 
-0.5233005235731224 0:1137 
-0.076315455672691143 0:1145 
-0.84365775336341498 0:1177 
-0.23477908965945041 0:1231 
-0.099347984940033648 0:1240 
-0.065299584175077086 0:1263 
-0.91628773513408202 0:1276 
-0.17483360994857561 0:1306 
-0.057305134121505043 0:1335 
-0.079413836979004421 0:1384 
-0.11160533131446501 0:1411 
-0.98882658155254544 0:1413 
-1 0:1515 
-0.036977448086222858 0:1563 
-0.79856781266696153 0:1619 
-1 0:1657 
-0.22282879715227094 0:1663 
-0.22138031669479541 0:1713 
-0.12204004217386182 0:1766 
-0.18139919486850684 0:1777 
-0.33415779900773285 0:1804 
-0.10806652852118985 0:1824 
-0.088374747324594424 0:1852 
-0.33852322689658049 0:1975 
-0.1373454615457371 0:1994 
-0.40567217234008252 0:2024 
-0.026679007866731344 0:2046 
-0.21183690509706637 0:2083 
-0.069461789312617955 0:2091 
-0.082331119934442601 0:2184 
-0.12310131904420224 0:2217 
-0.024077813859447433 0:2255 
-0.48418958131548251 0:2316 
-0.23649155070901817 0:2357 
-0.11494162016212418 0:2365 
-0.40532511722008913 0:2509 
-0.2677149569100512 0:2590 
-0.67532010057987046 0:2635 
-0.31133114646535942 0:2679 
-0.09913926461750748 0:2684 
-0.010946650510749957 0:2691 
-0.17156010248829481 0:2705 
-0.092082500771658721 0:2731 
-0.27155476262277828 0:2733 
-0.33614516606369638 0:2771 
-1 0:2785 
-0.040130094061437444 0:2808 
-0.89382108449929931 0:2822 
-0.029115001309356164 0:2925 
-0.070288513558982343 0:2936 
-0.01067848224937069 0:2944 
-0.37954223544596793 0:3012 
-0.051325998384520795 0:3027 
-0.001434290409769683 0:3028 
-0.10014810334659016 0:3030 
-0.075192197778486486 0:3061 
-0.1639127302308731 0:3081 
-0.0020893975599244204 0:3118 
-0.45511348961167397 0:3126 
-0.24701527498759798 0:3143 
-0.13751669427466778 0:3255 
-0.19347421107838816 0:3296 
-0.23631734232473331 0:3342 
-0.29341278691387285 0:3381 
-0.053215585860808969 0:3383 
-0.65441711651712786 0:3399 
-0.10174797423977311 0:3431 
-0.56635656598563755 0:3470 
-0.040623421142757715 0:3489 
-0.054645584106343972 0:3502 
-0.16677245453330658 0:3529 
-0.1765628534487553 0:3542 
-0.22201219686856663 0:3597 
-0.05871520920065517 0:3609 
-1 0:3638 
-0.04432043102666227 0:3678 
-0.43535477534352662 0:3689 
-0.09371032046158069 0:3724 
-0.70785317795880842 0:3768 
-0.2667408298895057 0:3771 
-0.32340571036663668 0:3797 
-0.051957417747689992 0:3820 
-0.026172878333709213 0:3833 
-0.073517882226853695 0:3836 
-0.51119388576999858 0:3865 
-0.098983215437591129 0:3867 
-0.0012346734760098784 0:3880 
-0.45217240815847987 0:3903 
-0.1469102042927492 0:3909 
-0.023124858255015302 0:3939 
-0.29054584558168317 0:3945 
-0.099198207150212672 0:3984 
-0.32861605734411786 0:4005 
-0.024491572560189304 0:4011 
-0.10035004376197056 0:4016 
-0.21133881694837228 0:4099 
-0.011201234886322915 0:4113 
-0.062960299061240024 0:4154 
-1 0:4190 
-1 0:4192 
-0.10012802570771005 0:4251 
-0.069504661266215309 0:4296 
-0.40551638423971614 0:4358 
-0.017230528186529547 0:4376 
-0.36244477350974047 0:4379 
-0.013767957012079519 0:4380 
-0.024725985294795874 0:4412 
-0.20411436080117168 0:4510 
-0.14101113736543686 0:4545 
-0.4355091201313015 0:4571 
-0.49176258082946789 0:4612 
-0.54372630277490519 0:4617 
-0.55372464628504281 0:4619 
-0.063512653713513376 0:4622 
-0.45695254880202957 0:4646 
-0.061479855779704232 0:4666 
-0.39197889982726164 0:4675 
-0.19224317195254478 0:4687 
-0.34196493118698079 0:4691 
-0.22636998225402921 0:4693 
-0.35905957693947865 0:4711 
-0.023067449564874453 0:4757 
-0.29745860703911764 0:4801 
-0.67670164935493449 0:4821 
-0.15744256342583907 0:4856 
-0.16764426177168504 0:4864 
-0.058662578730470032 0:4907 
-0.16662202425290912 0:4944 
-0.073765154852955997 0:4946 
-0.027652638056033033 0:4980 
-0.5261081287132654 0:4990 
-0.17511282719297658 0:4997 
-0.093434146250284053 0:5027 
-0.79673086223038669 0:5035 
-0.11072301297425702 0:5036 
-0.58493438893503225 0:5047 
-0.20677651486265347 0:5050 
-0.23732870424261537 0:5077 
-0.66558442637037896 0:5131 
-0.62082437295155657 0:5150 
-0.00055102789687043756 0:5178 
-0.13249020092588715 0:5212 
-0.52584866906457128 0:5224 
-0.039865979580518608 0:5225 
-0.75508401579662032 0:5281 
-0.033069694674836066 0:5293 
-0.93550546928376555 0:5299 
-0.22935309497168307 0:5305 
